%YAML:1.0
---
opencv_ml_svm:
   format: 3
   svmType: C_SVC
   kernel:
      type: RBF
      gamma: 2.2500000000000003e-03
   C: 6.2500000000000000e+01
   term_criteria: { epsilon:1.1920928955078125e-07, iterations:1000 }
   var_count: 48
   class_count: 8
   class_labels: !!opencv-matrix
      rows: 8
      cols: 1
      dt: i
      data: [ 0, 1, 2, 3, 4, 5, 6, 7 ]
   sv_total: 283
   support_vectors:
      - [ -1.22377801e+00, 1.66375101e+00, 1.49943596e-02,
          4.09723997e-01, -1.97511899e+00, 5.78305578e+00,
          1.55448601e-01, 1.38721335e+00, -8.84229004e-01,
          4.41587210e+00, 6.87227547e-01, 1.13832402e+00,
          -1.52790904e+00, -2.38010008e-02, -7.19703615e-01,
          3.84694397e-01, -3.12803793e+00, 3.12212992e+00,
          -2.39683107e-01, 1.60179722e+00, -3.13627505e+00,
          3.09302902e+00, -6.36292994e-01, 1.50497830e+00,
          -1.15782999e-01, 5.48989996e-02, -2.80283391e-02,
          4.85746488e-02, -2.09764004e-01, 1.21371001e-01,
          5.00304215e-02, 5.86251244e-02, -1.38064995e-01,
          3.16408992e-01, 8.85613784e-02, 1.35101452e-01,
          -4.87973005e-01, -9.57000011e-04, -2.23279700e-01,
          1.49860784e-01, -2.80387014e-01, 4.46877003e-01,
          3.26418877e-01, 1.28149897e-01, -2.80387014e-01,
          -1.73820004e-01, -2.08311543e-01, 2.97948606e-02 ]
      - [ -2.94391990e-01, 8.53038013e-01, 2.58974195e-01,
          3.50670755e-01, -5.51594019e-01, 4.62424010e-01,
          -1.19850598e-01, 3.17777306e-01, -1.57449806e+00,
          7.55219981e-02, -6.55283451e-01, 5.97762585e-01,
          -1.32823598e+00, -1.07055001e-01, -6.70023024e-01,
          4.05214339e-01, -3.12926197e+00, 3.14131594e+00,
          -2.28608906e-01, 1.95414484e+00, -3.09387589e+00,
          4.65963006e-01, -1.29262471e+00, 1.45877552e+00,
          -3.17346990e-01, 3.73524010e-01, 8.17900226e-02,
          1.79904699e-01, -2.78094602e+00, 6.40362883e+00,
          -1.14104338e-01, 1.46380687e+00, -3.17286015e-01,
          3.30152798e+00, 5.87873042e-01, 7.58830607e-01,
          -1.49201298e+00, -5.77900000e-03, -6.23228192e-01,
          4.48643595e-01, -3.03336191e+00, 3.00641203e+00,
          -1.96419680e+00, 1.54115188e+00, -2.94337606e+00,
          -5.25790006e-02, -5.90967417e-01, 9.07662928e-01 ]
      - [ -2.47363806e+00, 5.39175081e+00, -3.45652215e-02,
          1.18556106e+00, -9.73881006e-01, 3.82464290e+00,
          5.33364015e-03, 6.45847261e-01, -4.01871586e+00,
          1.81743300e+00, 9.15285572e-02, 7.09175706e-01,
          -1.05890703e+00, -8.57529998e-01, -1.00749552e+00,
          5.49949817e-02, -3.13497996e+00, 3.13926005e+00,
          -1.90704155e+00, 2.35822153e+00, -3.14151406e+00,
          3.13844991e+00, -7.29015982e-03, 3.12155199e+00,
          -4.03888321e+00, 2.12858200e+00, 2.24538408e-02,
          8.79843593e-01, -1.24623203e+00, 4.23564911e+00,
          3.66930999e-02, 7.57616639e-01, -1.70585704e+00,
          6.30787015e-01, 5.42540811e-02, 3.70714992e-01,
          -1.15218794e+00, -9.34988976e-01, -1.05393744e+00,
          6.45179152e-02, 2.59532905e+00, 2.98456407e+00, 2.78773856e+00,
          1.08269148e-01, 2.04538202e+00, 2.18228507e+00, 2.11783552e+00,
          3.66572514e-02 ]
      - [ -8.27071011e-01, 8.89500976e-01, 1.43759936e-01,
          2.32931718e-01, -5.22096992e-01, 2.87339902e+00,
          2.87552953e-01, 7.29217172e-01, -8.23472023e-01,
          1.63268805e+00, 2.71909386e-01, 4.89107847e-01,
          -9.27751005e-01, 3.37886006e-01, -1.03475623e-01,
          5.14247775e-01, -3.13913202e+00, 3.14133191e+00,
          2.67520785e+00, 1.20592678e+00, 2.72518206e+00, 3.09013891e+00,
          2.98031974e+00, 1.23868242e-01, -6.77509010e-01,
          4.56968993e-01, 4.48973989e-03, 2.10482165e-01,
          -6.75635993e-01, 4.94473010e-01, 6.21030014e-03,
          1.71249971e-01, -5.35839021e-01, 2.27225399e+00,
          7.94320628e-02, 5.27281761e-01, 5.13599999e-02, 1.09056003e-01,
          7.23486394e-02, 1.57498084e-02, -6.60838008e-01,
          -5.19212008e-01, -6.34841740e-01, 3.14694047e-02,
          9.42690000e-02, 1.64465994e-01, 1.28016219e-01, 1.72263272e-02 ]
      - [ -4.09034997e-01, 7.72090018e-01, 9.39350016e-03,
          2.00064108e-01, -4.32443380e+00, 1.94271004e+00,
          6.49863994e-03, 8.88957679e-01, -4.15010005e-01,
          8.20339978e-01, -3.04207997e-03, 1.61324978e-01,
          -1.42149198e+00, -1.31769502e+00, -1.36408257e+00,
          3.13333012e-02, -6.18413985e-01, -3.08589991e-02,
          -2.98768163e-01, 1.43001780e-01, -1.17372704e+00,
          -5.80012023e-01, -8.47235978e-01, 1.51101917e-01,
          -7.78741002e-01, 2.37148002e-01, -7.14291036e-02,
          2.00406447e-01, -1.01299095e+00, 5.64802980e+00,
          2.06420198e-02, 1.19698465e+00, -1.23758698e+00,
          5.23612976e-01, -2.09684595e-02, 2.56201327e-01,
          -1.32715201e+00, -8.07072997e-01, -1.07365620e+00,
          1.89769819e-01, 6.79122984e-01, 1.22464299e+00, 1.06671941e+00,
          1.53987333e-01, 1.89385995e-01, 7.00836003e-01, 5.47378421e-01,
          1.38616219e-01 ]
      - [ -1.92260504e+00, 3.20490408e+00, 4.07363214e-02,
          7.61396646e-01, -1.14429605e+00, 3.26340699e+00,
          1.94448000e-03, 7.33301759e-01, -4.25346184e+00,
          5.58427989e-01, 7.90081173e-02, 7.05416918e-01,
          -1.24646795e+00, -1.00992799e+00, -1.15636754e+00,
          5.52261584e-02, -2.67404509e+00, -2.42083406e+00,
          -2.53675938e+00, 7.06276298e-02, -3.13802409e+00,
          3.11818910e+00, -2.27355808e-02, 2.95751429e+00,
          -3.86117291e+00, 2.50019407e+00, -9.02967993e-03,
          9.28148568e-01, -6.65791988e-01, 4.03447580e+00,
          -6.56695990e-03, 6.98335052e-01, -3.17354798e+00,
          7.27470994e-01, 9.41101164e-02, 5.62757313e-01,
          -1.17334199e+00, -9.31364000e-01, -1.10031366e+00,
          5.95461801e-02, 2.23700404e+00, 2.49320602e+00, 2.35433078e+00,
          5.31402603e-02, 4.07983005e-01, 9.26657975e-01, 6.49848640e-01,
          1.60971284e-01 ]
      - [ -4.68526989e-01, 1.55327904e+00, -5.24603995e-03,
          3.54001790e-01, -5.96453011e-01, 4.33322996e-01,
          9.49202012e-03, 1.59242928e-01, -3.17512393e+00,
          8.39635015e-01, 1.48232598e-02, 6.93560243e-01,
          -6.55385017e-01, -5.66156030e-01, -6.09745324e-01,
          1.58409625e-02, -2.68845296e+00, -2.51703000e+00,
          -2.59565830e+00, 4.51203436e-02, -2.40890598e+00,
          -2.29374695e+00, -2.33153343e+00, 3.60443555e-02,
          -1.25313997e+00, 5.71644008e-01, -4.13690396e-02,
          2.55131423e-01, -1.14937496e+00, 1.20860195e+00,
          1.19048404e-02, 3.11497271e-01, -2.96388006e+00,
          6.14201009e-01, -2.29457598e-02, 7.41089940e-01,
          -4.32792991e-01, -1.31264001e-01, -3.05173755e-01,
          1.05588898e-01, 3.19137007e-01, 8.45475018e-01, 5.67385852e-01,
          2.19728664e-01, -2.94692993e-01, -1.96216002e-01,
          -2.39712894e-01, 3.63900550e-02 ]
      - [ -4.99781013e-01, 6.24321997e-01, 3.92051190e-02,
          2.20918491e-01, -1.39233994e+00, 5.02319813e+00,
          8.54279026e-02, 1.04469371e+00, -2.08115792e+00,
          1.21974599e+00, -5.80010004e-03, 3.95223618e-01,
          -1.30011594e+00, -8.00626993e-01, -1.07251787e+00,
          1.63653985e-01, -1.41157901e+00, -7.13908017e-01,
          -1.26486385e+00, 1.74516842e-01, -1.54961300e+00,
          -8.72343004e-01, -1.41833830e+00, 1.69918388e-01,
          -7.90396988e-01, 5.54421008e-01, -3.13240010e-03,
          2.45011821e-01, -5.03982306e+00, 1.53383899e+00,
          -3.02241999e-03, 9.05565917e-01, -2.36495209e+00,
          9.64128971e-01, 4.58406005e-03, 4.45720673e-01,
          -1.35531104e+00, -1.24601400e+00, -1.30566502e+00,
          2.78826151e-02, 1.71306098e+00, 2.25527906e+00, 1.97186303e+00,
          9.35085937e-02, 6.73381984e-01, 1.22662497e+00, 9.54084218e-01,
          9.32234302e-02 ]
      - [ -5.92523992e-01, 2.24833107e+00, 3.33062768e-01,
          5.47800422e-01, -2.86852503e+00, 1.77136397e+00,
          -7.41776377e-02, 8.86697948e-01, -2.17926598e+00,
          7.73994982e-01, 1.35473758e-01, 6.51406527e-01,
          -7.23860025e-01, -3.05020988e-01, -5.02466500e-01,
          1.47901133e-01, -2.11813903e+00, -2.24382997e-01,
          -1.53063703e+00, 4.74940151e-01, -4.82832015e-01,
          4.36315000e-01, -1.67381003e-01, 3.16233367e-01,
          -6.17750788e+00, -6.11438990e-01, -2.07136512e+00,
          1.19902933e+00, -3.00020289e+00, 3.02160501e+00,
          -5.42436361e-01, 1.36821330e+00, -9.19813991e-01,
          1.13033998e+00, 3.68751347e-01, 4.95994568e-01,
          -1.43489397e+00, 1.86676994e-01, -8.46040785e-01,
          4.68576610e-01, -2.24830794e+00, 7.33076990e-01,
          -7.09774256e-01, 9.59834516e-01, -1.46716702e+00,
          9.49781001e-01, -2.77552396e-01, 8.59083176e-01 ]
      - [ -8.58038008e-01, 3.04886293e+00, 6.18806817e-02,
          5.50948322e-01, -1.14591599e+00, 2.47286201e+00,
          1.97844803e-02, 5.08052289e-01, -6.56945610e+00,
          7.83362985e-01, -4.16208394e-02, 1.03976190e+00,
          -1.15191495e+00, -9.97371972e-01, -1.07165003e+00,
          4.15654108e-02, -2.14183307e+00, -1.89105999e+00,
          -2.03635812e+00, 5.57218641e-02, -1.67306197e+00,
          -1.38095295e+00, -1.47725332e+00, 8.19586739e-02,
          -3.30348611e+00, 4.47661996e-01, -8.24648589e-02,
          5.88821650e-01, -3.26742792e+00, 3.60871410e+00,
          -6.97452016e-03, 7.92131066e-01, -4.11869001e+00,
          7.68710017e-01, -3.88618410e-02, 8.87094855e-01,
          -1.19173300e+00, -1.10133302e+00, -1.14175951e+00,
          2.82671060e-02, 1.01910198e+00, 1.75470400e+00, 1.55308068e+00,
          1.73014998e-01, 4.24302995e-01, 9.44691002e-01, 8.14756155e-01,
          1.05750322e-01 ]
      - [ -2.38107896e+00, 4.77387094e+00, -9.48363304e-01,
          1.23940003e+00, -1.16905489e+01, 9.08269882e+00,
          4.16739553e-01, 3.17638922e+00, -2.66461611e+00,
          6.96691799e+00, 1.60960466e-01, 1.62924564e+00,
          -2.76771992e-01, 3.66117001e-01, 3.93219991e-03,
          1.74906179e-01, -8.19096029e-01, 1.90684903e+00,
          6.67402983e-01, 7.14567125e-01, 1.73793697e+00, 2.43460393e+00,
          2.00349975e+00, 1.84215456e-01, -7.87038982e-01,
          -4.49582011e-01, -5.90762973e-01, 9.51445177e-02,
          -5.23927987e-01, 9.33986008e-01, -1.01814881e-01,
          4.00560409e-01, -1.89954901e+00, -9.07893002e-01,
          -1.28383863e+00, 2.89507002e-01, -1.14712298e+00,
          -7.53467023e-01, -1.04586864e+00, 9.09957364e-02,
          -8.99780020e-02, 2.42840791e+00, 2.48573303e-01,
          3.25705558e-01, 2.42840791e+00, 2.77332902e+00, 2.59244847e+00,
          1.09488636e-01 ]
      - [ -1.05288997e-01, 2.22770005e-01, 1.83622595e-02,
          6.41803369e-02, -2.18193993e-01, 3.04466993e-01,
          -1.72031997e-03, 8.26545656e-02, -2.05051005e-01,
          6.89639971e-02, 1.74347404e-02, 5.12727015e-02,
          -4.84230012e-01, -4.11264986e-01, -4.33753252e-01,
          1.83137450e-02, -2.56733704e+00, -2.49833989e+00,
          -2.52086449e+00, 2.09489129e-02, -2.89388895e+00,
          -2.87711000e+00, -2.88484383e+00, 4.26238263e-03,
          -5.45867026e-01, 7.12290034e-02, -8.34654570e-02,
          1.35489389e-01, -2.17440993e-01, 1.34962007e-01,
          -3.65076587e-02, 6.82906508e-02, -2.29179993e-01,
          1.99231997e-01, -2.31401604e-02, 9.28850919e-02,
          -3.00536007e-01, -1.12834997e-01, -1.92259073e-01,
          4.56326269e-02, 8.76201987e-01, 9.10265982e-01, 8.96053135e-01,
          1.07264156e-02, 2.67811000e-01, 4.06147987e-01, 3.36678475e-01,
          3.64417657e-02 ]
      - [ -5.58380008e-01, 1.41750395e+00, 5.98783977e-03,
          3.28086913e-01, -4.14546013e+00, 1.00040400e+00,
          1.83670800e-02, 7.22309709e-01, -3.13091493e+00,
          1.27310097e+00, 4.03783983e-03, 5.05161941e-01,
          -1.38006902e+00, -1.21188605e+00, -1.28762078e+00,
          4.30754796e-02, -2.26888704e+00, -1.39076495e+00,
          -1.89680207e+00, 1.92341983e-01, -2.45772195e+00,
          -1.57604694e+00, -2.08716130e+00, 1.93684399e-01,
          -9.80116010e-01, 4.06470001e-01, -8.95611793e-02,
          2.87412673e-01, -1.77043402e+00, 7.06649208e+00,
          4.60182205e-02, 1.50335145e+00, -1.45713603e+00,
          2.89609998e-01, 3.73244006e-03, 2.45930567e-01,
          -1.44509006e+00, -8.24784994e-01, -1.11907732e+00,
          2.37886176e-01, 7.01104999e-01, 1.64723396e+00, 1.31299031e+00,
          2.40631700e-01, 4.92470004e-02, 9.17783022e-01, 6.24358475e-01,
          2.15090394e-01 ]
      - [ -2.80903101e+00, 3.77412701e+00, 4.10213210e-02,
          8.16704035e-01, -1.33418405e+00, 3.45293093e+00,
          2.11920403e-02, 6.04092538e-01, -7.06921387e+00,
          1.97416997e+00, -1.26833003e-02, 1.10269713e+00,
          -9.68183994e-01, -8.13591003e-01, -9.03039396e-01,
          5.55207394e-02, -1.33056200e+00, -1.17479503e+00,
          -1.24152839e+00, 5.84647432e-02, -1.83387399e+00,
          -1.68012798e+00, -1.71730423e+00, 2.79574208e-02,
          -3.07687497e+00, 2.27538705e+00, -3.43451016e-02,
          7.39607930e-01, -8.65655005e-01, 3.54206395e+00,
          1.95515808e-02, 6.08974397e-01, -6.76523781e+00,
          3.69729805e+00, -1.34579800e-02, 1.10869133e+00,
          -1.00515604e+00, -8.31054986e-01, -9.19985175e-01,
          6.73698112e-02, 1.39942598e+00, 1.50068498e+00, 1.44056678e+00,
          1.51215801e-02, 1.10126197e+00, 1.35695004e+00, 1.20192659e+00,
          6.04390427e-02 ]
      - [ -2.21963811e+00, 3.83785605e+00, 1.44975260e-01,
          1.64881325e+00, -1.20745695e+00, 1.11404204e+00,
          1.98589005e-02, 4.77266610e-01, -1.55972099e+00,
          1.38840795e+00, 2.47103885e-01, 4.62173492e-01,
          -2.47904003e-01, -1.21620998e-01, -1.66036844e-01,
          3.63658294e-02, -2.71667004e-01, 1.42606997e+00,
          -1.47499755e-01, 2.41276324e-01, 1.41622102e+00,
          1.57069099e+00, 1.47074497e+00, 5.29090054e-02,
          -4.87961578e+00, 1.92342401e+00, -6.56307578e-01,
          1.55437243e+00, -1.18728495e+00, 6.54676974e-01,
          -4.65933859e-01, 4.79949802e-01, -7.20001996e-01,
          6.37363017e-01, -1.30756795e-02, 4.39128876e-01,
          -1.19221699e+00, -5.89654028e-01, -7.89852083e-01,
          2.11742640e-01, -2.77737188e+00, 3.00692606e+00,
          -4.53296632e-01, 2.23483586e+00, -2.66284800e+00,
          2.94510007e+00, -1.84162080e-01, 2.04972696e+00 ]
      - [ -1.52376401e+00, 2.20815206e+00, 3.09428405e-02,
          5.75197220e-01, -1.50750196e+00, 9.41403985e-01,
          2.04873998e-02, 2.95950711e-01, -7.03977680e+00,
          6.24557018e-01, 3.66891995e-02, 1.04060638e+00,
          -1.39887500e+00, -1.31545103e+00, -1.35237789e+00,
          2.14402154e-02, -1.19194305e+00, -8.30250978e-01,
          -9.48965728e-01, 8.58388171e-02, 8.18796992e-01,
          1.53918505e+00, 1.22341192e+00, 2.06340030e-01,
          -4.13009119e+00, 1.80554700e+00, -2.56729592e-02,
          7.68398046e-01, -2.14803600e+00, 1.91972995e+00,
          1.23172197e-02, 5.03087759e-01, -6.14223194e+00,
          1.35327899e+00, 1.43902795e-02, 1.14474893e+00,
          -1.33956599e+00, -1.26225603e+00, -1.29504168e+00,
          2.32520495e-02, 6.11351013e-01, 8.18189025e-01, 6.94441140e-01,
          4.18513939e-02, 1.06432997e-01, 6.63317978e-01, 3.70061487e-01,
          1.59810126e-01 ]
      - [ -1.06450796e+00, 2.66633606e+00, 4.70403805e-02,
          6.65204465e-01, -5.41781616e+00, 2.59572697e+00,
          5.95400017e-03, 1.02901459e+00, -3.62826109e+00,
          8.63708973e-01, 1.90117419e-01, 6.66184366e-01,
          -7.87508011e-01, -4.38753992e-01, -7.33783782e-01,
          8.41205344e-02, -9.79873002e-01, -3.73073995e-01,
          -7.62940526e-01, 1.76328048e-01, 8.56078029e-01,
          1.07000804e+00, 9.71172512e-01, 6.49087057e-02,
          -2.59321594e+00, 1.82043505e+00, -4.20959182e-02,
          7.22967744e-01, -1.03944099e+00, 1.76431894e+00,
          4.33974192e-02, 3.41811031e-01, -3.45852208e+00,
          7.29636014e-01, 1.16029359e-01, 8.44537854e-01,
          -1.01920497e+00, -8.82502973e-01, -9.39586699e-01,
          5.04550040e-02, 7.56935000e-01, 1.10506201e+00, 9.78733897e-01,
          9.11850333e-02, 2.93686002e-01, 7.30615973e-01, 4.77866828e-01,
          1.47127256e-01 ]
      - [ -2.80200005e-01, 2.15411401e+00, 5.91645613e-02,
          3.42039347e-01, -2.82190299e+00, 7.54878998e-01,
          -1.50388004e-02, 5.20187199e-01, -4.88441610e+00,
          1.23812497e+00, -4.09656204e-02, 1.03692555e+00,
          -8.11309963e-02, 8.40950012e-02, -2.83900201e-02,
          3.84809040e-02, -7.08980978e-01, -2.31506005e-01,
          -4.21077967e-01, 1.39643535e-01, -6.48944020e-01,
          -5.76004982e-01, -6.10224843e-01, 2.06880104e-02,
          -7.28637993e-01, 3.91200006e-01, -8.47848039e-03,
          1.88426957e-01, -5.85123003e-01, 2.72536010e-01,
          3.25536006e-03, 1.25614896e-01, -1.18735301e+00,
          2.76995897e+00, 7.08612008e-03, 6.72446489e-01, 1.12682000e-01,
          1.89197004e-01, 1.45131886e-01, 1.94939580e-02, 2.45290007e-02,
          1.68182999e-01, 1.00580037e-01, 4.25082631e-02,
          -8.74424994e-01, -8.08995008e-01, -8.48602593e-01,
          2.35515013e-02 ]
      - [ -4.41152006e-01, 7.73827016e-01, -3.42053990e-03,
          2.38414228e-01, -3.99447989e+00, 1.06296301e+00,
          2.15965994e-02, 7.36284077e-01, -1.26955700e+00,
          4.75751996e-01, 1.15566999e-02, 2.82613844e-01,
          -1.32873595e+00, -1.20274699e+00, -1.24448836e+00,
          3.19685452e-02, -2.42680001e+00, -1.79791701e+00,
          -2.05197191e+00, 1.27928331e-01, -2.58996296e+00,
          -1.96711504e+00, -2.22194600e+00, 1.24820881e-01,
          -6.32211030e-01, 3.04663002e-01, -7.81380236e-02,
          1.87754914e-01, -9.52968001e-01, 4.68378496e+00,
          1.52312396e-02, 1.06377637e+00, -6.94047987e-01,
          2.23038003e-01, -3.35640199e-02, 1.68298125e-01,
          -1.36120105e+00, -7.43431985e-01, -9.54133749e-01,
          2.33680427e-01, 9.58423972e-01, 1.57996595e+00, 1.33518088e+00,
          1.30664304e-01, 2.56788999e-01, 8.69871974e-01, 6.22333705e-01,
          1.25616968e-01 ]
      - [ -1.54916799e+00, 3.95435309e+00, 5.78566603e-02,
          7.13647246e-01, -3.94899011e-01, 9.68573987e-01,
          2.69362200e-02, 2.12954655e-01, -8.93051624e+00,
          1.88262701e+00, 1.42782396e-02, 1.40394986e+00,
          -6.72297001e-01, -4.62989002e-01, -6.01559997e-01,
          6.14363812e-02, -1.11988199e+00, -8.86964977e-01,
          -9.72159207e-01, 7.03709796e-02, -4.83960003e-01,
          -3.13012987e-01, -4.18568641e-01, 4.07824293e-02,
          -3.62704206e+00, 1.49117899e+00, -5.98673411e-02,
          6.99479580e-01, -8.79733980e-01, 1.00524604e+00,
          1.85735207e-02, 2.77516454e-01, -6.20661879e+00,
          1.45776105e+00, -3.14976797e-02, 1.29891646e+00,
          -6.96520984e-01, -5.31445026e-01, -6.44668281e-01,
          5.21576740e-02, 9.14592981e-01, 1.15807104e+00, 9.94324327e-01,
          8.23606476e-02, 3.17304999e-01, 4.71700013e-01, 4.12724555e-01,
          3.89174074e-02 ]
      - [ -5.44933975e-01, 5.01251996e-01, 6.82794824e-02,
          1.80327281e-01, -1.23313105e+00, 1.28369498e+00,
          3.71450409e-02, 3.38095218e-01, -1.10534000e+00,
          3.73234200e+00, 2.48748008e-02, 8.58152330e-01, 3.70445997e-01,
          4.77396995e-01, 4.15675908e-01, 3.00828554e-02,
          -7.62159973e-02, 3.45191985e-01, 7.06962422e-02,
          1.36992738e-01, 4.74900007e-02, 1.32957995e-01, 9.52487215e-02,
          2.51113344e-02, -1.43632495e+00, 2.51296014e-01,
          1.52699398e-02, 3.46231550e-01, -1.02675498e+00,
          1.57707000e+00, -3.84706408e-02, 3.80536348e-01,
          -3.17958212e+00, 6.93845987e-01, 8.66537392e-02,
          6.73980534e-01, -3.32699001e-01, -1.18256003e-01,
          -2.13867605e-01, 5.99497631e-02, -3.93990017e-02,
          5.84806025e-01, 1.87417343e-01, 2.35677943e-01,
          -1.12349004e-01, -2.73799989e-03, -6.84481189e-02,
          4.03787643e-02 ]
      - [ -1.02040601e+00, 3.09134007e+00, 1.11843877e-01,
          6.25001013e-01, -1.75870895e+00, 4.09383297e+00,
          1.94613393e-02, 9.31133270e-01, -6.62557793e+00,
          1.33624601e+00, -6.31737635e-02, 1.22140324e+00,
          -1.11506498e+00, -9.24057007e-01, -1.02152717e+00,
          4.35992740e-02, -2.88095689e+00, -2.75462198e+00,
          -2.80831409e+00, 3.88537310e-02, -2.41286397e+00,
          -1.90653896e+00, -2.18405533e+00, 1.55381024e-01,
          -4.45158195e+00, 7.29975998e-01, -1.10677041e-01,
          6.88180208e-01, -1.02442801e+00, 2.32102394e+00,
          -7.96824042e-03, 4.51566428e-01, -7.42588091e+00,
          9.95639980e-01, -6.30476996e-02, 1.23685348e+00,
          -1.36814404e+00, -1.17766595e+00, -1.23858881e+00,
          4.52236608e-02, 2.50507307e+00, 2.83240294e+00, 2.70097876e+00,
          7.21403435e-02, 1.66749096e+00, 2.15617609e+00, 1.91132951e+00,
          1.43565536e-01 ]
      - [ -1.07520497e+00, 1.97000694e+00, 1.14534982e-01,
          4.31881756e-01, -1.36808896e+00, 2.59132910e+00,
          5.75310402e-02, 5.06873250e-01, -1.23395205e+00,
          3.35975790e+00, 4.63774614e-02, 8.47535908e-01,
          -4.83220994e-01, -3.14276993e-01, -4.18897539e-01,
          4.19116132e-02, -2.75571489e+00, -2.35210896e+00,
          -2.62591362e+00, 1.24529876e-01, -3.03429508e+00,
          -2.92818594e+00, -2.97830558e+00, 2.37851087e-02,
          -7.43851006e-01, 6.78012013e-01, -1.88373793e-02,
          2.37029478e-01, -1.20766795e+00, 1.05854905e+00,
          2.96174604e-02, 3.13568801e-01, -6.86639011e-01,
          2.68622708e+00, 2.39322409e-02, 7.39636302e-01, 5.47304988e-01,
          6.16831005e-01, 5.76339900e-01, 1.98019668e-02,
          -2.44202003e-01, -2.18320005e-02, -1.28593564e-01,
          5.49895540e-02, 9.51903999e-01, 1.04710901e+00, 9.93050277e-01,
          2.78608780e-02 ]
      - [ -1.97318101e+00, 2.77997804e+00, -1.09729404e-02,
          5.88650048e-01, -8.41811001e-01, 4.86281395e+00,
          -1.56768233e-01, 9.50942397e-01, -1.04645097e+00,
          3.46749091e+00, -6.13422394e-02, 8.91040444e-01,
          -6.73267007e-01, -4.46291000e-01, -5.77626586e-01,
          4.66307029e-02, -3.04052806e+00, -2.42756701e+00,
          -2.70546341e+00, 2.23706469e-01, 1.19603896e+00,
          1.48814404e+00, 1.36177874e+00, 1.07347049e-01,
          -3.77584505e+00, 2.39031005e+00, -8.02586973e-02,
          7.31978655e-01, -1.13322699e+00, 7.61364996e-01,
          6.35740384e-02, 2.75502294e-01, -8.67781997e-01,
          4.05740595e+00, 4.70559997e-03, 7.40842700e-01, 3.72781992e-01,
          5.09824991e-01, 4.05454189e-01, 3.93234715e-02,
          -2.25017995e-01, 8.79400000e-02, -1.10278457e-01,
          6.98347166e-02, 2.24623993e-01, 3.80084008e-01, 2.76796460e-01,
          5.00826687e-02 ]
      - [ -5.66278994e-01, 1.21284199e+00, 3.81269604e-02,
          2.91581810e-01, -3.67984104e+00, 2.31893897e+00,
          9.49834008e-03, 7.01982737e-01, -2.77132010e+00,
          1.63238597e+00, -5.04592806e-02, 7.62330353e-01,
          -2.89168000e-01, -1.16939001e-01, -2.31319144e-01,
          3.74496728e-02, -6.50699019e-01, -1.44897997e-01,
          -3.19874972e-01, 1.60114795e-01, -6.43532991e-01,
          -5.61321020e-01, -6.02213919e-01, 2.80761980e-02,
          -1.03998995e+00, 8.01253974e-01, -1.36376200e-02,
          2.37504736e-01, -1.19895303e+00, 7.18336999e-01,
          4.99576004e-03, 2.32612193e-01, -9.17668998e-01,
          3.41513109e+00, -1.04956804e-02, 6.79074824e-01,
          -8.84789973e-02, -1.54900001e-02, -5.25590815e-02,
          2.12528482e-02, -1.05619999e-02, 1.94231004e-01,
          8.69542807e-02, 6.53154626e-02, -8.55054975e-01,
          -8.06263983e-01, -8.29516888e-01, 1.52575746e-02 ]
      - [ -2.48866105e+00, 3.28300691e+00, 1.92221224e-01,
          1.27662921e+00, -5.04489422e+00, 8.53030014e+00,
          -1.43522797e-02, 2.46234083e+00, -2.96440411e+00,
          2.20856690e+00, 4.13897306e-01, 8.42837274e-01,
          -1.45684803e+00, -4.38392997e-01, -8.83496821e-01,
          3.24132621e-01, -2.93183994e+00, 2.92197990e+00,
          -3.04172009e-01, 1.53764904e+00, -2.88479710e+00,
          3.08177400e+00, -2.67144203e-01, 1.34945667e+00,
          -5.23859406e+00, 4.66544986e-01, -1.46858215e+00,
          1.45836842e+00, -2.38844991e+00, 6.85061884e+00,
          -8.39139975e-04, 2.37274814e+00, -2.75203490e+00,
          1.39982700e+00, 2.25582838e-01, 8.85793209e-01,
          -1.31688094e+00, -1.67227000e-01, -9.26837146e-01,
          3.89185131e-01, -2.91625810e+00, -1.17343497e+00,
          -1.95510507e+00, 4.69163924e-01, -1.58309901e+00,
          -2.30331004e-01, -1.00851870e+00, 3.97237867e-01 ]
      - [ -4.55202997e-01, 1.23397601e+00, 4.53696996e-02,
          3.15618455e-01, -1.65849805e+00, 6.56629026e-01,
          -1.82646792e-02, 4.27148074e-01, -3.50667310e+00,
          9.48782027e-01, 3.92133407e-02, 8.48587453e-01,
          -9.65609014e-01, -8.64262998e-01, -9.18709338e-01,
          3.28062735e-02, -2.45599103e+00, -1.85145903e+00,
          -2.18215084e+00, 1.97323620e-01, -1.65243196e+00,
          -1.33946002e+00, -1.56292021e+00, 8.26688558e-02,
          -3.69989991e-01, 5.27297020e-01, -3.06784809e-02,
          1.67006567e-01, -7.66391993e-01, 2.20935392e+00,
          -8.08186010e-02, 6.66190565e-01, -1.54497802e+00,
          7.86906004e-01, 3.63646410e-02, 3.83345783e-01,
          -3.96477014e-01, -1.40195996e-01, -2.69771427e-01,
          8.89731199e-02, 8.60626996e-01, 1.06066597e+00, 9.53830183e-01,
          7.02714100e-02, -3.13925099e+00, 3.13346791e+00,
          8.50911796e-01, 2.95052528e+00 ]
      - [ -6.15418971e-01, 3.71095002e-01, 1.17407799e-01,
          2.12888584e-01, -2.66119003e-01, 8.14399004e-01,
          1.87931597e-01, 3.59048754e-01, -5.52208006e-01,
          3.55062008e-01, 5.37650399e-02, 2.41686881e-01,
          -6.59241974e-01, -4.22650009e-01, -5.24722993e-01,
          7.54195452e-02, -2.45569611e+00, -8.19018006e-01,
          -2.29919672e+00, 2.55731732e-01, -1.11260295e+00,
          -8.19018006e-01, -9.91887808e-01, 8.08957219e-02,
          -3.69589210e+00, 1.48382401e+00, -2.45410964e-01,
          1.47927129e+00, -2.23246598e+00, 2.63725710e+00,
          1.71541616e-01, 1.15468585e+00, -1.41095805e+00,
          7.51170993e-01, 8.04511979e-02, 4.39106494e-01,
          -1.28177798e+00, -4.79319006e-01, -6.77079260e-01,
          2.81972766e-01, -2.51735806e+00, 4.22279984e-02,
          -2.06390190e+00, 5.54452896e-01, -1.27855206e+00,
          4.22279984e-02, -1.05474663e+00, 3.06266636e-01 ]
      - [ -1.39657605e+00, 1.81280398e+00, 3.02737206e-02,
          4.54380780e-01, -6.06922984e-01, 1.67805302e+00,
          2.69562993e-02, 4.30684209e-01, -2.42844510e+00,
          7.14048982e-01, 2.96822004e-03, 4.18964952e-01,
          -8.66584003e-01, -7.04330027e-01, -7.79500544e-01,
          5.90012819e-02, -1.80648994e+00, -1.65169704e+00,
          -1.74171019e+00, 3.35524194e-02, -2.28811908e+00,
          -2.01265097e+00, -2.10315847e+00, 8.05675536e-02,
          -1.62065399e+00, 5.40633023e-01, -2.58639995e-02,
          3.20411891e-01, -7.11425006e-01, 2.75758410e+00,
          2.26901993e-02, 5.58514714e-01, -1.58715796e+00,
          2.85324991e-01, -9.18412022e-03, 2.81571776e-01,
          -8.85770023e-01, -7.61547029e-01, -8.11015368e-01,
          3.96856628e-02, 1.76525104e+00, 1.90319002e+00, 1.80718780e+00,
          3.91700678e-02, 1.34710300e+00, 1.67324996e+00, 1.45388854e+00,
          9.67256650e-02 ]
      - [ -9.81921017e-01, 1.26587605e+00, 3.34089905e-01,
          4.94200796e-01, -7.37091005e-01, 5.28822005e-01,
          -2.64976472e-01, 4.50204104e-01, -1.26883805e+00,
          5.35207987e-01, -1.01654463e-01, 5.12690902e-01,
          -7.59501994e-01, 1.15431003e-01, -4.45016563e-01,
          2.59703636e-01, -3.23810019e-02, 8.51158977e-01,
          5.10603428e-01, 2.71122694e-01, -5.46397984e-01,
          3.23053986e-01, -1.35532841e-01, 3.35340261e-01,
          -5.53689003e-01, 9.30657983e-01, 3.96784127e-01,
          4.51168239e-01, -1.07827306e+00, -9.46620032e-02,
          -6.74290419e-01, 2.05913499e-01, -1.62079704e+00,
          2.19329000e-01, -5.00937104e-01, 4.89421874e-01,
          -1.03085399e+00, -8.30129027e-01, -9.44288313e-01,
          4.18365747e-02, -1.51349998e+00, -8.60585988e-01,
          -1.05050993e+00, 1.89072758e-01, -1.69185805e+00,
          -8.09203982e-01, -1.07097101e+00, 2.25586832e-01 ]
      - [ -5.88575006e-01, 7.36820996e-01, 6.87779188e-02,
          2.00016320e-01, -9.40111995e-01, 1.00609398e+00,
          1.85795408e-02, 3.12486589e-01, -1.04440999e+00,
          4.16443014e+00, -2.75467802e-02, 9.60662782e-01,
          7.82815993e-01, 9.62566018e-01, 8.61304939e-01, 4.81759124e-02,
          -8.32165003e-01, -5.09648025e-01, -6.75684512e-01,
          9.33843404e-02, 3.62955987e-01, 5.31813025e-01, 4.17901218e-01,
          2.96003707e-02, -1.61317301e+00, 4.87412006e-01,
          -4.58331406e-02, 3.68892938e-01, -2.13079309e+00,
          1.66916895e+00, -1.18307602e-02, 5.49800992e-01,
          -2.30189991e+00, 1.06495905e+00, 1.13399804e-01,
          7.68793285e-01, 2.49534994e-01, 4.49099004e-01, 3.63182902e-01,
          4.82809953e-02, 4.55568999e-01, 1.09339499e+00, 6.72621012e-01,
          2.22093776e-01, -3.17452013e-01, -2.34604001e-01,
          -2.75725663e-01, 1.93399731e-02 ]
      - [ -1.44364405e+00, 2.06021309e+00, -4.51551348e-01,
          1.07006168e+00, -1.77865005e+00, 1.12147295e+00,
          -8.26849192e-02, 5.35040617e-01, -2.66262197e+00,
          8.79671991e-01, 4.60007004e-02, 6.68900251e-01,
          -3.72514009e-01, 1.20273001e-01, -1.78710714e-01,
          1.01346739e-01, -1.06197095e+00, 1.60904098e+00,
          -7.08677292e-01, 3.46103042e-01, 1.39507496e+00,
          1.62229097e+00, 1.48467481e+00, 7.69151524e-02,
          -2.16037107e+00, 3.04448992e-01, -9.39765513e-01,
          6.29822493e-01, -3.10759008e-01, 1.62065101e+00,
          6.33824646e-01, 5.56456804e-01, -1.43109000e+00,
          9.89956975e-01, -5.93303405e-02, 5.52537322e-01,
          -8.48734021e-01, 4.75194007e-01, -1.76089004e-01,
          3.59135270e-01, -1.01651394e+00, 6.06209993e-01,
          -3.54818493e-01, 5.85439205e-01, -1.74610996e+00,
          6.00732028e-01, -9.60584521e-01, 8.53467882e-01 ]
      - [ 1.22671999e-01, 1.25907397e+00, 3.18190128e-01, 2.60327071e-01,
          -8.74759018e-01, 2.74202204e+00, 2.89891452e-01,
          6.34634137e-01, -1.99791998e-01, 1.89206505e+00,
          4.19876069e-01, 4.46001321e-01, -1.00143301e+00,
          4.25031006e-01, 7.84859583e-02, 3.89113337e-01,
          -1.39130998e+00, 6.47855997e-01, -1.07467413e+00,
          3.95370543e-01, -7.00910017e-02, 1.53320396e+00,
          1.92368895e-01, 3.16529185e-01, -5.13480008e-02,
          3.22623014e-01, 1.01723723e-01, 9.85846445e-02,
          -1.43231004e-01, 1.08242202e+00, 1.88448220e-01,
          2.58127064e-01, -5.49190007e-02, 7.90477991e-01,
          3.69837046e-01, 2.86147088e-01, -7.39739001e-01,
          4.14431989e-01, 1.36364698e-01, 3.32761228e-01,
          -1.39174998e+00, 1.61930993e-01, -3.42953146e-01,
          3.74048412e-01, -9.35661972e-01, -2.62609988e-01,
          -3.62152964e-01, 1.41332030e-01 ]
      - [ -6.72307014e-01, 1.20287299e+00, 4.16346192e-02,
          3.37450087e-01, -5.71677923e+00, 3.48673201e+00,
          1.64855607e-02, 9.91966605e-01, -8.91344011e-01,
          1.29218102e+00, 2.45421603e-02, 3.59461784e-01, 7.79375017e-01,
          8.94493997e-01, 8.14052343e-01, 2.33624950e-02, 2.89460987e-01,
          4.78237987e-01, 3.65844965e-01, 5.90561628e-02,
          -1.07722604e+00, -8.73552978e-01, -9.70642507e-01,
          6.77493811e-02, -2.30076599e+00, 8.30874026e-01,
          -5.55349812e-02, 4.37544316e-01, -6.00696027e-01,
          5.54165006e-01, 1.07997796e-02, 1.82062238e-01,
          -4.46195990e-01, 1.17581296e+00, 6.11844007e-03,
          2.79582858e-01, 7.77105987e-01, 8.47151995e-01, 7.96053588e-01,
          1.73817482e-02, -2.78351009e-01, -1.27808005e-01,
          -1.95192099e-01, 4.74114157e-02, 1.24289999e-02,
          1.96333006e-01, 1.11814961e-01, 5.56948856e-02 ]
      - [ -7.44466007e-01, 1.92618203e+00, 4.06530611e-02,
          3.78767848e-01, -1.96868598e+00, 1.21492505e+00,
          -1.26262195e-02, 4.87412363e-01, -5.00408602e+00,
          1.00246096e+00, 2.80180797e-02, 1.09165215e+00,
          -9.30736005e-01, -8.19957972e-01, -8.72219086e-01,
          2.93085538e-02, -2.30811310e+00, -1.83369803e+00,
          -2.08655906e+00, 1.19100019e-01, -1.53767896e+00,
          -1.24161804e+00, -1.41919458e+00, 5.25410250e-02,
          -1.09331405e+00, 8.04883003e-01, -7.08681569e-02,
          2.65320182e-01, -2.37427998e+00, 5.88520908e+00,
          -6.89622164e-02, 1.31999624e+00, -2.88228607e+00,
          4.75636989e-01, 6.75837994e-02, 4.83675629e-01,
          -3.62868994e-01, 5.59559986e-02, -2.10889861e-01,
          1.56303957e-01, 9.16978002e-01, 1.12190795e+00, 1.00786948e+00,
          7.30278045e-02, -3.12958288e+00, -2.84436989e+00,
          -2.93952131e+00, 7.61876777e-02 ]
      - [ -3.92412007e-01, 2.14507794e+00, 7.39057809e-02,
          3.55070472e-01, -6.60691023e-01, 2.49517107e+00,
          2.03431603e-02, 4.40021217e-01, -6.50603580e+00,
          9.56250012e-01, -3.14585790e-02, 1.04229486e+00,
          -9.10991013e-01, -7.93794990e-01, -8.59300435e-01,
          2.83952709e-02, -3.13654709e+00, 3.12583804e+00,
          -1.64452672e+00, 2.49354053e+00, -9.77514029e-01,
          -8.63279998e-01, -8.91782343e-01, 2.84594093e-02,
          -4.38503695e+00, 1.60850704e+00, -4.09410782e-02,
          7.59680033e-01, -2.16817808e+00, 7.50948012e-01,
          -4.55776006e-02, 3.61001432e-01, -4.76033592e+00,
          9.74978030e-01, -1.83658991e-02, 9.55301702e-01,
          -5.83082974e-01, -5.06407976e-01, -5.31648695e-01,
          1.86988767e-02, 1.04036003e-01, 2.11959004e-01, 1.74999982e-01,
          2.18044594e-02, -2.35025004e-01, -2.10699998e-03,
          -6.44168034e-02, 7.13849217e-02 ]
      - [ -4.54434991e-01, 1.01235604e+00, 4.40723002e-02,
          2.85113215e-01, -1.55341697e+00, 2.20897007e+00,
          -2.04908010e-03, 4.96613145e-01, -5.23035812e+00,
          1.03353596e+00, -2.15495601e-02, 1.01258492e+00,
          -6.52278006e-01, -5.63578010e-01, -6.07106447e-01,
          2.17116848e-02, -3.13182497e+00, 3.12766004e+00,
          -2.25113535e+00, 1.96996772e+00, -2.13269997e+00,
          -2.03057194e+00, -2.09711051e+00, 1.78023092e-02,
          -7.21485972e-01, 8.57454002e-01, 2.18044408e-02,
          2.90031552e-01, -1.36777306e+00, 6.96196795e+00,
          2.29073409e-02, 1.29636633e+00, -2.80067396e+00,
          4.37763989e-01, 1.70212202e-02, 5.70450604e-01,
          -1.22476494e+00, -7.99628973e-01, -1.11662722e+00,
          1.09791838e-01, 5.03651023e-01, 9.97409999e-01, 6.59823895e-01,
          1.66151837e-01, -3.13407898e+00, 3.14047599e+00,
          1.12289548e+00, 2.81041741e+00 ]
      - [ -7.18484998e-01, 2.51401210e+00, -5.31467199e-02,
          5.06959260e-01, -4.61767197e+00, 2.41098595e+00,
          1.44507855e-01, 1.18433523e+00, -1.53901696e+00,
          1.31159794e+00, 8.90810415e-02, 3.57655883e-01,
          -6.43437028e-01, -2.90118992e-01, -4.43324715e-01,
          9.02306587e-02, 5.11875987e-01, 6.49457991e-01, 5.94070613e-01,
          3.45651656e-02, 4.90299985e-02, 5.00016987e-01, 2.55398571e-01,
          1.55386567e-01, -3.38813990e-01, 6.67304993e-01,
          -1.36716515e-01, 1.59532368e-01, -2.81895709e+00,
          6.24720001e+00, -7.09228814e-02, 1.40630937e+00,
          -3.39845800e+00, 5.11291981e-01, 6.89562783e-02,
          6.20444119e-01, -5.97133994e-01, -4.47681993e-01,
          -5.18678129e-01, 3.85234207e-02, -2.99291897e+00,
          -2.90219212e+00, -2.95806718e+00, 2.67499927e-02,
          2.01966906e+00, 2.62848210e+00, 2.36604929e+00, 2.40309507e-01 ]
      - [ -4.10627991e-01, 6.98376000e-01, 6.26758188e-02,
          2.48599127e-01, -1.00932705e+00, 6.02003813e+00,
          7.14538395e-02, 1.25884318e+00, -1.30727601e+00,
          2.67912000e-01, -2.94879600e-02, 2.74751753e-01,
          -1.20984900e+00, -7.81459987e-01, -1.06004715e+00,
          1.16326571e-01, -1.02872598e+00, -3.36001009e-01,
          -7.21524656e-01, 2.06429273e-01, -1.45113003e+00,
          -8.36329997e-01, -1.18406749e+00, 1.89671502e-01,
          -1.68701804e+00, 6.60979986e-01, -9.32042021e-03,
          3.46361697e-01, -5.56249285e+00, 1.60128105e+00,
          1.12471003e-02, 9.39760089e-01, -2.26078200e+00,
          1.53419399e+00, 2.11799997e-05, 5.23705423e-01,
          -1.37450397e+00, -1.22212195e+00, -1.31650066e+00,
          3.49655822e-02, 1.48380005e+00, 2.12048507e+00, 1.85937953e+00,
          1.23917870e-01, 7.62233973e-01, 1.43814003e+00, 1.16222477e+00,
          1.33004546e-01 ]
      - [ -2.34825999e-01, 7.71600008e-02, -1.34035004e-02,
          6.09330386e-02, -3.94008994e-01, 5.89973986e-01,
          1.32191718e-01, 2.00943381e-01, -3.58290002e-02,
          5.85720003e-01, 1.33038193e-01, 1.23086259e-01,
          -5.63335001e-01, -3.40810001e-01, -4.27611411e-01,
          5.66559657e-02, -1.06606998e-01, 9.51080024e-02,
          -2.14585997e-02, 5.03708161e-02, -8.45999981e-04,
          8.02650005e-02, 2.50786003e-02, 2.97908206e-02,
          -6.56370997e-01, 5.05128980e-01, -8.09321776e-02,
          2.00489938e-01, -2.58034396e+00, 6.72756290e+00,
          -1.95487794e-02, 1.57132781e+00, -5.21522999e-01,
          2.92396998e+00, 5.18254220e-01, 8.03010166e-01,
          -1.47532499e+00, -9.57000011e-04, -5.41143835e-01,
          5.23259163e-01, -2.64876008e+00, 4.46877003e-01,
          -2.56153166e-01, 1.07553005e+00, -2.88136911e+00,
          -1.65913001e-01, -7.42448986e-01, 9.50480163e-01 ]
      - [ -2.64176995e-01, 7.97487974e-01, 3.81059200e-02,
          2.05834806e-01, -2.84746909e+00, 5.35486221e+00,
          3.20068002e-02, 1.14774776e+00, -3.91488600e+00,
          9.31297004e-01, 3.72199789e-02, 7.59108484e-01,
          -1.31098902e+00, -9.12513018e-01, -1.18877661e+00,
          1.36086449e-01, -2.26973009e+00, -1.20753002e+00,
          -1.55735373e+00, 2.40071461e-01, 1.96639395e+00,
          3.03116488e+00, 2.71378899e+00, 2.39726022e-01,
          -3.15722895e+00, 5.95156014e-01, -3.34144607e-02,
          5.16001344e-01, -7.06989908e+00, 9.22744989e-01,
          7.78192002e-03, 1.15874195e+00, -1.17231596e+00,
          6.27417982e-01, 5.35241589e-02, 2.43961737e-01,
          -8.23213995e-01, -6.52970016e-01, -7.37383664e-01,
          5.64621612e-02, -2.49092996e-01, 9.79119986e-02,
          -8.74400046e-03, 1.06727317e-01, -2.48469400e+00,
          -2.05879807e+00, -2.22809172e+00, 1.24023512e-01 ]
      - [ -9.98978972e-01, 1.56739998e+00, 1.37104997e-02,
          3.96251440e-01, -1.41737795e+00, 1.38100505e+00,
          1.36188203e-02, 4.67755437e-01, -4.97211504e+00,
          1.66766906e+00, 5.01694009e-02, 1.12731206e+00,
          -9.46730971e-01, -8.19557011e-01, -8.96104515e-01,
          3.36146541e-02, -2.29352307e+00, -1.87293696e+00,
          -2.18152046e+00, 1.09294608e-01, -1.55372095e+00,
          -1.13347006e+00, -1.36724567e+00, 8.02150145e-02,
          -8.87808025e-01, 6.21321976e-01, -1.27167076e-01,
          2.28684708e-01, -6.84651971e-01, 3.46416497e+00,
          -6.72718436e-02, 8.94160926e-01, -1.81977904e+00,
          3.21695000e-01, 5.97277395e-02, 4.24748302e-01,
          -4.28539008e-01, 1.08052000e-01, -1.49789825e-01,
          1.98087797e-01, 9.10112977e-01, 1.11563098e+00, 1.02357221e+00,
          6.94157034e-02, 5.63338995e-01, 8.23897004e-01, 7.10720539e-01,
          9.35318992e-02 ]
      - [ -5.80235004e-01, 1.17623198e+00, 1.91347599e-02,
          2.72287667e-01, -2.35920310e+00, 1.57608497e+00,
          1.03561403e-02, 5.37954211e-01, -3.50681496e+00,
          9.43907022e-01, -1.91953406e-02, 7.52994239e-01,
          -1.12432003e-01, -2.56810002e-02, -7.14922994e-02,
          2.78732926e-02, -7.35135019e-01, -3.56577992e-01,
          -5.49791932e-01, 1.51571527e-01, 1.96061000e-01,
          2.24087000e-01, 2.07695767e-01, 9.64532606e-03,
          -1.87549698e+00, 3.34814012e-01, 1.06513603e-02,
          3.66568744e-01, -6.77869022e-01, 4.78603989e-01,
          1.06960200e-02, 1.79584295e-01, -2.58560109e+00,
          1.03776395e+00, 5.66784013e-03, 6.55174553e-01,
          -5.75483024e-01, -5.29191017e-01, -5.46185791e-01,
          1.20550366e-02, 2.58732796e+00, 2.68699789e+00, 2.65833378e+00,
          2.39940807e-02, 2.24326611e+00, 2.30990696e+00, 2.26106524e+00,
          1.99172162e-02 ]
      - [ -7.48354971e-01, 1.27343404e+00, -5.16399996e-05,
          3.70022893e-01, -5.26865721e+00, 8.07654977e-01,
          9.95190218e-02, 1.04688346e+00, -9.54159975e-01,
          2.60960007e+00, 3.53157818e-02, 4.43052709e-01,
          -1.53894198e+00, -1.19063902e+00, -1.39381015e+00,
          7.50673190e-02, -1.19336605e+00, 1.64393401e+00,
          6.52043760e-01, 8.91617715e-01, -1.90494394e+00,
          9.51505005e-01, -6.35992363e-02, 9.04130995e-01,
          -5.33608973e-01, 6.57242000e-01, -8.83451030e-02,
          2.47459576e-01, -1.26665699e+00, 7.47980118e+00,
          -8.32427219e-02, 1.26794219e+00, -1.62867904e+00,
          7.67751992e-01, 4.86629792e-02, 3.70907605e-01,
          -1.50788403e+00, -9.82127011e-01, -1.23871839e+00,
          1.95982412e-01, 2.21050993e-01, 1.52944303e+00, 9.32681501e-01,
          3.34086537e-01, -9.23400000e-02, 1.21930504e+00,
          6.32091284e-01, 3.34798068e-01 ]
      - [ -2.05097699e+00, 4.05970812e+00, 5.02396107e-01,
          1.29344988e+00, -4.33739996e+00, 7.40565586e+00,
          -1.86408654e-01, 2.11349940e+00, -1.66316104e+00,
          1.10569406e+00, 2.41948187e-01, 6.01655245e-01,
          -1.25432503e+00, -3.99717003e-01, -8.59192789e-01,
          2.20818162e-01, 1.08783998e-01, 2.13218689e+00, 1.10824287e+00,
          7.20064402e-01, -1.37787497e+00, 3.53507012e-01,
          -3.57934237e-01, 5.72405815e-01, -2.11605501e+00,
          1.17070401e+00, 1.24920338e-01, 7.86941111e-01,
          -1.58695996e+00, 4.11893892e+00, -1.39435083e-01,
          1.19940233e+00, -3.12869996e-01, 3.82007986e-01,
          1.69280004e-02, 2.18124270e-01, -1.33843696e+00,
          -9.19822991e-01, -1.11887264e+00, 1.32912040e-01,
          -1.08130705e+00, 1.08942294e+00, 6.71447575e-01,
          3.52356046e-01, -1.19107902e+00, -7.98772991e-01,
          -1.03965187e+00, 1.36663303e-01 ]
      - [ -2.54199100e+00, 4.50207996e+00, -7.91783452e-01,
          1.13562918e+00, -7.65300798e+00, 6.10506392e+00,
          8.02125454e-01, 2.44047260e+00, -3.37779093e+00,
          5.70125103e+00, -1.24253340e-01, 1.71371245e+00,
          -1.28581002e-01, 4.79124010e-01, 1.92457944e-01,
          1.66838616e-01, -8.11821997e-01, 1.93643403e+00,
          3.92892808e-01, 8.45648646e-01, 1.58431900e+00, 2.53336096e+00,
          2.05500650e+00, 3.09236199e-01, -5.74653816e+00,
          2.46356392e+00, -3.97025436e-01, 1.15422785e+00,
          -1.16353903e+01, 6.40137196e+00, 2.71324664e-01,
          2.81543636e+00, -2.74480891e+00, 6.90806484e+00,
          -5.38196564e-01, 1.53799021e+00, -1.35629702e+00,
          7.48700976e-01, -4.30134147e-01, 6.50059938e-01,
          -1.36020398e+00, 2.71895504e+00, 2.89635193e-02,
          5.46290994e-01, 1.07661605e+00, 3.00705099e+00, 2.68086600e+00,
          4.46703643e-01 ]
      - [ -8.23439002e-01, 3.26135707e+00, 5.58756217e-02,
          6.09886527e-01, -1.04019701e+00, 1.49174500e+00,
          3.02515794e-02, 4.17952091e-01, -5.08422279e+00,
          1.17780101e+00, -5.35909794e-02, 1.08993828e+00,
          -1.16051900e+00, -9.99013007e-01, -1.06637192e+00,
          4.53137197e-02, -2.09023499e+00, -1.81639695e+00,
          -2.03577089e+00, 6.41573966e-02, -1.61665404e+00,
          -1.34725404e+00, -1.46206462e+00, 1.04339235e-01,
          -3.47135592e+00, 4.30056989e-01, -7.75841177e-02,
          6.40090585e-01, -3.74016500e+00, 3.98173690e+00,
          2.16655992e-03, 8.80421817e-01, -4.14608717e+00,
          1.18531096e+00, -3.68758999e-02, 9.37027514e-01,
          -1.18487895e+00, -1.08669698e+00, -1.13323379e+00,
          3.43920328e-02, 1.04028702e+00, 1.75271499e+00, 1.61066484e+00,
          1.59881294e-01, 4.44418013e-01, 9.94414985e-01, 8.62968683e-01,
          1.07667036e-01 ]
      - [ -1.52580002e-02, 7.66255021e-01, 4.48940754e-01,
          1.96552798e-01, -1.19405001e-01, 5.18029988e-01,
          3.03761989e-01, 1.53432921e-01, -5.01630008e-01,
          6.12155020e-01, -7.11983219e-02, 2.97077954e-01,
          -1.20197201e+00, -7.16332018e-01, -1.03043532e+00,
          1.33845434e-01, -2.37274599e+00, -1.87665200e+00,
          -2.17429209e+00, 1.69166505e-01, -2.47037292e+00,
          -1.51954806e+00, -2.00669146e+00, 3.87222022e-01,
          -7.75093973e-01, 1.68661997e-01, -2.91668504e-01,
          2.82859623e-01, -9.27370012e-01, 1.21614599e+00,
          1.33085400e-01, 6.33211315e-01, -1.64073005e-01,
          1.73718405e+00, 3.98807675e-01, 5.47955155e-01,
          -1.53032804e+00, -7.12921023e-01, -1.19187570e+00,
          2.02600524e-01, 3.89663994e-01, 2.78673911e+00, 1.50682342e+00,
          7.00448513e-01, 6.61019981e-02, 2.42897010e+00, 1.06736588e+00,
          6.74039721e-01 ]
      - [ -8.01259995e-01, 2.33194494e+00, 2.74300408e-02,
          5.04289687e-01, -1.39999199e+00, 2.57443595e+00,
          5.23880008e-04, 5.21593511e-01, -4.09104204e+00,
          1.04228795e+00, 1.14927003e-02, 7.85658300e-01,
          -6.98361993e-01, -6.28606975e-01, -6.61584556e-01,
          1.56236412e-02, -2.55525494e+00, -2.41732407e+00,
          -2.49376416e+00, 2.95175314e-02, -2.36238003e+00,
          -2.22261095e+00, -2.28056788e+00, 3.78360599e-02,
          -2.20205402e+00, 5.65595984e-01, -7.09195584e-02,
          3.77532035e-01, -2.20443296e+00, 1.39153695e+00,
          -1.02625997e-03, 4.18896228e-01, -5.70040417e+00,
          9.95880008e-01, -8.73928368e-02, 1.09871948e+00,
          -4.12039995e-01, -2.43149996e-01, -3.25104266e-01,
          4.79572229e-02, 3.70471001e-01, 8.43412995e-01, 5.24956882e-01,
          1.33361667e-01, -1.14698999e-01, -3.38529982e-02,
          -8.90104771e-02, 2.62738969e-02 ]
      - [ -1.13170302e+00, 3.75646996e+00, 2.96800602e-02,
          6.82697296e-01, -1.01342106e+00, 1.87095296e+00,
          1.38131203e-02, 4.11252797e-01, -7.84295321e+00,
          1.26035702e+00, -1.55218598e-02, 1.22552621e+00,
          -7.62583017e-01, -5.96242011e-01, -6.67081475e-01,
          6.57351464e-02, -1.44025695e+00, -1.13947201e+00,
          -1.31380665e+00, 9.73923281e-02, -7.69044995e-01,
          -6.33081019e-01, -6.94280386e-01, 4.40654345e-02,
          -4.23448610e+00, 7.89368987e-01, -4.58986610e-02,
          6.65739059e-01, -1.86297405e+00, 2.98868799e+00,
          3.06881405e-02, 6.01824224e-01, -5.64827919e+00,
          1.06592405e+00, -1.46142999e-02, 1.01755583e+00,
          -7.10430026e-01, -5.48735023e-01, -6.17895961e-01,
          5.96814379e-02, 9.95424986e-01, 1.30513704e+00, 1.17905092e+00,
          1.12827934e-01, 3.79103988e-01, 5.97787976e-01, 4.64790195e-01,
          6.44973218e-02 ]
      - [ -4.40663010e-01, 1.74784994e+00, 1.26074003e-02,
          4.36371475e-01, -9.83228981e-01, 4.27195996e-01,
          -1.79696009e-02, 2.11873874e-01, -4.34478283e+00,
          1.32545400e+00, 8.66688043e-03, 8.47086489e-01,
          -7.05766022e-01, -5.90983987e-01, -6.33599937e-01,
          2.53400207e-02, -2.56913495e+00, -2.40034294e+00,
          -2.49622607e+00, 4.05210853e-02, -2.39263701e+00,
          -2.27664495e+00, -2.30828357e+00, 3.04747783e-02,
          -1.40090597e+00, 7.45773971e-01, -6.76024780e-02,
          2.91469634e-01, -1.16375303e+00, 1.73086703e+00,
          1.44720804e-02, 4.59049612e-01, -3.24764991e+00,
          7.49861002e-01, -3.84928584e-02, 8.87873113e-01,
          -4.06830013e-01, -4.58940007e-02, -2.63681382e-01,
          1.04163408e-01, 3.78403991e-01, 9.89341974e-01, 6.32101893e-01,
          2.36421883e-01, -2.93983996e-01, -2.04246998e-01,
          -2.49017134e-01, 2.61276774e-02 ]
      - [ -1.63418198e+00, 1.70450795e+00, -1.29029825e-01,
          4.73864824e-01, -8.72326016e-01, 2.65296793e+00,
          -1.98307484e-01, 6.40527666e-01, -9.96785998e-01,
          2.83584499e+00, -4.02498012e-03, 8.54410410e-01,
          -6.17048979e-01, -4.95909989e-01, -5.70527434e-01,
          2.60866806e-02, -3.12023401e+00, 3.09505606e+00,
          -1.18880998e-02, 2.93043733e+00, -3.13950396e+00,
          3.14110589e+00, 2.46607804e+00, 1.65530348e+00,
          -5.97999990e-01, 8.18755984e-01, -1.42297400e-02,
          2.09944367e-01, -8.54543984e-01, 1.41303599e+00,
          5.64360805e-02, 2.84213841e-01, -4.38387990e-01,
          1.44545805e+00, 9.84254014e-03, 4.43260640e-01, 4.78215009e-01,
          5.93986988e-01, 5.10507524e-01, 3.24214175e-02,
          -3.06349993e-01, -1.63131997e-01, -2.49117434e-01,
          4.25342768e-02, 4.85800020e-03, 1.09794997e-01, 5.71035407e-02,
          3.19362655e-02 ]
      - [ -2.95673704e+00, 4.38370895e+00, 1.54125197e-02,
          9.53362823e-01, -3.67810994e-01, 8.67729008e-01,
          1.08436197e-02, 2.32904047e-01, -6.69646883e+00,
          2.93402505e+00, 1.26740402e-02, 1.11855817e+00,
          -8.88300002e-01, -7.57221997e-01, -8.09883535e-01,
          5.26326559e-02, -1.19486797e+00, -1.05598295e+00,
          -1.13546145e+00, 5.82062043e-02, -1.68417895e+00,
          -1.55396998e+00, -1.58832288e+00, 2.92413589e-02,
          -3.44759798e+00, 2.41592407e+00, -2.33143605e-02,
          6.95249856e-01, -1.19602704e+00, 6.27495623e+00,
          9.84335970e-03, 9.39468503e-01, -3.54271698e+00,
          5.95587015e-01, 5.19298017e-03, 5.64271033e-01,
          -9.08948004e-01, -7.66583979e-01, -8.20705593e-01,
          5.81449196e-02, 1.26800501e+00, 1.37627995e+00, 1.33075273e+00,
          3.25000845e-02, 9.96456981e-01, 1.23793197e+00, 1.05842268e+00,
          5.09504601e-02 ]
      - [ -4.09278005e-01, 1.09817505e+00, -7.96800014e-05,
          2.66764164e-01, -1.96900201e+00, 1.74204803e+00,
          9.89779946e-04, 5.78996778e-01, -4.34351492e+00,
          1.76399100e+00, 4.83817384e-02, 8.42909396e-01,
          -8.33764970e-01, -5.85507989e-01, -6.55143499e-01,
          6.23544082e-02, -3.13727999e+00, 3.14118505e+00,
          9.20016021e-02, 3.07738042e+00, -9.24987018e-01,
          -8.83409977e-01, -8.98162484e-01, 1.19898459e-02,
          -3.73787403e+00, 7.70460010e-01, -6.42494783e-02,
          7.69127607e-01, -3.26604199e+00, 1.56252694e+00,
          -1.96518004e-03, 6.60980284e-01, -4.77533102e+00,
          2.19512701e+00, 1.25509933e-01, 1.12189770e+00,
          -3.48657995e-01, -2.86767989e-01, -3.20350289e-01,
          1.60115454e-02, -2.22755000e-01, 2.58962005e-01,
          -3.15697007e-02, 1.82822913e-01, 8.48307014e-01,
          9.75364029e-01, 9.17976439e-01, 4.89965491e-02 ]
      - [ -7.85142004e-01, -4.57310006e-02, -4.01972771e-01,
          1.59287274e-01, 2.72792011e-01, 1.60055900e+00, 7.53135264e-01,
          3.08738261e-01, -1.66959298e+00, -1.04812205e+00,
          -1.44733250e+00, 1.59382999e-01, -1.90699995e-02,
          8.73849988e-02, 3.92442010e-02, 3.16946320e-02,
          -6.02932990e-01, 2.35898089e+00, -4.02682632e-01,
          4.11144227e-01, 2.01752210e+00, 2.37039208e+00, 2.28061700e+00,
          1.00824684e-01, -4.42975616e+00, 1.99179006e+00,
          -5.22943377e-01, 9.78110492e-01, -1.13408041e+01,
          5.04610205e+00, -2.32683063e-01, 2.38010168e+00,
          -1.86182702e+00, 6.65711689e+00, -6.12258971e-01,
          1.50719595e+00, -1.48610497e+00, -4.21166003e-01,
          -1.13266242e+00, 1.77894011e-01, -1.87599301e+00,
          2.98278093e+00, 1.64714918e-01, 7.04083085e-01, 4.55451012e-01,
          2.98278093e+00, 2.40501952e+00, 5.91176033e-01 ]
      - [ -6.15418971e-01, 7.14232981e-01, 1.48986697e-01,
          2.83266991e-01, -9.85388994e-01, 8.14399004e-01,
          -1.13271303e-01, 4.64187592e-01, -5.52208006e-01,
          7.33192027e-01, 1.38159901e-01, 3.43037635e-01,
          -9.55601990e-01, -4.28368986e-01, -6.95205927e-01,
          1.51417494e-01, -2.40887904e+00, 1.85020000e-01,
          -1.96343708e+00, 4.14301008e-01, -1.11260295e+00,
          1.85020000e-01, -7.08761752e-01, 3.78021687e-01,
          -4.69244099e+00, 7.43089020e-01, -1.49488056e+00,
          1.12201130e+00, -2.33388209e+00, 5.29352903e+00,
          1.93868935e-01, 2.06882405e+00, -1.41095805e+00,
          8.82701993e-01, 2.77195871e-01, 5.65458119e-01,
          -1.28177798e+00, -4.80903000e-01, -9.56985533e-01,
          2.84418464e-01, -2.48150492e+00, -4.35986012e-01,
          -1.46714854e+00, 6.39520943e-01, -1.26422799e+00,
          2.75927991e-01, -6.49329960e-01, 5.60233951e-01 ]
      - [ -4.59989995e-01, 2.46488690e+00, 6.27596602e-02,
          3.86492103e-01, -3.18016911e+00, 8.46043777e+00,
          7.99528044e-03, 1.72726166e+00, -6.43219519e+00,
          1.55201495e+00, 5.95352203e-02, 1.02669513e+00,
          -1.21487904e+00, -7.38445997e-01, -9.94541645e-01,
          1.59945309e-01, -1.17885494e+00, -2.31546998e-01,
          -7.48752058e-01, 3.13704342e-01, -1.55241203e+00,
          -7.82437980e-01, -1.25544083e+00, 2.35671118e-01,
          -1.98059702e+00, 7.74087012e-01, -5.96093386e-02,
          4.15553778e-01, -7.08134699e+00, 1.09812200e+00,
          -8.99711996e-03, 1.51095569e+00, -6.58944011e-01,
          4.64769006e-01, 4.38736007e-03, 1.51822612e-01,
          -1.04851699e+00, -8.88161004e-01, -9.79080558e-01,
          4.36883532e-02, -6.57935023e-01, 1.28149003e-01,
          -1.37919784e-01, 2.80844420e-01, -1.30780900e+00,
          -3.55551004e-01, -7.04868138e-01, 3.27019036e-01 ]
      - [ -5.19351006e-01, 1.76048601e+00, 5.19481599e-02,
          3.93709391e-01, -1.09177101e+00, 6.05217993e-01,
          3.29935993e-03, 2.48539880e-01, -1.63148296e+00,
          4.35001999e-01, -2.66886204e-02, 4.44193065e-01,
          -1.20964599e+00, -1.12822795e+00, -1.17208588e+00,
          1.94229446e-02, -1.00808203e+00, -7.02207983e-01,
          -8.60936821e-01, 6.83588982e-02, 5.64324975e-01,
          9.91927981e-01, 7.39441395e-01, 1.01682857e-01,
          -1.69742000e+00, 2.04732001e-01, -5.30277193e-02,
          3.41790169e-01, -1.59806705e+00, 6.36898994e-01,
          -9.57462005e-03, 3.46095234e-01, -1.72063601e+00,
          3.91820014e-01, -6.08230010e-03, 4.03440893e-01,
          -1.01641703e+00, -9.27276015e-01, -9.91902411e-01,
          1.82778873e-02, 5.31615973e-01, 7.18921006e-01, 6.05165064e-01,
          3.89148034e-02, 2.86375999e-01, 4.59564000e-01, 3.75538766e-01,
          4.58935536e-02 ]
      - [ -1.24528997e-01, 4.50147003e-01, 7.84430001e-03,
          1.46825194e-01, 1.19322002e-01, 9.34147000e-01, 3.07942688e-01,
          1.95420206e-01, -6.92592025e-01, 7.44379982e-02,
          -8.68093967e-02, 1.82575449e-01, -1.15891002e-01,
          2.41577998e-01, 1.02641784e-01, 1.24734834e-01,
          -2.55797601e+00, -2.24041104e+00, -2.30442047e+00,
          8.61414075e-02, -3.04783010e+00, -2.91205502e+00,
          -2.98218513e+00, 3.76647972e-02, 2.73269992e-02,
          2.74064004e-01, 1.79054216e-01, 6.85816631e-02,
          -3.24151993e-01, 6.57420009e-02, -1.00758702e-01,
          8.42023045e-02, -8.16999972e-02, 2.48356998e-01,
          7.75203407e-02, 9.13712233e-02, -5.92235982e-01,
          -4.00162995e-01, -4.72784847e-01, 6.26939684e-02,
          -1.96289504e+00, -1.87722397e+00, -1.91262269e+00,
          2.40476113e-02, 2.84193897e+00, 3.12693000e+00, 3.05328226e+00,
          9.31217819e-02 ]
      - [ -3.75366986e-01, 1.14490002e-01, -2.03774124e-01,
          9.90348905e-02, 3.82562995e-01, 1.65505099e+00, 1.11684108e+00,
          2.32569441e-01, -9.60380971e-01, 1.01226294e+00,
          -6.08253002e-01, 3.30295712e-01, 1.00010705e+00,
          1.16217196e+00, 1.11859345e+00, 3.05929426e-02,
          -1.38185298e+00, 8.00082982e-01, -1.00905895e+00,
          3.31853688e-01, 8.00082982e-01, 1.56244004e+00, 1.19536746e+00,
          2.21838295e-01, -5.92410028e-01, 6.17440999e-01,
          1.21996537e-01, 2.37418741e-01, -2.26399493e+00,
          5.75397015e+00, -3.38984001e-03, 1.36952341e+00,
          -5.69517016e-01, 2.19920301e+00, 4.39911157e-01,
          7.61248887e-01, -1.26836097e+00, -6.06339984e-02,
          -5.02593279e-01, 4.33526099e-01, -1.64252400e+00,
          1.29340506e+00, 5.56114972e-01, 9.96772230e-01,
          -2.64771104e+00, -3.93851995e-01, -8.75614822e-01,
          7.64786065e-01 ]
      - [ -5.87270021e-01, 2.67869091e+00, 9.29554403e-02,
          5.89182436e-01, -2.06365395e+00, 3.18478608e+00,
          6.01436384e-02, 6.24112844e-01, -1.00521650e+01,
          1.53110802e+00, 6.00248389e-02, 1.56249058e+00,
          -6.41919971e-01, -4.21301991e-01, -4.88761544e-01,
          6.90139830e-02, 2.09961200e+00, 2.47342396e+00, 2.30505347e+00,
          1.47218913e-01, -3.12301993e+00, 3.13640809e+00,
          2.23688215e-01, 3.06431723e+00, -3.20759296e+00,
          8.01029027e-01, -1.13537177e-01, 6.71487272e-01,
          -1.08243704e+00, 3.10781598e+00, 2.74462197e-02,
          5.42939663e-01, -8.94221401e+00, 1.46359503e+00,
          2.50041801e-02, 1.69016099e+00, -7.30135977e-01,
          -5.28919995e-01, -6.19584799e-01, 6.77705184e-02,
          -2.35579491e+00, -1.98102701e+00, -2.17423558e+00,
          1.47436038e-01, 2.84761596e+00, 3.06093407e+00, 2.95845366e+00,
          9.13768336e-02 ]
      - [ -1.72731400e+00, 3.72396898e+00, -4.87765996e-03,
          7.28828132e-01, -1.50401604e+00, 3.99751902e+00,
          1.16946399e-02, 8.52269769e-01, -3.20754695e+00,
          6.31830990e-01, 3.54620218e-02, 5.21876574e-01,
          -8.06080997e-01, -6.52456999e-01, -7.15100229e-01,
          5.87727427e-02, 2.76882792e+00, 3.02522492e+00, 2.87520075e+00,
          5.91633618e-02, 2.96920395e+00, 3.13127995e+00, 3.06385183e+00,
          3.11434343e-02, -4.40915012e+00, 2.54994011e+00,
          5.96165983e-03, 9.58958983e-01, -1.00658798e+00,
          2.22096109e+00, 2.67587397e-02, 4.04164046e-01,
          -3.03181911e+00, 9.24166024e-01, 3.98444608e-02,
          5.33238471e-01, -9.30010974e-01, -7.39019990e-01,
          -8.25666249e-01, 6.93573058e-02, -3.10787201e+00,
          3.13890290e+00, -2.70437431e+00, 1.19408286e+00,
          2.47390509e+00, 2.61692595e+00, 2.54419827e+00, 4.92777601e-02 ]
      - [ -4.70694989e-01, 2.88786101e+00, 5.10414392e-02,
          5.45446098e-01, -6.76712990e-01, 2.21587300e+00,
          1.66610591e-02, 3.90450835e-01, -4.26607895e+00,
          9.85958993e-01, -3.17922607e-02, 8.77250493e-01,
          -7.16063023e-01, -5.46456993e-01, -6.44696474e-01,
          5.57638966e-02, -1.35751605e+00, -1.10017300e+00,
          -1.23991585e+00, 6.82620257e-02, -6.52562022e-01,
          -5.29738009e-01, -6.04437411e-01, 3.89357209e-02,
          -3.45507908e+00, 3.41639996e-01, -7.71832615e-02,
          5.67101419e-01, -2.30663800e+00, 2.20211506e+00,
          2.21098196e-02, 6.37311995e-01, -4.89980316e+00,
          1.27198601e+00, -3.75157818e-02, 9.63584661e-01,
          -6.53560996e-01, -5.12426972e-01, -5.80972314e-01,
          4.01834175e-02, 9.07416999e-01, 1.23768604e+00, 1.07492959e+00,
          8.96445438e-02, 3.42712998e-01, 5.23316026e-01, 4.21082795e-01,
          4.53594923e-02 ]
      - [ -4.19258881e+00, 3.00228500e+00, 7.97458813e-02,
          8.36121678e-01, -2.36165309e+00, 2.09127593e+00,
          1.60624199e-02, 5.30234814e-01, -6.70306981e-01,
          9.76451206e+00, 6.67853206e-02, 1.43607104e+00, 4.81905997e-01,
          6.17914975e-01, 5.33594668e-01, 3.59943397e-02,
          -1.71281993e-01, 2.40116000e-01, -1.01938797e-02,
          1.09566331e-01, -1.02110002e-02, 1.26118004e-01,
          5.14069609e-02, 3.83688547e-02, -2.98068404e+00,
          1.37712598e+00, -7.97930807e-02, 6.98272049e-01,
          -1.05984902e+00, 1.12096298e+00, 4.36207987e-02,
          3.26353192e-01, -6.22874117e+00, 7.25984991e-01,
          -1.09871402e-02, 1.20933306e+00, -1.73683003e-01,
          1.63860004e-02, -8.48546401e-02, 5.31608723e-02,
          2.34677002e-01, 8.23032022e-01, 3.88247520e-01, 1.93505391e-01,
          -2.89050005e-02, 7.16120005e-02, 3.10795996e-02,
          2.46447939e-02 ]
      - [ -9.64869022e-01, 2.40027905e+00, 2.91457400e-02,
          5.87425292e-01, -1.67207599e+00, 8.76863003e-01,
          2.16813609e-02, 4.01414573e-01, -2.74084902e+00,
          7.47483015e-01, 6.63802773e-02, 6.76637232e-01,
          -1.21372199e+00, -1.17670596e+00, -1.19847441e+00,
          1.06600560e-02, -1.18570602e+00, -8.33135009e-01,
          -9.55884218e-01, 9.35121551e-02, -1.13005698e+00,
          -3.61887008e-01, -7.63806224e-01, 2.52020568e-01,
          -1.88955605e+00, 8.02191019e-01, -3.51485386e-02,
          4.74652231e-01, -1.86865902e+00, 1.91189802e+00,
          -2.40118597e-02, 4.80376422e-01, -2.70053601e+00,
          4.83312011e-01, 7.98325017e-02, 5.78084528e-01,
          -1.07404900e+00, -9.02463973e-01, -1.01851439e+00,
          4.10286784e-02, 4.63615000e-01, 8.85882974e-01, 7.11638987e-01,
          1.15498856e-01, -1.27385795e+00, -1.06587601e+00,
          -1.17848933e+00, 6.61526099e-02 ]
      - [ -5.56639016e-01, 2.23147511e+00, 1.64529402e-02,
          4.73906815e-01, -1.41978300e+00, 7.13283002e-01,
          -6.24943990e-03, 2.51424670e-01, -3.62882590e+00,
          1.43050802e+00, 7.49192014e-03, 8.14381003e-01,
          -6.61364973e-01, -5.84248006e-01, -6.07765317e-01,
          2.18677558e-02, -2.58387303e+00, -2.43881512e+00,
          -2.51105833e+00, 3.18910889e-02, -2.39540291e+00,
          -2.28042793e+00, -2.31983805e+00, 3.10496856e-02,
          -1.49607396e+00, 4.46732998e-01, -4.10891213e-02,
          2.87568212e-01, -2.61943507e+00, 1.93160498e+00,
          5.91692002e-03, 5.25238276e-01, -3.99815106e+00,
          1.09327996e+00, -7.73268007e-03, 9.44433391e-01,
          -4.89059001e-01, -2.08561003e-01, -3.62286240e-01,
          9.55666006e-02, 3.74343008e-01, 8.17134023e-01, 5.94351590e-01,
          1.58134907e-01, -3.64865988e-01, -2.92798996e-01,
          -3.20991367e-01, 2.05966067e-02 ]
      - [ -6.18928015e-01, 1.98922396e+00, 5.21926396e-02,
          4.34479743e-01, -4.73004997e-01, 1.14337504e+00,
          2.08590198e-02, 2.30361193e-01, -2.24336910e+00,
          3.72226000e-01, -1.10638598e-02, 3.91646147e-01,
          -7.02318013e-01, -6.15393996e-01, -6.52297616e-01,
          2.97572799e-02, -9.50257003e-01, -7.97129989e-01,
          -9.02069271e-01, 4.00326438e-02, -1.36988294e+00,
          -1.24972999e+00, -1.31609249e+00, 3.27144116e-02,
          -1.97834396e+00, 4.21409994e-01, -3.87678817e-02,
          3.79640847e-01, -7.01308012e-01, 1.37374306e+00,
          2.05115005e-02, 3.73047173e-01, -1.72667205e+00,
          3.25666010e-01, -8.89400020e-03, 3.42420727e-01,
          -7.73814023e-01, -7.22060978e-01, -7.45684683e-01,
          1.97116081e-02, 1.05366302e+00, 1.13086200e+00, 1.09574759e+00,
          1.68158710e-02, 6.65978014e-01, 8.64112973e-01, 7.35913277e-01,
          4.65702526e-02 ]
      - [ -1.57460105e+00, 1.16886795e+00, 1.13473140e-01,
          9.11298037e-01, -4.14947987e+00, 6.71491289e+00,
          -1.11368001e-02, 2.07474089e+00, -1.54773605e+00,
          1.99609995e+00, 7.14095980e-02, 5.54422081e-01,
          -1.45703995e+00, -3.23327005e-01, -9.19779718e-01,
          3.52857947e-01, -1.78607297e+00, 1.76218295e+00,
          -3.03569317e-01, 1.16065466e+00, -2.90342402e+00,
          3.03789902e+00, -3.03249896e-01, 1.61400497e+00,
          -4.71100378e+00, 1.07825005e+00, -1.26701748e+00,
          1.24988186e+00, -2.17469907e+00, 5.33873606e+00,
          3.17422628e-01, 2.05504012e+00, -1.51771796e+00,
          1.31172502e+00, 3.49712253e-01, 7.37324953e-01,
          -1.20139897e+00, -3.60684991e-01, -8.83117199e-01,
          2.77384579e-01, -9.93557990e-01, 2.94827390e+00,
          2.17057586e+00, 7.14959800e-01, -1.18107104e+00,
          1.06471002e-01, -5.67130625e-01, 4.51656818e-01 ]
      - [ -1.05508998e-01, 1.37486994e-01, 1.82149000e-02,
          7.34568611e-02, -2.15783000e-01, 4.12142992e-01,
          2.05930192e-02, 1.53289303e-01, -7.32619986e-02,
          9.00690034e-02, 1.77558791e-02, 3.68924364e-02,
          -1.31744206e+00, -1.01690698e+00, -1.26103103e+00,
          7.74836168e-02, 3.85099985e-02, 4.34709996e-01, 2.61838228e-01,
          1.42285094e-01, -3.56909990e-01, 4.70319986e-02,
          -1.32295847e-01, 1.50598511e-01, -4.41808999e-01,
          3.11479997e-02, -1.18291900e-01, 1.13868564e-01,
          -6.34827971e-01, 5.94465971e-01, -7.70508572e-02,
          3.66478086e-01, -5.68005979e-01, 2.78362989e-01,
          -1.17512137e-01, 1.95132747e-01, -1.27892005e+00,
          -8.97015989e-01, -1.14279127e+00, 1.31751657e-01,
          4.56113994e-01, 9.14013982e-01, 6.48898661e-01, 1.35530517e-01,
          6.48527980e-01, 1.21664798e+00, 8.99788976e-01, 1.79056123e-01 ]
      - [ -1.82555699e+00, 3.15798211e+00, 3.66366208e-02,
          6.85127497e-01, -2.57391000e+00, 1.87789404e+00,
          3.55410203e-02, 5.17550349e-01, -8.52638006e-01,
          2.74787498e+00, 6.41902834e-02, 5.58713078e-01, 5.13096988e-01,
          7.96507001e-01, 6.86258256e-01, 7.40599483e-02,
          -3.03429998e-02, 3.82259995e-01, 2.16420457e-01,
          1.18924141e-01, -1.19560206e+00, -8.02690029e-01,
          -1.03643417e+00, 1.14040188e-01, -3.47276211e+00,
          9.24251020e-01, -4.22809012e-02, 6.80696666e-01,
          -5.40984821e+00, 2.54607797e+00, 4.05447185e-02,
          1.09087276e+00, -8.45305026e-01, 4.72585011e+00,
          6.36556968e-02, 7.06012130e-01, 4.28011000e-01, 6.92803025e-01,
          6.06534004e-01, 8.44544992e-02, -3.73362988e-01,
          1.97030008e-02, -2.16954634e-01, 1.21039897e-01,
          -9.17150006e-02, 3.21372986e-01, 1.83748558e-01,
          1.30949080e-01 ]
      - [ -1.41163003e+00, 3.69011998e+00, 7.82011226e-02,
          7.09142268e-01, -9.58433986e-01, 2.84246397e+00,
          2.20515206e-02, 5.12374043e-01, -8.97496033e+00,
          1.44127703e+00, -3.52876410e-02, 1.41729653e+00,
          -1.14322805e+00, -9.45348024e-01, -1.04314232e+00,
          6.79963008e-02, -2.11101198e+00, -1.73313606e+00,
          -1.98133874e+00, 9.40158740e-02, -1.58838403e+00,
          -1.35931098e+00, -1.46400237e+00, 7.72596747e-02,
          -3.60026407e+00, 8.38335991e-01, -8.28377381e-02,
          7.35514343e-01, -2.88402009e+00, 3.93647099e+00,
          1.18011003e-02, 7.54606068e-01, -4.52948713e+00,
          9.31644022e-01, -3.83087583e-02, 1.01400888e+00,
          -1.16162395e+00, -1.05014098e+00, -1.10515559e+00,
          3.82036343e-02, 1.16458297e+00, 1.71469903e+00, 1.55213797e+00,
          1.38598755e-01, 5.56861997e-01, 9.33996975e-01, 7.89767027e-01,
          7.44089559e-02 ]
      - [ -8.95838022e-01, 9.07910019e-02, -4.27861392e-01,
          2.04224423e-01, -1.89240694e+00, 8.22018981e-01,
          -1.53850794e-01, 5.08167922e-01, -8.83531988e-01,
          4.83393997e-01, -9.39579979e-02, 3.28144848e-01,
          -1.36429703e+00, -9.37456012e-01, -1.18048108e+00,
          1.53195411e-01, -1.19958103e+00, 6.15051985e-01,
          -8.41704786e-01, 3.31581891e-01, 1.60870001e-01,
          8.51005971e-01, 4.84775186e-01, 2.59676099e-01,
          -1.02894902e+00, -2.98047990e-01, -5.69480360e-01,
          2.14403212e-01, -1.22837305e+00, 5.84918022e-01,
          3.80243398e-02, 5.01964867e-01, -1.08080697e+00,
          -4.89096999e-01, -8.52382004e-01, 1.27807781e-01,
          -6.81842029e-01, -4.55294997e-01, -5.93569279e-01,
          7.08882958e-02, -1.19570601e+00, 2.30114889e+00,
          -5.63953876e-01, 6.15637183e-01, 1.40280998e+00,
          2.30114889e+00, 1.86293662e+00, 3.44125479e-01 ]
      - [ -1.78995895e+00, 2.79686999e+00, 2.43277196e-02,
          6.75764382e-01, -1.02430105e+00, 1.98814297e+00,
          -3.22613604e-02, 5.27809680e-01, -5.15808010e+00,
          9.43454981e-01, 6.69352636e-02, 7.99759865e-01,
          -9.84830022e-01, -8.92515004e-01, -9.36602533e-01,
          2.53673773e-02, -1.55002403e+00, -1.35624695e+00,
          -1.44980717e+00, 6.69253767e-02, -1.69834995e+00,
          -1.32610202e+00, -1.50177777e+00, 8.25276524e-02,
          -4.56046200e+00, 2.90098906e+00, -3.61085385e-02,
          1.02684557e+00, -1.94754303e+00, 5.45851612e+00,
          1.33253997e-02, 8.97136092e-01, -3.77473402e+00,
          1.09028494e+00, 6.88740164e-02, 6.41862750e-01,
          -9.45137024e-01, -8.16866994e-01, -8.71172011e-01,
          3.93658243e-02, 1.18665695e+00, 1.28222203e+00, 1.21615350e+00,
          2.33902205e-02, 3.61710995e-01, 7.93596029e-01, 5.56490541e-01,
          1.20128542e-01 ]
      - [ -8.47437978e-01, 6.89822018e-01, 1.77114003e-03,
          2.33693048e-01, -7.22087979e-01, 9.51668978e-01,
          -3.10303993e-03, 2.17050597e-01, -5.83060980e-01,
          2.70954299e+00, -1.02852006e-03, 6.38311088e-01,
          -1.45818993e-01, -1.16673000e-01, -1.31244779e-01,
          8.36335029e-03, 3.94369997e-02, 1.72027007e-01, 1.35286897e-01,
          3.73362750e-02, -3.07900012e-01, -2.88152009e-01,
          -2.97087669e-01, 4.48097289e-03, -4.38174009e-01,
          4.67604011e-01, -5.75515404e-02, 2.47959331e-01,
          -4.38385010e-01, 2.13742399e+00, 8.88968036e-02,
          4.80103046e-01, -5.48121989e-01, 2.82730603e+00,
          1.01856276e-01, 6.71770573e-01, -7.42187023e-01,
          -5.80899000e-01, -6.55039489e-01, 3.44350263e-02,
          -3.14118910e+00, 3.13089991e+00, 2.06411815e+00,
          1.93070555e+00, 1.31884396e+00, 1.74923003e+00, 1.56822693e+00,
          1.36546701e-01 ]
      - [ -1.03235102e+00, 8.00853539e+00, 1.34447277e-01,
          1.74808586e+00, -7.98187017e-01, 1.63242996e+00,
          3.05403233e-01, 6.57548308e-01, -1.08792102e+00,
          2.94928694e+00, 4.13637199e-02, 8.07195306e-01,
          -3.32879990e-01, -2.54859999e-02, -1.92207754e-01,
          9.54585522e-02, 1.37501895e+00, 1.91207504e+00, 1.66026473e+00,
          1.79347366e-01, 1.60559106e+00, 1.75868702e+00, 1.64708686e+00,
          3.02247051e-02, -8.31605625e+00, 1.69977403e+00,
          1.64273998e-03, 2.00630951e+00, -1.28699005e+00,
          1.00624299e+00, -1.25904694e-01, 4.60084200e-01,
          -9.51192975e-01, 1.10531199e+00, -1.69941202e-01,
          4.31456536e-01, -4.55240995e-01, -2.23114997e-01,
          -3.54318857e-01, 6.86078519e-02, -1.72823596e+00,
          1.99120295e+00, 1.75362492e+00, 5.13091624e-01,
          -1.75861502e+00, -1.59521794e+00, -1.66413105e+00,
          4.21805233e-02 ]
      - [ -3.67507994e-01, 7.07480013e-01, 1.77570656e-01,
          2.66022772e-01, -5.16515970e-01, 4.62065995e-01,
          -9.84733626e-02, 2.19705403e-01, -9.18390989e-01,
          9.65463996e-01, 1.95454016e-01, 4.73081172e-01,
          -4.84474003e-01, -1.39598995e-01, -2.55234569e-01,
          9.42454860e-02, -1.18796997e-01, 1.07325003e-01,
          -1.89805997e-03, 8.42883512e-02, -6.92385018e-01,
          -1.15533002e-01, -4.01826501e-01, 2.14275524e-01,
          -1.26356399e+00, 1.43528000e-01, -4.76523489e-01,
          3.69630635e-01, -4.54021007e-01, 5.17898977e-01,
          6.26796037e-02, 3.00957471e-01, -9.32861984e-01,
          7.69675016e-01, -1.64456591e-02, 6.27247334e-01,
          -3.16545993e-01, 1.26103997e-01, -7.46893585e-02,
          1.43022045e-01, -1.04780003e-01, 1.46051005e-01,
          6.19695988e-03, 1.07199840e-01, 3.92381996e-01, 1.01519799e+00,
          6.97793722e-01, 1.83432624e-01 ]
      - [ -3.13151002e-01, 4.94825989e-01, 2.21476004e-01,
          2.77664542e-01, -7.28231013e-01, 7.31697977e-01,
          -8.67199227e-02, 4.81452644e-01, -3.29686999e-01,
          4.21247989e-01, 4.51969616e-02, 1.76890939e-01,
          -1.31079698e+00, -4.12732989e-01, -8.19353223e-01,
          3.45811576e-01, -1.83503401e+00, -1.26873803e+00,
          -1.50103223e+00, 1.71019077e-01, -1.82459605e+00,
          -1.35757399e+00, -1.51576531e+00, 1.36523962e-01,
          -5.56873977e-01, 2.66999990e-01, -1.62682846e-01,
          2.67910153e-01, -8.28975022e-01, 7.14514971e-01,
          -2.23591994e-03, 4.69529778e-01, -2.86170006e-01,
          4.62947011e-01, 9.35668200e-02, 2.14313641e-01,
          -1.29501498e+00, -4.04350996e-01, -9.29386318e-01,
          3.44377816e-01, 1.02520299e+00, 2.31100297e+00, 1.69090629e+00,
          4.69311118e-01, 1.24445796e+00, 2.39408112e+00, 1.79524422e+00,
          4.38361645e-01 ]
      - [ -2.75520396e+00, 3.81541705e+00, -4.75681394e-01,
          1.30528688e+00, -6.76124382e+00, 1.14365625e+01,
          7.62868702e-01, 3.14925480e+00, -2.20779800e+00,
          4.23655415e+00, 1.94936544e-01, 1.05380249e+00,
          -1.44929600e+00, -1.71042994e-01, -6.69614732e-01,
          3.06891382e-01, -2.57017207e+00, -1.00028999e-01,
          -4.33715910e-01, 4.71830040e-01, -1.61348295e+00,
          6.29114985e-01, 3.13318014e-01, 4.56778049e-01,
          -3.90354705e+00, 2.11520410e+00, 1.92563713e-01,
          1.66128314e+00, -1.97781396e+00, 4.12262392e+00,
          4.12639976e-01, 1.15469086e+00, -2.21444201e+00,
          5.23754001e-01, -2.85439074e-01, 5.76660931e-01,
          -1.47099698e+00, -7.07549974e-02, -5.03025234e-01,
          3.92851859e-01, -2.96901107e+00, -1.72438395e+00,
          -2.12499619e+00, 2.45444536e-01, -2.40661001e+00,
          -8.30767989e-01, -1.14637303e+00, 2.73191392e-01 ]
      - [ -5.98926008e-01, 9.08056974e-01, 2.90609002e-02,
          2.64579266e-01, -2.71346903e+00, 3.13971996e+00,
          -4.34610015e-03, 8.57562065e-01, -5.20915604e+00,
          1.84509206e+00, -2.99197994e-02, 1.03305984e+00,
          -4.85982001e-01, -3.50638002e-01, -4.28829700e-01,
          3.30087133e-02, 2.72824192e+00, 2.94186211e+00, 2.88389063e+00,
          5.25782630e-02, -2.41820312e+00, -2.33799696e+00,
          -2.36595774e+00, 1.82768684e-02, -7.27940977e-01,
          6.19974017e-01, -4.69006598e-02, 2.38696516e-01,
          -2.15945411e+00, 6.88388920e+00, 3.35138813e-02,
          1.47468960e+00, -2.88342190e+00, 4.59259987e-01,
          -1.48452604e-02, 4.66932625e-01, -1.54726100e+00,
          -1.08923697e+00, -1.41540086e+00, 1.34772897e-01,
          -2.61083603e+00, 1.10755098e+00, -1.30819440e-01,
          9.42134798e-01, -2.90960407e+00, 3.08125997e+00,
          9.21338379e-01, 2.14015055e+00 ]
      - [ -7.52770007e-01, 2.24347901e+00, 3.71609814e-02,
          5.15910268e-01, -5.23449004e-01, 4.95130986e-01,
          1.70498602e-02, 1.77564383e-01, -3.95020008e-01,
          3.66957992e-01, 9.48940031e-03, 1.38974294e-01,
          -1.20884001e-01, -5.87509982e-02, -9.46582034e-02,
          1.95288360e-02, -1.73316002e-01, -8.15009996e-02,
          -1.28355742e-01, 2.03863811e-02, -1.08740306e+00,
          -9.30841982e-01, -1.00941575e+00, 4.57848720e-02,
          -1.92861199e+00, 3.16729993e-01, -5.04130982e-02,
          4.49784070e-01, -6.90729022e-01, 6.49223030e-01,
          4.52420022e-03, 2.08800882e-01, -2.42006004e-01,
          1.84438005e-01, 2.33536004e-03, 9.22257230e-02,
          -2.38006994e-01, -1.38298005e-01, -1.87996283e-01,
          3.69013548e-02, 1.62900001e-01, 2.42997006e-01, 1.96777254e-01,
          2.53626313e-02, 1.52013004e-01, 3.57802987e-01, 2.61651307e-01,
          6.54729232e-02 ]
      - [ -1.21765003e-01, 2.17840001e-02, -4.10310999e-02,
          4.33811359e-02, -5.56650013e-02, 3.37024987e-01,
          9.42764208e-02, 1.11955903e-01, -1.02466002e-01,
          2.16422006e-01, -1.25465996e-03, 6.89851195e-02,
          -9.59703982e-01, -8.31408978e-01, -8.61913741e-01,
          3.18154879e-02, -2.96675491e+00, -2.70507693e+00,
          -2.91786003e+00, 5.97904213e-02, -3.13194704e+00,
          3.13931203e+00, 2.36118579e+00, 2.01205230e+00,
          -4.74873990e-01, 1.30401999e-01, -8.65507796e-02,
          1.53375477e-01, -3.19229007e-01, 3.33911002e-01,
          -3.55958603e-02, 1.15151420e-01, -1.25135005e-01,
          6.22905016e-01, 1.70454934e-01, 1.89207867e-01,
          -1.05597496e+00, -3.69592994e-01, -5.84077060e-01,
          1.75746143e-01, 2.40338302e+00, 2.64235091e+00, 2.57726955e+00,
          4.32740562e-02, -3.12589097e+00, 3.13977408e+00,
          -1.29138744e+00, 2.65327048e+00 ]
      - [ 6.83667004e-01, 1.36828804e+00, 9.15005982e-01, 1.92006901e-01,
          -2.09382996e-01, 3.73400003e-01, 1.40610576e-01,
          1.80020317e-01, -9.88081992e-01, 4.58750993e-01,
          -2.55170614e-01, 4.17604148e-01, -2.43439991e-02,
          2.41659999e-01, 1.60976574e-01, 7.17437789e-02,
          -2.90788698e+00, -2.36124301e+00, -2.72897410e+00,
          1.64936543e-01, -1.08464503e+00, -5.48129976e-01,
          -6.99397981e-01, 1.76866814e-01, 3.49718004e-01,
          7.62573004e-01, 5.80544233e-01, 1.14867128e-01,
          -4.18170989e-01, 8.35027993e-01, 1.44795924e-01,
          3.97861004e-01, -5.28864980e-01, 5.55122018e-01,
          3.31940013e-04, 3.17806989e-01, -8.79742980e-01,
          -2.39970997e-01, -6.02755308e-01, 1.88647002e-01,
          -2.43513799e+00, -2.01980495e+00, -2.34587407e+00,
          1.03763431e-01, -9.98176992e-01, -3.34111005e-01,
          -5.70060551e-01, 1.63342953e-01 ]
      - [ -2.58583993e-01, 1.16186000e-01, -1.89319607e-02,
          1.11206420e-01, -1.51167005e-01, 4.91344988e-01,
          7.51107037e-02, 1.88125148e-01, -4.93234992e-01,
          3.04787010e-01, -1.19330399e-01, 2.10717916e-01,
          -1.32326400e+00, -1.16083896e+00, -1.23472309e+00,
          5.07709980e-02, -2.73662496e+00, -1.20466805e+00,
          -2.23819995e+00, 5.62001348e-01, -2.10244107e+00,
          -7.40649998e-01, -1.59907007e+00, 5.00690937e-01,
          -4.38645005e-01, 2.50351012e-01, -1.00312397e-01,
          2.04200998e-01, -7.07069993e-01, 4.37813997e-01,
          7.03618824e-02, 3.32414657e-01, -4.47200000e-01,
          7.84774005e-01, 1.19733840e-01, 3.16489667e-01,
          -8.41441989e-01, -6.07698977e-01, -7.20497012e-01,
          5.84169365e-02, 2.45943093e+00, 2.96157408e+00, 2.80934715e+00,
          1.30833790e-01, -3.14144492e+00, 3.13780499e+00,
          9.57782805e-01, 2.78618932e+00 ]
      - [ -7.82123983e-01, 6.55667007e-01, 2.74010599e-02,
          3.75696272e-01, -5.03144979e-01, 1.02896905e+00,
          -1.50481202e-02, 3.38417917e-01, -4.71722007e-01,
          6.06370986e-01, 2.46077642e-01, 2.37612993e-01,
          -1.13450599e+00, -9.48269010e-01, -1.03567922e+00,
          6.21420518e-02, -2.93350196e+00, -2.48418003e-01,
          -6.15644574e-01, 4.11606520e-01, -3.12164688e+00,
          3.14122891e+00, 1.15933716e+00, 2.26759291e+00,
          -9.88512993e-01, 3.22661996e-01, -1.38736263e-01,
          2.75711864e-01, -7.31684029e-01, 8.06520998e-01,
          -1.43528599e-02, 3.34026366e-01, -1.27754998e+00,
          7.34929979e-01, 1.13067061e-01, 4.54852194e-01,
          -1.50347495e+00, -6.55113995e-01, -1.11195290e+00,
          3.02892804e-01, -1.50941896e+00, 2.28496289e+00,
          8.63965750e-01, 5.81590593e-01, -1.55949605e+00,
          -2.05043003e-01, -1.23639143e+00, 3.59645396e-01 ]
      - [ -6.46164000e-01, 1.62882805e+00, 4.63066585e-02,
          3.42098892e-01, -7.39330482e+00, 1.37174296e+00,
          4.00766619e-02, 1.32977068e+00, -9.18422997e-01,
          4.03050989e-01, 5.78875206e-02, 2.26281464e-01,
          -1.22571003e+00, -7.99915016e-01, -1.00543904e+00,
          1.52487114e-01, 1.84335005e+00, 2.56733704e+00, 2.26103568e+00,
          1.16267800e-01, -3.05603099e+00, -2.25303292e+00,
          -2.50272584e+00, 1.32081136e-01, -1.00377798e+00,
          6.23359978e-01, -2.55855709e-01, 2.96724111e-01,
          -1.12261498e+00, 6.42757702e+00, -1.52604461e-01,
          1.35251725e+00, -2.42074990e+00, 5.31059027e-01,
          1.29456267e-01, 5.42889953e-01, -1.55564499e+00,
          -1.16463804e+00, -1.31002581e+00, 9.99812633e-02,
          -2.36081195e+00, 2.96340489e+00, 7.46285617e-02,
          1.71009088e+00, -2.08665800e+00, 1.71063805e+00,
          -5.50710440e-01, 1.53937650e+00 ]
      - [ -3.20977986e-01, 9.16851997e-01, 4.01496002e-03,
          2.46694118e-01, -1.51488304e+00, 2.28608894e+00,
          1.01869004e-02, 5.23620129e-01, -4.77048111e+00,
          2.27007699e+00, 4.12067212e-02, 1.00438702e+00,
          -9.87915993e-01, -8.51881027e-01, -8.94918621e-01,
          3.40075009e-02, -2.61787105e+00, -2.41266108e+00,
          -2.52236414e+00, 7.12759346e-02, -1.79014599e+00,
          -1.59852600e+00, -1.69693291e+00, 3.61267924e-02,
          -4.87560987e-01, 4.68241006e-01, -6.20979592e-02,
          1.74134374e-01, -1.72839200e+00, 6.66238117e+00,
          -6.83474615e-02, 1.23963165e+00, -3.53551793e+00,
          3.76857013e-01, 5.46344817e-02, 5.78623116e-01,
          -6.36053979e-01, -2.72680998e-01, -4.73110795e-01,
          1.41026393e-01, 8.15384984e-01, 1.10219097e+00, 9.64086354e-01,
          1.00993805e-01, 7.35046029e-01, 9.57777023e-01, 8.92810225e-01,
          5.79775609e-02 ]
      - [ -4.99826998e-01, 6.89401984e-01, -8.46696422e-02,
          1.87329665e-01, -1.63069201e+00, 1.36065304e+00,
          9.67844017e-03, 3.89461517e-01, -8.36019993e-01,
          2.56144094e+00, 5.06365597e-02, 6.04415417e-01, 2.74755001e-01,
          3.92996013e-01, 3.20032090e-01, 3.02159283e-02, 8.52949992e-02,
          2.09499002e-01, 1.73512444e-01, 3.01636383e-02,
          -6.79753006e-01, -6.01207018e-01, -6.40746713e-01,
          1.76924393e-02, -1.83919704e+00, 1.13939905e+00,
          -1.98501796e-02, 3.97423595e-01, -6.07320011e-01,
          2.06563592e+00, 1.01233043e-01, 4.94724452e-01,
          -5.34476995e-01, 2.99585891e+00, 1.76771820e-01,
          6.97398424e-01, -5.99790990e-01, -4.46433008e-01,
          -5.38297772e-01, 4.06551585e-02, 2.51792407e+00,
          3.03329992e+00, 2.95180440e+00, 1.22034542e-01, 2.53289509e+00,
          2.79644704e+00, 2.74854803e+00, 6.30939826e-02 ]
      - [ -4.61337000e-01, 2.55338502e+00, -1.98316406e-02,
          6.66292906e-01, -3.04987788e+00, 7.88555026e-01,
          9.84974802e-02, 6.53466225e-01, -1.63530600e+00,
          2.84541988e+00, 3.72077189e-02, 6.10117018e-01,
          -7.73837984e-01, -5.63032985e-01, -6.51061118e-01,
          6.91021606e-02, 3.13073009e-01, 5.59979022e-01, 4.51110691e-01,
          7.94763118e-02, -2.80280001e-02, 3.84918004e-01,
          1.75036907e-01, 1.54570311e-01, -3.51533890e+00,
          5.77995002e-01, 1.42023796e-02, 7.68051982e-01,
          -2.21862507e+00, 1.16306102e+00, 6.17318191e-02,
          4.87279981e-01, -8.02600980e-01, 1.41755402e+00,
          8.67582019e-03, 3.23468775e-01, -8.43945026e-01,
          -5.68093002e-01, -6.81635380e-01, 9.90882516e-02,
          -7.24096000e-01, -5.12592018e-01, -6.30617082e-01,
          7.63852447e-02, -1.04698205e+00, -6.80180013e-01,
          -8.56296718e-01, 1.40948251e-01 ]
      - [ -3.95886987e-01, 1.61997604e+00, 1.44837126e-01,
          3.21351200e-01, -3.13581991e+00, 9.17366982e-01,
          -2.55636200e-02, 5.25170445e-01, -5.75058985e+00,
          1.43205202e+00, 1.40441200e-02, 1.15962899e+00,
          -1.79477006e-01, 5.90640008e-02, -1.01347581e-01,
          7.91091993e-02, -7.45379984e-01, -1.70734003e-01,
          -3.80424112e-01, 2.06145704e-01, -6.19674981e-01,
          -4.84252989e-01, -5.73009789e-01, 3.24190632e-02,
          -1.18566895e+00, 3.82604003e-01, -7.41267996e-03,
          2.66882569e-01, -5.70155978e-01, 5.91705978e-01,
          -2.52720602e-02, 1.85700744e-01, -1.49891806e+00,
          3.26090908e+00, -1.64045999e-03, 8.42128336e-01,
          1.53289996e-02, 1.74834996e-01, 1.02079399e-01, 5.48966676e-02,
          -6.01489991e-02, 1.91594005e-01, 6.97051808e-02,
          9.61947963e-02, -8.74225020e-01, -8.17862988e-01,
          -8.46767664e-01, 1.61152519e-02 ]
      - [ -5.14400005e-01, 3.09359014e-01, 1.68852005e-02,
          1.98052213e-01, -1.83282697e+00, 1.60428500e+00,
          2.42474992e-02, 4.63169038e-01, -6.18577003e-01,
          5.46376705e+00, -2.23032199e-02, 1.04362535e+00,
          -1.70431003e-01, -1.77170001e-02, -1.35322213e-01,
          3.55812199e-02, 3.48214000e-01, 8.86301994e-01, 5.39931595e-01,
          2.05225259e-01, 7.56009966e-02, 2.79312998e-01, 1.61410198e-01,
          6.78488463e-02, -4.17977905e+00, 7.73608983e-01,
          6.74768165e-02, 8.16501617e-01, -3.86950302e+00,
          1.94034004e+00, -4.03449796e-02, 7.23854303e-01,
          -6.32925081e+00, 8.26330006e-01, 7.71339387e-02,
          1.28233814e+00, -5.50768018e-01, -4.20543998e-01,
          -4.85035479e-01, 3.76399457e-02, -6.29737973e-01,
          -4.87999991e-03, -3.82739007e-01, 2.46326268e-01,
          2.27212501e+00, 2.38764811e+00, 2.34995389e+00, 2.62448136e-02 ]
      - [ -7.51330018e-01, 2.16020489e+00, 2.33650003e-02,
          4.22638029e-01, -2.12389708e+00, 3.09027410e+00,
          9.16635990e-03, 6.69435859e-01, -8.42650700e+00,
          1.59790301e+00, -5.46289608e-02, 1.36469650e+00,
          -9.75431025e-01, -8.55199993e-01, -9.10913885e-01,
          2.94900015e-02, 2.66508007e+00, 2.83173299e+00, 2.77584887e+00,
          5.77226691e-02, -2.93884611e+00, -2.59378195e+00,
          -2.81333685e+00, 1.36556059e-01, -3.06466198e+00,
          7.11883008e-01, -2.21058596e-02, 4.71816719e-01,
          -9.68078971e-01, 6.14957988e-01, -1.21111199e-02,
          2.72051573e-01, -9.62863827e+00, 1.59523201e+00,
          -5.94673604e-02, 1.57216704e+00, -1.14205694e+00,
          -9.59375024e-01, -1.04025972e+00, 4.95933443e-02,
          -2.67545295e+00, -2.57191801e+00, -2.63639855e+00,
          2.86165979e-02, 2.39083910e+00, 2.74169111e+00, 2.59137964e+00,
          1.25335708e-01 ]
      - [ -6.09634995e-01, 1.03079796e+00, 4.17231992e-02,
          3.09890628e-01, -4.05892611e+00, 1.23538101e+00,
          2.72173006e-02, 9.41159666e-01, -2.45454788e+00,
          1.85725701e+00, 6.17870390e-02, 5.41536510e-01,
          -7.40410984e-01, -3.65675002e-01, -5.69155633e-01,
          1.08882718e-01, -8.10189009e-01, -5.26798010e-01,
          -7.03831851e-01, 7.68554807e-02, -9.68160033e-02,
          2.57418007e-01, 8.47072601e-02, 8.79498422e-02,
          -1.31076097e+00, 1.43951905e+00, -5.14628999e-02,
          3.96290183e-01, -2.64833808e+00, 6.07512188e+00,
          -1.35589421e-01, 1.33378351e+00, -4.11456823e+00,
          1.26383901e+00, 1.38502419e-01, 7.78898120e-01,
          -3.72081012e-01, -5.73850013e-02, -2.27888674e-01,
          1.09694481e-01, 6.51534021e-01, 9.37255979e-01, 7.91125298e-01,
          9.49212387e-02, 2.61178398e+00, 2.93336606e+00, 2.78112817e+00,
          9.85840112e-02 ]
      - [ -2.69237995e-01, 3.18915993e-01, 6.57763984e-03,
          1.05041742e-01, -1.23264802e+00, 1.03341496e+00,
          1.16639799e-02, 2.88609505e-01, -5.20130992e-01,
          3.24602103e+00, -6.25076005e-03, 6.56827867e-01,
          -7.32399989e-03, 1.62089005e-01, 6.50516376e-02,
          4.82904837e-02, 2.29102001e-01, 4.62733001e-01, 3.29270005e-01,
          7.52590150e-02, 3.41699994e-03, 1.04639001e-01, 5.59855811e-02,
          3.21887843e-02, -3.48631001e+00, 3.71315986e-01,
          -8.96873623e-02, 5.99136353e-01, -2.56138301e+00,
          8.82480025e-01, -4.49007982e-03, 5.61029971e-01,
          -2.52170897e+00, 1.06714904e+00, 8.10179412e-02,
          8.15236747e-01, -3.38140994e-01, -2.16004997e-01,
          -2.69653946e-01, 2.84469798e-02, -3.96955013e-01,
          2.94470012e-01, -1.43795878e-01, 2.79325664e-01,
          -1.40743002e-01, -3.66300009e-02, -9.64830965e-02,
          2.41940431e-02 ]
      - [ -1.78870201e+00, 4.28671694e+00, 7.16338605e-02,
          8.60683560e-01, -3.17493701e+00, 4.47791719e+00,
          2.12183800e-02, 8.73981476e-01, -7.73145819e+00,
          2.39455605e+00, -3.89081612e-02, 1.44166672e+00,
          -1.13695800e+00, -9.53642011e-01, -1.06348681e+00,
          5.86836673e-02, -1.60637105e+00, -1.11513996e+00,
          -1.31105042e+00, 1.48292884e-01, -8.70110989e-01,
          -6.83037996e-01, -7.97737896e-01, 4.79509681e-02,
          -5.21654701e+00, 2.57276201e+00, -9.44569781e-02,
          9.83678222e-01, -1.51397002e+00, 3.64481902e+00,
          8.66719987e-03, 6.47559404e-01, -8.07425213e+00,
          1.80089796e+00, -5.60137406e-02, 1.61448431e+00,
          -1.19232798e+00, -1.00139701e+00, -1.12594044e+00,
          6.58080503e-02, 1.12968099e+00, 1.68614805e+00, 1.31077588e+00,
          2.04927027e-01, 7.10750997e-01, 9.45500016e-01, 7.97082722e-01,
          7.82938972e-02 ]
      - [ -6.58482015e-01, 9.28480029e-01, -1.77086005e-03,
          2.78092772e-01, -3.88687205e+00, 1.27486002e+00,
          9.66762006e-03, 8.58767688e-01, -1.20687103e+00,
          1.13740695e+00, -1.84700806e-02, 3.24867725e-01,
          -1.33727002e+00, -1.21977305e+00, -1.28109825e+00,
          2.98139155e-02, -1.96817803e+00, -1.64927197e+00,
          -1.84602857e+00, 1.16233580e-01, -2.17428899e+00,
          -1.85497105e+00, -2.03954029e+00, 1.09691761e-01,
          -6.94581985e-01, 2.20955998e-01, -6.77665025e-02,
          1.87452808e-01, -1.19514596e+00, 5.55562687e+00,
          3.67327183e-02, 1.23175669e+00, -5.08638978e-01,
          5.35485029e-01, -8.80702026e-03, 1.99459091e-01,
          -1.36492801e+00, -9.28134978e-01, -1.15238619e+00,
          1.68172270e-01, 5.39505005e-01, 1.27397799e+00, 1.09190285e+00,
          2.08012655e-01, -2.99200006e-02, 6.43670976e-01,
          4.82464552e-01, 1.86457217e-01 ]
      - [ -1.38637197e+00, 1.31807899e+00, 1.88635036e-01,
          3.22759509e-01, -1.51084900e+00, 2.59103203e+00,
          -6.84069932e-01, 7.70737529e-01, -7.63999997e-04,
          3.70575309e+00, 7.02055633e-01, 8.67074013e-01,
          -1.29364896e+00, -1.12510204e+00, -1.20158267e+00,
          5.37809283e-02, -2.38353395e+00, -1.56555998e+00,
          -1.97776270e+00, 2.90975899e-01, -2.57256007e+00,
          -2.03826904e+00, -2.31733346e+00, 1.68230057e-01,
          -7.00012982e-01, 4.20215011e-01, -4.60534617e-02,
          2.08881110e-01, -2.05391097e+00, 1.66283298e+00,
          3.40489596e-02, 4.39426005e-01, -5.73144972e-01,
          3.58092690e+00, -3.84567007e-02, 8.95155489e-01,
          8.86529982e-02, 1.75855994e-01, 1.27349362e-01, 2.25444175e-02,
          -5.12283981e-01, -2.02103004e-01, -3.63672346e-01,
          1.10565186e-01, -7.41019994e-02, -1.45169999e-02,
          -5.48487604e-02, 1.60426628e-02 ]
      - [ -1.70504904e+00, 3.93969297e+00, 5.10390215e-02,
          7.57812142e-01, -1.43446004e+00, 7.21737981e-01,
          6.58167992e-03, 3.01279396e-01, -6.69538116e+00,
          1.73713303e+00, -1.13778403e-02, 1.33753765e+00,
          -6.77913010e-01, -5.34003973e-01, -6.18584931e-01,
          4.71222326e-02, -1.14819598e+00, -8.30716014e-01,
          -9.39912498e-01, 1.16331287e-01, -4.86328006e-01,
          -3.60911012e-01, -4.04052943e-01, 3.93703654e-02,
          -3.92268109e+00, 1.56174302e+00, -6.14578798e-02,
          7.17530191e-01, -1.61610103e+00, 1.80749798e+00,
          5.88779990e-03, 4.19379473e-01, -7.26911116e+00,
          2.07159710e+00, -2.11471394e-02, 1.41856802e+00,
          -7.16446996e-01, -5.86301029e-01, -6.72884345e-01,
          4.07316014e-02, 8.91416013e-01, 1.24313998e+00, 1.00680661e+00,
          1.32319450e-01, 3.91083002e-01, 5.24249017e-01, 4.39406484e-01,
          4.15833034e-02 ]
      - [ -3.36508006e-01, 2.96945989e-01, 4.46503796e-02,
          1.39445573e-01, -6.12322986e-01, 4.65721995e-01,
          -2.73742396e-02, 2.86978722e-01, -4.91319001e-01,
          3.95132005e-01, 3.15889604e-02, 2.13020489e-01,
          -1.32187295e+00, -1.14310503e+00, -1.22269833e+00,
          4.80708703e-02, -2.98819399e+00, -1.28266799e+00,
          -1.89241195e+00, 4.33450818e-01, -2.48884106e+00,
          -7.17597008e-01, -1.37448406e+00, 4.80251878e-01,
          -5.34469008e-01, 4.16491002e-01, -1.47742897e-01,
          3.12675744e-01, -1.03356695e+00, 1.31292605e+00,
          -1.62696596e-02, 7.07672894e-01, -5.49485981e-01,
          2.33025998e-01, -1.50187433e-01, 2.22133651e-01,
          -1.41343701e+00, -6.77733004e-01, -1.03821480e+00,
          2.46204868e-01, 6.41664028e-01, 2.74254203e+00, 1.68576944e+00,
          7.30398774e-01, 4.18511003e-01, 2.86395097e+00, 1.56226063e+00,
          8.32131684e-01 ]
      - [ -6.71069026e-01, 3.36738110e+00, 3.52708809e-02,
          5.97947001e-01, -8.71302009e-01, 2.10986900e+00,
          3.26511599e-02, 3.97591025e-01, -3.90608501e+00,
          9.80636001e-01, -2.56534591e-02, 8.41274977e-01,
          -7.28046000e-01, -5.66899002e-01, -6.45475268e-01,
          5.89786768e-02, -1.34312606e+00, -1.12603104e+00,
          -1.24503469e+00, 6.96860701e-02, -7.81687021e-01,
          -5.63099980e-01, -6.33639514e-01, 6.18182868e-02,
          -3.34567308e+00, 1.35784602e+00, -6.66157976e-02,
          6.46598458e-01, -3.94155908e+00, 3.73700809e+00,
          1.99516006e-02, 9.61695910e-01, -3.98303604e+00,
          1.35066998e+00, 1.39237999e-03, 9.14611697e-01,
          -6.46840990e-01, -4.69009012e-01, -5.67962527e-01,
          4.22245711e-02, 8.96364987e-01, 1.25604200e+00, 1.12636364e+00,
          1.06716625e-01, 2.76138991e-01, 5.44592023e-01, 4.10197586e-01,
          6.49836436e-02 ]
      - [ -8.55495989e-01, 2.12969589e+00, 1.83453001e-02,
          4.25724924e-01, -1.30131698e+00, 9.50779974e-01,
          -6.49318006e-03, 3.79427552e-01, -4.83127880e+00,
          1.90744400e+00, 4.49686386e-02, 1.14129376e+00,
          -9.21447992e-01, -7.09985971e-01, -7.68561780e-01,
          5.02386205e-02, -2.93090510e+00, -2.54992890e+00,
          -2.77269077e+00, 1.27009109e-01, -1.87241006e+00,
          -1.65212703e+00, -1.81485939e+00, 5.91251440e-02,
          -6.78664029e-01, 5.90233982e-01, -5.67056611e-02,
          2.12036595e-01, -8.15496981e-01, 2.39286804e+00,
          -7.11716637e-02, 7.98869371e-01, -1.97060597e+00,
          4.28440988e-01, 7.41196424e-02, 3.88696164e-01,
          -9.15105999e-01, -4.74150985e-01, -6.93099856e-01,
          1.56368047e-01, 8.08640003e-01, 1.03487694e+00, 9.39048350e-01,
          8.22296739e-02, 6.22997999e-01, 8.22001994e-01, 7.25384474e-01,
          6.51482046e-02 ]
      - [ -8.28257024e-01, 1.40081298e+00, 1.23123936e-01,
          2.91953266e-01, -7.20445991e-01, 2.35590005e+00,
          3.90962586e-02, 4.15520966e-01, -7.15658009e-01,
          4.33264780e+00, 3.62058617e-02, 7.76135147e-01,
          -4.35716987e-01, -2.99607992e-01, -3.76557827e-01,
          4.60833907e-02, -2.60911107e+00, -2.21460700e+00,
          -2.42668772e+00, 1.54635325e-01, -2.91654801e+00,
          -2.81738901e+00, -2.87405753e+00, 3.47645134e-02,
          -1.49058402e+00, 4.17059988e-01, -4.77628596e-02,
          3.03729922e-01, -2.58704495e+00, 1.87552905e+00,
          3.23341996e-03, 5.83098352e-01, -5.48497975e-01,
          4.33873415e+00, 1.99491400e-02, 9.02395070e-01, 4.57985014e-01,
          5.62259018e-01, 5.07507026e-01, 3.17291655e-02,
          -2.13696003e-01, 6.99609965e-02, -8.49062800e-02,
          8.93003792e-02, 9.46941972e-01, 1.13151300e+00, 1.05103076e+00,
          7.14180470e-02 ]
      - [ -1.97666597e+00, 4.19678783e+00, -1.33564994e-01,
          1.43671334e+00, -7.94975996e-01, 7.73840010e-01,
          -2.67323047e-01, 4.12098855e-01, -2.75884002e-01,
          4.49458003e-01, 1.33970425e-01, 2.16861248e-01,
          -7.59130001e-01, -1.95628002e-01, -4.29221958e-01,
          2.20856234e-01, -2.13236004e-01, 1.55151105e+00,
          -7.56051391e-02, 2.48177946e-01, 1.42979395e+00,
          1.91477096e+00, 1.57240176e+00, 1.47474855e-01,
          -3.96386909e+00, 1.92342401e+00, -2.39756539e-01,
          1.62242174e+00, -1.18728495e+00, 5.91530025e-01,
          -4.43207294e-01, 4.97979075e-01, -8.93684030e-01,
          8.26465011e-01, 3.95846337e-01, 3.58149022e-01,
          -7.87913024e-01, -5.92054009e-01, -6.92556739e-01,
          4.95036468e-02, -2.10766912e+00, -9.41475987e-01,
          -1.74697447e+00, 1.99425012e-01, -1.40797102e+00,
          -9.05238986e-01, -1.11095309e+00, 1.45787656e-01 ]
      - [ -9.06723976e-01, 8.92327011e-01, 8.26784000e-02,
          2.97520548e-01, -2.30647898e+00, 6.26955986e+00,
          -6.55448586e-02, 1.37942064e+00, -2.21677709e+00,
          5.96144021e-01, 7.15136379e-02, 4.77209002e-01,
          -1.54356003e+00, -1.35553205e+00, -1.45775485e+00,
          4.02218886e-02, -2.27433395e+00, 2.97302103e+00,
          1.21166849e+00, 1.75016189e+00, -2.85885596e+00,
          2.37557912e+00, 6.62430763e-01, 1.73815620e+00,
          -1.57377100e+00, 6.65102005e-01, -7.96956420e-02,
          3.61847758e-01, -6.69145584e+00, 9.11588013e-01,
          -2.14028009e-03, 1.25385511e+00, -8.01061988e-01,
          1.08812296e+00, 4.64201793e-02, 2.63786882e-01,
          -1.34759295e+00, -9.00255024e-01, -1.18244982e+00,
          1.17769405e-01, -1.61603296e+00, -7.34830976e-01,
          -1.06850123e+00, 3.06653857e-01, -2.12764311e+00,
          -1.16059196e+00, -1.50240362e+00, 3.23721707e-01 ]
      - [ -1.53451994e-01, 2.95605987e-01, -8.59980006e-04,
          1.44814402e-01, -6.89809024e-01, 4.01834011e-01,
          -1.64042006e-03, 2.95852572e-01, -3.60276997e-01,
          2.66512007e-01, -1.75092202e-02, 1.45264551e-01,
