%YAML:1.0
---
opencv_ml_svm:
   format: 3
   svmType: C_SVC
   kernel:
      type: RBF
      gamma: 2.2500000000000003e-03
   C: 3.1250000000000000e+02
   term_criteria: { epsilon:1.1920928955078125e-07, iterations:1000 }
   var_count: 48
   class_count: 18
   class_labels: !!opencv-matrix
      rows: 18
      cols: 1
      dt: i
      data: [ 0, 1, 2, 3, 4, 5, 6, 7, 8, 9, 10, 11, 12, 13, 14, 15, 16,
          17 ]
   sv_total: 659
   support_vectors:
      - [ -2.38178205e+00, 5.51781988e+00, 1.09978780e-01,
          1.77683282e+00, -4.82387990e-01, 1.54674697e+00,
          7.39455372e-02, 4.71606404e-01, -4.87884998e-01,
          8.94877970e-01, 1.82991639e-01, 2.92633623e-01,
          -2.55517006e-01, -1.66159004e-01, -2.14213133e-01,
          2.86201946e-02, -2.45563999e-01, 1.41017604e+00,
          -1.32188454e-01, 2.25303680e-01, 1.41017604e+00,
          1.57155800e+00, 1.48594594e+00, 5.40716685e-02,
          -7.34938478e+00, 9.96860027e-01, -1.10460794e+00,
          1.93101490e+00, -1.48627198e+00, 1.00915897e+00,
          -5.91879487e-01, 5.25090754e-01, -9.05727029e-01,
          4.93189007e-01, -3.07994753e-01, 3.38530809e-01,
          -1.21386695e+00, -3.09058994e-01, -1.00966299e+00,
          2.55657196e-01, -1.54447305e+00, 3.10710692e+00,
          2.55596614e+00, 1.09174669e+00, -1.55327594e+00,
          2.99274707e+00, 2.38468909e+00, 1.31394911e+00 ]
      - [ -2.85070002e-01, 4.70474005e-01, 6.99499971e-04,
          1.45571232e-01, -5.64841986e-01, 2.79206991e-01,
          -1.22062601e-02, 1.34809613e-01, -5.43142021e-01,
          5.83819985e-01, 8.30870029e-03, 2.10316777e-01,
          -7.60275006e-01, -6.44704998e-01, -6.96853876e-01,
          4.16245386e-02, -1.10152996e+00, -1.00819099e+00,
          -1.05467999e+00, 2.68580709e-02, 2.24110794e+00,
          2.45067000e+00, 2.33401942e+00, 7.48257712e-02,
          -8.54285002e-01, 2.07163006e-01, -1.61718905e-01,
          2.86492050e-01, -2.34116602e+00, 2.14330912e+00,
          4.63026613e-02, 8.23333204e-01, -8.43428016e-01,
          8.53340030e-01, 5.51746599e-02, 2.90908426e-01,
          -5.15529998e-02, 5.50543010e-01, 2.91422665e-01,
          2.46505365e-01, 9.22980011e-01, 1.02700102e+00, 9.61843193e-01,
          2.50157733e-02, -8.03049982e-01, -3.28862011e-01,
          -5.56200027e-01, 1.63414627e-01 ]
      - [ -3.02598310e+00, 1.61657095e+00, 1.66303977e-01,
          6.13100529e-01, -8.94424975e-01, 5.03368521e+00,
          -7.40894005e-02, 9.18495834e-01, -1.09460795e+00,
          3.42418098e+00, -6.05404004e-02, 9.66277122e-01,
          -5.36091030e-01, -3.74871999e-01, -4.47693884e-01,
          5.40500842e-02, -2.76530910e+00, -2.25809407e+00,
          -2.54229546e+00, 2.05899507e-01, 2.22052002e+00,
          2.46491289e+00, 2.34073257e+00, 9.21790004e-02,
          -4.86454010e-01, 5.80191016e-01, -1.44438624e-01,
          2.26585001e-01, -2.00341606e+00, 1.53667903e+00,
          3.45381200e-02, 5.27553916e-01, -1.28241205e+00,
          4.36590910e+00, -2.73174401e-02, 1.21134198e+00,
          3.35092992e-01, 5.03596008e-01, 4.01506871e-01, 5.97800612e-02,
          -5.28625011e-01, 1.73540004e-02, -2.54786462e-01,
          1.89632595e-01, 3.53899994e-03, 9.04780030e-02, 3.02182194e-02,
          2.42037140e-02 ]
      - [ -6.96942985e-01, 7.91296005e-01, -8.14814027e-03,
          2.18712434e-01, -5.89025021e-01, 9.20481980e-01,
          7.31525989e-03, 2.11266160e-01, -1.43772900e+00,
          4.07907993e-01, 1.11638401e-02, 3.00396115e-01,
          -4.73188996e-01, -4.02262986e-01, -4.53857690e-01,
          1.47459535e-02, 2.81114507e+00, 2.90222907e+00, 2.84522367e+00,
          2.87452247e-02, 3.49532992e-01, 3.93530011e-01, 3.71360958e-01,
          1.24307713e-02, -2.17500305e+00, 3.77117991e-01,
          -1.72480196e-02, 4.57431555e-01, -3.91241997e-01,
          7.80730009e-01, -4.21242788e-02, 1.98811069e-01,
          -1.78230596e+00, 1.37777102e+00, 8.94112587e-02,
          5.34801304e-01, -4.97565001e-01, -4.35696006e-01,
          -4.64299947e-01, 1.51283471e-02, -5.08049011e-01,
          9.14200023e-03, -2.56126612e-01, 1.78437859e-01,
          -3.11891389e+00, -2.97378397e+00, -3.05285287e+00,
          4.13084663e-02 ]
      - [ -3.13721001e-01, 3.95992011e-01, 9.17343982e-03,
          1.17053002e-01, -2.10667998e-01, 2.23895997e-01,
          6.86663995e-03, 7.25260824e-02, -5.71449995e-01,
          8.90551984e-01, -1.00677600e-02, 2.78778791e-01,
          4.71080005e-01, 5.16773999e-01, 4.99911427e-01, 9.35500022e-03,
          1.87303007e-01, 2.88504988e-01, 2.42622659e-01, 2.75496673e-02,
          -9.89240035e-02, -6.66489974e-02, -8.16546604e-02,
          6.69697626e-03, -1.84129095e+00, 5.94906986e-01,
          2.88343988e-03, 3.96575242e-01, -2.24919006e-01,
          5.76578975e-01, -2.36375406e-02, 1.12688996e-01,
          -1.42718899e+00, 6.71423018e-01, 6.18549213e-02,
          4.47439462e-01, -1.75329000e-01, -1.30623996e-01,
          -1.54313520e-01, 1.17318742e-02, -9.93420035e-02,
          3.93555999e-01, 1.23103701e-01, 1.79901898e-01,
          -1.02390004e-02, 6.55800030e-02, 2.63414998e-02,
          2.69580800e-02 ]
      - [ -4.03658986e-01, 3.78078997e-01, -3.65027995e-03,
          1.26619443e-01, -3.18713993e-01, 6.53605998e-01,
          -2.08644010e-03, 1.40196711e-01, -4.95963007e-01,
          4.06852990e-01, 5.94240008e-03, 1.28686100e-01,
          -8.86785984e-01, -8.56880009e-01, -8.71393681e-01,
          8.42847303e-03, -9.27398026e-01, -8.52519989e-01,
          -8.79662693e-01, 2.08560191e-02, 5.16852021e-01,
          5.89582026e-01, 5.69399893e-01, 1.84238125e-02,
          -7.29366004e-01, 3.67294997e-01, -9.17758420e-02,
          1.78351998e-01, -1.48335600e+00, 1.94022405e+00,
          -2.22123992e-02, 4.65612054e-01, -9.03034985e-01,
          8.77301991e-01, -3.97965387e-02, 4.37354594e-01,
          -7.21774995e-01, -4.77674007e-01, -6.01877630e-01,
          7.24262521e-02, -2.95735002e-01, 6.52068973e-01,
          8.76394585e-02, 3.50001574e-01, -2.51155901e+00,
          -2.14783001e+00, -2.37965918e+00, 1.45629257e-01 ]
      - [ -6.85512006e-01, 3.52358997e-01, 2.08387803e-02,
          1.98983550e-01, -1.40086699e+00, 4.74253607e+00,
          -3.79358009e-02, 1.03386962e+00, -2.89212990e+00,
          5.98509014e-01, 4.34349589e-02, 5.29561222e-01,
          -1.44766605e+00, -1.01908898e+00, -1.27546465e+00,
          1.35787636e-01, -1.94010603e+00, -3.34105998e-01,
          -8.75964165e-01, 3.81968528e-01, -2.82251906e+00,
          -1.27362895e+00, -1.74559140e+00, 3.52701724e-01,
          -1.61494398e+00, 5.13402998e-01, -6.44500405e-02,
          3.31241637e-01, -7.85810089e+00, 1.02919805e+00,
          1.22307998e-03, 1.23801219e+00, -1.85412705e+00,
          8.85197997e-01, 5.77611998e-02, 3.80922645e-01,
          -1.42954397e+00, -1.11730599e+00, -1.28118408e+00,
          8.69900882e-02, -1.50324404e+00, 3.58439982e-02,
          -5.47696173e-01, 5.58273673e-01, -2.43937707e+00,
          -8.13573003e-01, -1.43664455e+00, 5.70844173e-01 ]
      - [ -9.87251997e-01, 1.02052796e+00, 1.94405997e-03,
          2.56744832e-01, -1.03158200e+00, 8.47431004e-01,
          -8.65663961e-03, 2.07300708e-01, -5.66860974e-01,
          1.72569001e+00, 1.61436002e-03, 2.82790601e-01, 7.40759969e-02,
          1.60655007e-01, 1.15407683e-01, 2.31175553e-02, 2.80580997e-01,
          4.05111998e-01, 3.61021370e-01, 3.05980574e-02, 8.31290036e-02,
          1.87629998e-01, 1.33266300e-01, 2.50668116e-02,
          -1.57073796e+00, 5.07683992e-01, 5.73379977e-04,
          3.45523268e-01, -6.91668987e-01, 1.12586606e+00,
          1.88227999e-03, 2.56011426e-01, -1.21141803e+00,
          8.49447012e-01, -7.60337189e-02, 3.46632689e-01,
          -4.66670007e-01, -3.73629987e-01, -4.28423166e-01,
          2.23226119e-02, -2.92246997e-01, 1.66051000e-01,
          -1.69937387e-01, 1.35000527e-01, 1.41370997e-01,
          2.62140006e-01, 1.74847901e-01, 3.45628075e-02 ]
      - [ -2.14887810e+00, 3.10283804e+00, 7.83521961e-03,
          7.32784510e-01, -3.15937591e+00, 3.05731702e+00,
          -1.48845799e-02, 7.59739578e-01, -7.31682003e-01,
          2.73756909e+00, -5.67608001e-03, 5.87322533e-01,
          1.05609202e+00, 1.24381101e+00, 1.14338005e+00, 4.94280234e-02,
          -1.24979997e-02, 2.62300998e-01, 8.66779014e-02,
          1.05708070e-01, -6.83080032e-02, 1.19641997e-01,
          4.60391790e-02, 6.54421672e-02, -3.96518612e+00,
          1.51152098e+00, -1.17631562e-01, 7.95033574e-01,
          -3.68518305e+00, 1.12573004e+00, 2.21124198e-02,
          5.97245812e-01, -6.68496180e+00, 1.34401906e+00,
          -2.36983802e-02, 1.27794147e+00, -3.05772990e-01,
          -7.50010014e-02, -1.64543197e-01, 8.97290707e-02,
          8.88540983e-01, 1.39159000e+00, 1.13282478e+00, 2.04865649e-01,
          8.70436013e-01, 1.13720703e+00, 1.00788939e+00, 7.66042247e-02 ]
      - [ -4.57944989e-01, 9.25599970e-03, -1.17734820e-01,
          9.91763249e-02, -1.95569992e-02, 1.26310599e+00,
          2.48165965e-01, 2.41793454e-01, -1.72977996e+00,
          -1.31700002e-02, -6.80402100e-01, 6.62694693e-01,
          3.48412007e-01, 1.09520400e+00, 6.06971383e-01, 2.04887941e-01,
          3.10072005e-01, 2.52334690e+00, 1.41218424e+00, 1.01825202e+00,
          -2.50675893e+00, -9.40374017e-01, -1.68343043e+00,
          7.21172810e-01, -2.75967985e-01, 4.45629992e-02,
          -1.29034203e-02, 6.13479391e-02, -3.22283000e-01,
          1.65825993e-01, -4.41109985e-02, 1.00832440e-01,
          -2.52308995e-01, 8.05356026e-01, 9.04895365e-02,
          2.08196849e-01, -6.59843981e-01, 1.43658996e-01,
          6.99603781e-02, 1.54411510e-01, -2.13934004e-01,
          -1.70371994e-01, -1.95505798e-01, 1.08122723e-02,
          -4.39572990e-01, 3.11440006e-02, -1.15741439e-01,
          1.50186852e-01 ]
      - [ -7.14920998e-01, 2.19388199e+00, 2.17216201e-02,
          4.92772162e-01, -8.98652017e-01, 8.28167975e-01,
          -1.60655996e-03, 2.56411612e-01, -3.74367499e+00,
          8.79544020e-01, 7.95575976e-03, 7.95581043e-01,
          -6.60681009e-01, -6.00324988e-01, -6.25177681e-01,
          1.52282976e-02, -2.55304193e+00, -2.43176889e+00,
          -2.51275945e+00, 2.72834729e-02, -2.38941407e+00,
          -2.29303098e+00, -2.32090402e+00, 2.66037602e-02,
          -1.63016903e+00, 7.19676971e-01, -5.20891584e-02,
          3.12414348e-01, -1.16251504e+00, 2.46958089e+00,
          -8.27260024e-04, 4.24210787e-01, -4.77000093e+00,
          8.91049981e-01, -4.73828390e-02, 1.07513964e+00,
          -4.27300990e-01, -1.51991993e-01, -3.21162730e-01,
          7.45321885e-02, 3.89856011e-01, 8.43652010e-01, 5.43498755e-01,
          1.53673097e-01, -1.55465007e-01, -6.96190000e-02,
          -1.18928500e-01, 3.04171145e-02 ]
      - [ -2.14405999e-01, 3.46706003e-01, 7.62058003e-03,
          9.96998101e-02, -1.61931205e+00, 5.11895001e-01,
          1.40850199e-02, 4.10378247e-01, -6.64179996e-02,
          2.64804989e-01, 7.25036021e-03, 6.09336160e-02,
          -1.13635504e+00, -1.08795500e+00, -1.10737062e+00,
          1.33958645e-02, -4.41617996e-01, -1.54587999e-01,
          -3.35476816e-01, 9.55467969e-02, 9.05745983e-01,
          1.15558505e+00, 1.01014292e+00, 7.92425573e-02,
          -3.04491997e-01, 2.82575995e-01, -5.32566011e-03,
          1.00859717e-01, -4.96547997e-01, 2.32501411e+00,
          -3.78993787e-02, 4.78697449e-01, -7.46803999e-01,
          1.78749993e-01, 1.04788598e-02, 1.73255548e-01,
          -1.18390298e+00, -1.03623295e+00, -1.11318326e+00,
          4.73881923e-02, 5.71613014e-01, 8.83219004e-01, 7.26873994e-01,
          9.48452726e-02, 5.62711000e-01, 8.58503997e-01, 7.15410411e-01,
          8.74215513e-02 ]
      - [ -1.23742998e-01, 1.79473996e-01, 1.05504403e-02,
          6.98142797e-02, -1.30197597e+00, 9.98520970e-01,
          1.22196600e-02, 2.97032297e-01, -1.08458900e+00,
          3.72689992e-01, 1.27838005e-03, 2.52580911e-01,
          -6.89005971e-01, -5.42614996e-01, -6.52746260e-01,
          3.91116329e-02, -3.03228593e+00, -2.96861792e+00,
          -2.99554896e+00, 1.83340237e-02, 2.75970012e-01,
          3.19920003e-01, 3.00519228e-01, 1.17490245e-02,
          -1.57374501e+00, 6.72370970e-01, -7.82051962e-03,
          3.99581403e-01, -4.69341993e-01, 5.10837018e-01,
          -3.23686600e-02, 2.05017805e-01, -1.70682299e+00,
          1.72005498e+00, 1.12166796e-02, 5.23214221e-01,
          -3.36766005e-01, -2.52698004e-01, -3.05675358e-01,
          2.59782076e-02, -3.98150012e-02, 3.56061012e-01,
          1.13721281e-01, 1.31134063e-01, -3.14013696e+00,
          3.14109707e+00, 5.23609817e-01, 3.06545591e+00 ]
      - [ -1.97788894e+00, 5.93570805e+00, 6.44569993e-02,
          1.14149690e+00, -7.21934974e-01, 3.87366891e+00,
          5.36112413e-02, 6.54783249e-01, -3.65733099e+00,
          1.89073896e+00, 4.62771617e-02, 7.58254707e-01,
          -1.04865301e+00, -7.85844028e-01, -9.33631301e-01,
          6.96452409e-02, -3.14082694e+00, 3.14073491e+00,
          9.38473761e-01, 2.90396762e+00, 2.93868089e+00, 3.07596302e+00,
          3.00384784e+00, 3.01363375e-02, -4.95279980e+00,
          2.97663307e+00, -8.13268200e-02, 1.10477161e+00,
          -9.01732981e-01, 5.17727709e+00, 5.62211983e-02,
          8.33317339e-01, -1.58980799e+00, 1.21641302e+00,
          7.06268996e-02, 4.05003369e-01, -1.07697403e+00,
          -7.68351018e-01, -9.71415341e-01, 7.29609355e-02,
          -3.13030005e+00, 3.12886596e+00, 1.83302391e+00,
          2.28679204e+00, 2.23503494e+00, 2.47896004e+00, 2.32129216e+00,
          6.87363446e-02 ]
      - [ -9.12835002e-01, 2.13385999e-01, -2.78793186e-01,
          3.13250214e-01, -9.72804010e-01, 2.77734011e-01,
          -1.07062817e-01, 2.72007227e-01, -2.77370989e-01,
          7.03514993e-01, 1.15287557e-01, 2.83091515e-01,
          -7.52443016e-01, -6.61683977e-01, -7.27166176e-01,
          1.67196672e-02, -3.13706708e+00, 3.11349702e+00,
          -2.38657308e+00, 1.73908782e+00, 1.54352105e+00,
          1.84725499e+00, 1.72347355e+00, 9.68323126e-02,
          -9.56372976e-01, 3.02051991e-01, -5.64010024e-01,
          2.97217131e-01, -6.13005996e-01, 1.17574894e+00,
          1.98712021e-01, 5.66937745e-01, -7.38999981e-04,
          5.72161019e-01, 3.01936746e-01, 1.70162544e-01,
          -1.06354904e+00, -6.56265020e-01, -8.97125065e-01,
          1.05182379e-01, -3.04243803e+00, 7.61191010e-01,
          -1.45702231e+00, 1.11584330e+00, -1.22946894e+00,
          7.61191010e-01, -2.25804538e-01, 7.10108280e-01 ]
      - [ -4.11486000e-01, 9.97601986e-01, 1.26759499e-01,
          2.00134367e-01, -7.77747989e-01, 6.96240008e-01,
          -1.92146853e-01, 3.49406809e-01, -9.06170011e-01,
          1.87454104e+00, -1.42575800e-01, 5.95997453e-01,
          -5.16673982e-01, -2.36829996e-01, -3.89308453e-01,
          7.01470524e-02, -2.98783112e+00, -2.53913498e+00,
          -2.70494938e+00, 1.13463446e-01, -3.03907394e+00,
          8.91376019e-01, -1.84336901e-01, 1.68643475e+00,
          -7.86646008e-01, 6.05852008e-01, -1.98125802e-02,
          2.05582649e-01, -1.73080301e+00, 2.61202097e+00,
          3.32625806e-02, 5.49359381e-01, -7.93210030e-01,
          3.43327188e+00, 3.95518206e-02, 8.45867932e-01, 4.79369998e-01,
          5.52686989e-01, 5.03723621e-01, 1.99414156e-02,
          -3.40707004e-01, -1.17921002e-01, -2.81594187e-01,
          5.91457225e-02, 1.21689998e-01, 2.60852009e-01, 1.48222834e-01,
          4.16226313e-02 ]
      - [ -1.56125295e+00, 4.33835077e+00, 6.15932010e-02,
          8.32593381e-01, -1.28117204e+00, 5.33867788e+00,
          1.60111208e-02, 9.28209126e-01, -4.46110106e+00,
          1.48261499e+00, 5.86969405e-02, 7.41641700e-01,
          -9.92321014e-01, -7.94723988e-01, -9.21421349e-01,
          4.56321724e-02, -3.14024210e+00, 3.12700605e+00,
          7.56839365e-02, 3.04148102e+00, -3.13953495e+00,
          3.13581300e+00, -4.63242292e-01, 3.03426361e+00,
          -4.36842823e+00, 2.56090498e+00, -6.34130165e-02,
          9.43258882e-01, -1.86774194e+00, 2.92186403e+00,
          3.27958614e-02, 6.26891851e-01, -2.01878905e+00,
          1.06776595e+00, 4.12438810e-02, 4.18250918e-01,
          -1.04278398e+00, -8.65963995e-01, -9.68228579e-01,
          4.21522856e-02, -3.13026595e+00, 3.13936901e+00,
          1.19314635e+00, 2.77515578e+00, 2.23342395e+00, 2.34373808e+00,
          2.28451180e+00, 3.71987969e-02 ]
      - [ -2.92230010e-01, 5.17395973e-01, 1.62529200e-02,
          1.57893553e-01, -8.48381996e-01, 5.77360988e-01,
          -6.27742009e-03, 2.32679129e-01, -4.50488001e-01,
          9.59206998e-01, 4.84613981e-03, 2.34408841e-01,
          -1.68992996e-01, -1.04278997e-01, -1.53549403e-01,
          1.49754556e-02, -1.78099006e-01, -1.05020002e-01,
          -1.33151099e-01, 1.88391190e-02, -2.81527013e-01,
          -2.14407995e-01, -2.40884647e-01, 1.69479828e-02,
          -1.17158103e+00, 6.68911994e-01, -4.95873997e-03,
          2.41260052e-01, -6.46102011e-01, 1.12316799e+00,
          1.35921799e-02, 2.82700121e-01, -2.11124110e+00,
          8.93781006e-01, 1.81845408e-02, 5.32291114e-01,
          -1.11237597e+00, -9.49297011e-01, -1.04759502e+00,
          6.06216379e-02, 3.10718000e-01, 8.22906017e-01, 4.77564245e-01,
          1.90770358e-01, -2.89005899e+00, -2.71657991e+00,
          -2.81868482e+00, 6.15810603e-02 ]
      - [ -1.86042994e-01, 2.20218003e-01, -2.86468002e-03,
          7.69124255e-02, -3.87571990e-01, 3.46594006e-01,
          4.01380006e-04, 1.17127404e-01, -2.54608005e-01,
          4.37296003e-01, 1.23614003e-03, 1.20215788e-01,
          -1.22153997e-01, -7.63719976e-02, -1.14199139e-01,
          1.14068044e-02, -1.88528001e-01, -1.51309997e-01,
          -1.66542798e-01, 1.07965330e-02, -1.02131002e-01,
          -7.70210028e-02, -8.66570175e-02, 7.06585357e-03,
          -5.77374995e-01, 2.99771994e-01, -5.84874023e-03,
          1.35067299e-01, -4.78224993e-01, 1.67910993e-01,
          -1.81492008e-02, 8.76482353e-02, -7.21401989e-01,
          6.28983974e-01, 2.66231392e-02, 2.84965873e-01,
          -7.97479987e-01, -7.08694994e-01, -7.67099261e-01,
          2.51821596e-02, 3.08008999e-01, 7.25100994e-01, 5.01152694e-01,
          1.67899176e-01, 1.04836002e-01, 1.80434003e-01, 1.46671399e-01,
          2.36299634e-02 ]
      - [ -3.97974998e-01, 6.90705001e-01, 4.89300000e-04,
          1.44291252e-01, -1.18796897e+00, 2.91910100e+00,
          9.02608037e-03, 4.77126181e-01, -1.11280002e-01,
          5.56086004e-01, 1.76869407e-02, 1.20602407e-01,
          -5.76650977e-01, -4.70862001e-01, -5.44762492e-01,
          3.21462490e-02, 3.96800004e-02, 1.03823997e-01, 8.58675987e-02,
          1.22563057e-02, -1.53781295e+00, -1.47178698e+00,
          -1.49186254e+00, 1.59664340e-02, -5.41179001e-01,
          1.60172999e-01, -1.11217797e-02, 1.24083817e-01,
          -6.75957978e-01, 8.39902997e-01, -4.42859996e-03,
          1.93645597e-01, -1.26840401e+00, 8.89446974e-01,
          -3.66951004e-02, 3.92425627e-01, -3.27466011e-01,
          -2.61184990e-01, -2.93017447e-01, 1.46665545e-02,
          -4.45200019e-02, 2.71268994e-01, 2.29557194e-02,
          8.94317776e-02, -2.81106400e+00, -2.76827502e+00,
          -2.79470491e+00, 1.16431033e-02 ]
      - [ -5.84168971e-01, 1.04469597e+00, 2.67560594e-02,
          2.95619279e-01, -1.36086202e+00, 6.03987992e-01,
          9.03061964e-03, 3.16976935e-01, -4.25156403e+00,
          7.67094016e-01, 4.81289588e-02, 8.07138741e-01,
          -5.57738006e-01, -4.68928009e-01, -5.14929533e-01,
          3.04918569e-02, -3.14015102e+00, 3.13988590e+00,
          2.44478559e+00, 1.65394664e+00, -2.43858290e+00,
          -2.26877093e+00, -2.34697437e+00, 6.74455687e-02,
          -7.72807002e-01, 7.33995020e-01, -1.15550898e-01,
          2.41406277e-01, -7.09756970e-01, 4.20427513e+00,
          -1.04946204e-01, 9.65399086e-01, -1.66503096e+00,
          5.33824980e-01, 1.04825944e-01, 3.49511147e-01,
          -1.29844606e+00, -7.40836978e-01, -1.00293446e+00,
          1.97212622e-01, 2.75388002e-01, 1.03340006e+00, 6.93161666e-01,
          2.82910436e-01, -3.14061904e+00, 3.07824993e+00,
          -5.11025190e-02, 2.87194204e+00 ]
      - [ -1.79061103e+00, 3.62739301e+00, 1.05744638e-01,
          8.50446641e-01, -3.36575198e+00, 6.53235972e-01,
          -8.33883975e-03, 6.47149563e-01, -2.71810007e+00,
          6.72717988e-01, 1.62422344e-01, 6.85014665e-01,
          -1.04452097e+00, -7.29620993e-01, -9.41118360e-01,
          8.52655843e-02, -1.00192702e+00, -4.10986006e-01,
          -7.67759681e-01, 1.75265983e-01, 8.52289975e-01,
          1.20221698e+00, 1.02115202e+00, 9.65117961e-02,
          -2.66017890e+00, 1.27744102e+00, -1.03825800e-01,
          6.88992620e-01, -1.53731203e+00, 2.91462898e+00,
          -1.22873802e-02, 6.61473453e-01, -4.65165615e+00,
          9.62303996e-01, 1.27584025e-01, 1.08837473e+00,
          -1.18379295e+00, -1.09526801e+00, -1.14130771e+00,
          2.99527217e-02, 9.27461982e-01, 1.26585901e+00, 1.14002311e+00,
          1.06491141e-01, 3.17948014e-01, 9.56826985e-01, 5.92902899e-01,
          2.22133815e-01 ]
      - [ -7.70608008e-01, 2.41218495e+00, 2.14051399e-02,
          5.78782618e-01, -7.73588002e-01, 3.20730400e+00,
          7.22096022e-03, 6.77972496e-01, -1.16942406e+00,
          4.16348010e-01, 9.48664173e-02, 3.89889747e-01,
          -1.39906394e+00, -9.90051985e-01, -1.18551111e+00,
          1.10910669e-01, -2.40896297e+00, -1.33223796e+00,
          -2.18774343e+00, 2.66090930e-01, -2.52294588e+00,
          -1.03529501e+00, -2.10297489e+00, 4.01698142e-01,
          -3.92126203e+00, 1.91388595e+00, 2.46490408e-02,
          9.41236377e-01, -5.30068994e-01, 2.02273989e+00,
          4.73104790e-02, 4.12956148e-01, -1.16477299e+00,
          5.00204027e-01, 1.37365356e-01, 3.82555395e-01,
          -1.46958303e+00, -1.06364202e+00, -1.27078485e+00,
          1.23742387e-01, 9.66399014e-01, 2.37223291e+00, 2.08929563e+00,
          2.90453076e-01, 1.28049999e-02, 1.76466298e+00, 1.33364701e+00,
          4.02878582e-01 ]
      - [ -2.41093993e-01, 6.63863003e-01, 2.74138600e-02,
          1.82092190e-01, -6.26739979e-01, 9.54088986e-01,
          6.46081986e-03, 2.68518627e-01, -1.14817202e+00,
          4.56097007e-01, 4.84421402e-02, 3.93099368e-01,
          -1.02681303e+00, -9.05520022e-01, -9.62094963e-01,
          3.60303298e-02, -1.83077896e+00, -1.47743905e+00,
          -1.64988124e+00, 1.30844742e-01, 2.89124703e+00,
          3.01799703e+00, 2.94996667e+00, 3.02591845e-02,
          -1.43427098e+00, 5.37549019e-01, 8.71000011e-05,
          3.11544955e-01, -2.26163006e+00, 1.81334496e+00,
          6.68419991e-03, 5.28931916e-01, -7.33591020e-01,
          6.65368974e-01, 3.54204997e-02, 1.90076262e-01,
          -1.22499096e+00, -1.09242499e+00, -1.14691961e+00,
          3.44002135e-02, 5.14289975e-01, 1.17261004e+00, 8.09059978e-01,
          1.92783833e-01, 1.36509097e+00, 1.91856396e+00, 1.62692380e+00,
          1.55089036e-01 ]
      - [ -2.65511006e-01, 1.00610495e+00, 4.70569991e-02,
          2.18978107e-01, -8.57722998e-01, 6.50744021e-01,
          -5.88145992e-03, 2.78107315e-01, -2.33809304e+00,
          6.21243000e-01, 3.62072811e-02, 5.92056215e-01,
          -1.09030497e+00, -9.31484997e-01, -9.93360698e-01,
          5.09291291e-02, -2.09626293e+00, -1.57107103e+00,
          -1.79729605e+00, 1.77990004e-01, 2.63630390e+00,
          2.83134699e+00, 2.74151683e+00, 5.59186302e-02,
          -1.60677302e+00, 5.46054006e-01, 6.87021995e-03,
          3.52271825e-01, -8.68278980e-01, 1.93558896e+00,
          1.12764002e-03, 5.15709579e-01, -8.87867987e-01,
          6.65551007e-01, 4.22546417e-02, 2.67406970e-01,
          -1.13801205e+00, -1.04189599e+00, -1.07333875e+00,
          1.93568654e-02, 4.78917986e-01, 8.64486992e-01, 6.38622522e-01,
          1.28908649e-01, 1.25779796e+00, 1.46923006e+00, 1.35382056e+00,
          7.02966526e-02 ]
      - [ -1.48400003e-02, 4.70269993e-02, 1.21073397e-02,
          1.46153579e-02, -7.04919994e-02, 5.01440018e-02,
          -1.52425598e-02, 2.52459291e-02, -3.05259991e-02,
          4.58320007e-02, 9.23147984e-03, 1.68601219e-02,
          -1.22272998e-01, -1.01200002e-03, -4.09759209e-02,
          3.40275280e-02, -1.46862999e-01, 4.09229994e-02,
          -1.32296443e-01, 2.69585252e-02, 4.09229994e-02,
          9.91059989e-02, 6.73513785e-02, 1.83428824e-02, 2.23319996e-02,
          7.52400011e-02, 4.26450595e-02, 1.67580899e-02,
          -2.06339993e-02, 5.91830015e-02, 1.79298799e-02,
          2.11771578e-02, -9.01890025e-02, 1.98769998e-02,
          -2.08376199e-02, 2.40309834e-02, 3.58244985e-01,
          4.35597003e-01, 3.81815791e-01, 2.30146702e-02,
          -2.63087988e-01, 4.62675989e-01, 4.41525578e-01,
          1.00810520e-01, -2.63087988e-01, -2.46728003e-01,
          -2.53724873e-01, 4.48792009e-03 ]
      - [ -1.62745997e-01, 1.04482806e+00, 2.79325038e-01,
          3.57245415e-01, -6.46573007e-01, 1.04058802e+00,
          2.02930734e-01, 5.44019699e-01, 2.04409994e-02, 7.63055027e-01,
          4.18318272e-01, 2.12123409e-01, -1.29140103e+00,
          1.56921998e-01, -2.54105985e-01, 4.46162909e-01,
          8.45302999e-01, 2.30230808e+00, 1.35980654e+00, 3.19980472e-01,
          -2.45139909e+00, -4.92276013e-01, -1.52480817e+00,
          7.16407359e-01, -6.94006026e-01, 1.32339997e-02,
          -2.79871523e-01, 1.98567629e-01, -5.45771003e-01,
          9.25024986e-01, 2.47541934e-01, 4.35970038e-01,
          -4.95793015e-01, 3.50672990e-01, 3.90632600e-02,
          2.04624027e-01, -1.66921005e-01, 2.04871997e-01,
          4.27896790e-02, 1.34968564e-01, -1.74253595e+00,
          -8.82753015e-01, -1.47195864e+00, 2.42414832e-01,
          -2.12456894e+00, -9.57323015e-01, -1.64684725e+00,
          4.39599782e-01 ]
      - [ -4.30858999e-01, 9.85603988e-01, 4.87822015e-03,
          2.61001498e-01, -1.20896804e+00, 6.04655027e-01,
          -5.93320001e-04, 2.85912603e-01, -1.80683696e+00,
          5.76564014e-01, 2.03583408e-02, 3.58964652e-01,
          -7.06203997e-01, -5.74061990e-01, -6.21147752e-01,
          2.48429906e-02, -2.38193893e+00, -2.20751095e+00,
          -2.27766252e+00, 4.43081148e-02, -2.35614491e+00,
          -2.16727209e+00, -2.26891589e+00, 3.50019000e-02,
          -1.22004902e+00, 7.60599971e-01, -4.49348204e-02,
          2.80183256e-01, -5.19618988e-01, 2.05944204e+00,
          1.79027803e-02, 4.35644567e-01, -1.81594503e+00,
          6.68148994e-01, -2.54605003e-02, 4.62070763e-01,
          -5.56545973e-01, -2.16992006e-01, -4.13023740e-01,
          9.33763832e-02, 6.29963994e-01, 9.84171987e-01, 8.24712515e-01,
          8.96622390e-02, 1.40696004e-01, 2.81886995e-01, 2.51737028e-01,
          3.49101759e-02 ]
      - [ -2.54199100e+00, 4.50207996e+00, -7.91783452e-01,
          1.13562918e+00, -7.65300798e+00, 6.10506392e+00,
          8.02125454e-01, 2.44047260e+00, -3.37779093e+00,
          5.70125103e+00, -1.24253340e-01, 1.71371245e+00,
          -1.28581002e-01, 4.79124010e-01, 1.92457944e-01,
          1.66838616e-01, -8.11821997e-01, 1.93643403e+00,
          3.92892808e-01, 8.45648646e-01, 1.58431900e+00, 2.53336096e+00,
          2.05500650e+00, 3.09236199e-01, -5.74653816e+00,
          2.46356392e+00, -3.97025436e-01, 1.15422785e+00,
          -1.16353903e+01, 6.40137196e+00, 2.71324664e-01,
          2.81543636e+00, -2.74480891e+00, 6.90806484e+00,
          -5.38196564e-01, 1.53799021e+00, -1.35629702e+00,
          7.48700976e-01, -4.30134147e-01, 6.50059938e-01,
          -1.36020398e+00, 2.71895504e+00, 2.89635193e-02,
          5.46290994e-01, 1.07661605e+00, 3.00705099e+00, 2.68086600e+00,
          4.46703643e-01 ]
      - [ -5.91032982e-01, 1.21346402e+00, 2.07176991e-02,
          2.63616621e-01, -1.94447398e+00, 9.77488995e-01,
          -1.40035199e-02, 4.55066592e-01, -3.67526293e+00,
          1.48831403e+00, 2.38661394e-02, 8.20727885e-01,
          -8.00184011e-01, -6.34396017e-01, -6.97954297e-01,
          3.51797603e-02, -2.91251302e+00, -2.72996211e+00,
          -2.82617521e+00, 5.89962490e-02, -1.88572705e+00,
          -1.77943897e+00, -1.84958780e+00, 2.61343401e-02,
          -3.31256002e-01, 3.00684988e-01, -4.95736413e-02,
          1.38274923e-01, -1.33694994e+00, 3.70195389e+00,
          -6.63072169e-02, 9.96902108e-01, -1.55148101e+00,
          4.87821013e-01, 6.79863989e-03, 3.56768638e-01,
          -9.31290984e-01, -6.51777029e-01, -7.93506145e-01,
          8.46202821e-02, 7.52461016e-01, 1.17475295e+00, 9.39558566e-01,
          1.68540865e-01, 6.55368984e-01, 1.06193805e+00, 8.79455924e-01,
          1.46570638e-01 ]
      - [ -1.60429001e-01, 1.50205001e-01, -3.21458001e-03,
          6.40451685e-02, -8.80931973e-01, 3.52789015e-01,
          3.79111990e-03, 2.21842766e-01, -1.37318000e-01,
          4.74725008e-01, 1.36193596e-02, 1.04976855e-01,
          -4.46788996e-01, 2.41100006e-02, -2.39223957e-01,
          1.67520314e-01, 1.09968998e-01, 2.19658002e-01, 1.65612444e-01,
          3.17390971e-02, 7.56929964e-02, 1.08516000e-01, 9.38453823e-02,
          9.64964740e-03, -2.39608002e+00, 5.50493002e-01,
          1.08453399e-02, 4.64845657e-01, -6.76132023e-01,
          4.44947988e-01, -1.69274602e-02, 1.70624524e-01,
          -1.74338698e+00, 1.24654496e+00, 3.09615005e-02,
          4.92434263e-01, -3.87066007e-01, -3.48338991e-01,
          -3.65720540e-01, 9.18828230e-03, -1.07483000e-01,
          3.48253995e-01, 9.32685584e-02, 1.73492610e-01, 1.05867997e-01,
          2.19515994e-01, 1.59258902e-01, 3.94763686e-02 ]
      - [ -2.00411892e+00, 3.64686894e+00, -4.36615990e-03,
          8.17043185e-01, -8.57936978e-01, 4.11076498e+00,
          -2.78676003e-02, 8.01064372e-01, -5.40920782e+00,
          1.03785598e+00, 8.70275572e-02, 8.18308532e-01,
          -1.01778805e+00, -8.34569991e-01, -9.70493972e-01,
          4.23616208e-02, -2.80698705e+00, -2.65144706e+00,
          -2.76471639e+00, 4.03080620e-02, -3.12657690e+00,
          3.13487601e+00, 1.09705463e-01, 3.04746389e+00,
          -5.09718180e+00, 1.82782602e+00, 3.62994000e-02,
          1.01068783e+00, -9.95989025e-01, 3.54200292e+00,
          -6.70771999e-03, 6.06107950e-01, -3.50533390e+00,
          9.63714004e-01, 8.92086402e-02, 6.07227445e-01,
          -1.19884801e+00, -1.03196502e+00, -1.13604522e+00,
          4.84840907e-02, 2.20705700e+00, 2.47260594e+00, 2.36999702e+00,
          7.44172260e-02, 8.62622976e-01, 1.08537400e+00, 9.63502407e-01,
          6.24233820e-02 ]
      - [ -4.40663010e-01, 1.74784994e+00, 1.26074003e-02,
          4.36371475e-01, -9.83228981e-01, 4.27195996e-01,
          -1.79696009e-02, 2.11873874e-01, -4.34478283e+00,
          1.32545400e+00, 8.66688043e-03, 8.47086489e-01,
          -7.05766022e-01, -5.90983987e-01, -6.33599937e-01,
          2.53400207e-02, -2.56913495e+00, -2.40034294e+00,
          -2.49622607e+00, 4.05210853e-02, -2.39263701e+00,
          -2.27664495e+00, -2.30828357e+00, 3.04747783e-02,
          -1.40090597e+00, 7.45773971e-01, -6.76024780e-02,
          2.91469634e-01, -1.16375303e+00, 1.73086703e+00,
          1.44720804e-02, 4.59049612e-01, -3.24764991e+00,
          7.49861002e-01, -3.84928584e-02, 8.87873113e-01,
          -4.06830013e-01, -4.58940007e-02, -2.63681382e-01,
          1.04163408e-01, 3.78403991e-01, 9.89341974e-01, 6.32101893e-01,
          2.36421883e-01, -2.93983996e-01, -2.04246998e-01,
          -2.49017134e-01, 2.61276774e-02 ]
      - [ -7.38319993e-01, 8.90136003e-01, 4.48648185e-02,
          3.00339490e-01, -1.53825796e+00, 5.39491415e+00,
          -5.65260611e-02, 1.23412144e+00, -1.40923297e+00,
          5.92396021e-01, 3.37428190e-02, 4.24912900e-01,
          -1.31779802e+00, -9.54989016e-01, -1.13162184e+00,
          1.07904203e-01, -7.84301996e-01, -4.07989994e-02,
          -4.36992645e-01, 2.55418628e-01, -2.25299191e+00,
          -1.63058901e+00, -1.99050999e+00, 1.99447215e-01,
          -9.17532980e-01, 5.58064997e-01, -2.62771007e-02,
          2.78464735e-01, -8.98968887e+00, 8.74370992e-01,
          6.65661991e-02, 1.38343751e+00, -3.53677005e-01,
          1.37109399e+00, -1.62373595e-02, 2.75470793e-01,
          -1.40433300e+00, -1.15812302e+00, -1.26289642e+00,
          6.88705817e-02, -1.49453998e+00, -3.00536990e-01,
          -7.83805728e-01, 4.51064140e-01, -1.86747301e+00,
          -6.28723025e-01, -1.10456944e+00, 4.68577236e-01 ]
      - [ -1.91706002e-01, 1.92238003e-01, 5.41677978e-03,
          8.13468322e-02, -2.63536990e-01, 2.94903010e-01,
          -1.03762001e-03, 1.17130563e-01, -2.76028991e-01,
          3.76758009e-01, 1.00935800e-02, 1.17002167e-01,
          -6.85778022e-01, -6.41763985e-01, -6.64457977e-01,
          8.84527899e-03, -2.19866204e+00, -2.13399696e+00,
          -2.15661383e+00, 1.38519667e-02, -2.05207801e+00,
          -1.97452605e+00, -2.00860000e+00, 1.74351744e-02,
          -4.52288002e-01, 2.82622010e-01, -5.65623417e-02,
          1.82568476e-01, -1.11822200e+00, 1.16919601e+00,
          3.64154205e-02, 4.59368467e-01, -5.29255986e-01,
          4.69989002e-01, -6.96579984e-04, 2.58797884e-01,
          -6.72246993e-01, -4.76491988e-01, -5.74085116e-01,
          7.79866353e-02, 6.68462992e-01, 8.10186982e-01, 7.20753670e-01,
          3.62739339e-02, -5.84481001e-01, -4.38099988e-02,
          -2.95742482e-01, 2.29633436e-01 ]
      - [ -1.02052498e+00, 2.07184505e+00, 7.61999190e-02,
          5.39272606e-01, -8.60213995e-01, 7.58210003e-01,
          8.37294012e-03, 2.89537549e-01, -3.69739294e+00,
          5.95184982e-01, -1.56273395e-02, 7.08237052e-01,
          -9.83870983e-01, -9.28819001e-01, -9.53002989e-01,
          1.39878318e-02, -6.90827012e-01, -5.13237000e-01,
          -6.13426089e-01, 3.93497720e-02, 8.69771004e-01,
          1.20745099e+00, 9.49143469e-01, 9.84621570e-02,
          -2.05845690e+00, 1.18292105e+00, -1.02283381e-01,
          5.62029958e-01, -2.62509203e+00, 1.14639604e+00,
          -1.64766004e-03, 5.77268302e-01, -4.62296677e+00,
          5.39502025e-01, 1.68678002e-03, 8.33343387e-01,
          -1.04742801e+00, -8.83089006e-01, -9.37402010e-01,
          5.84596097e-02, 5.60746014e-01, 1.00748503e+00, 7.22894311e-01,
          1.10389322e-01, 1.97512999e-01, 3.59355986e-01, 2.89021432e-01,
          3.49741206e-02 ]
      - [ -1.68952003e-01, 2.66669989e-01, -4.64515993e-03,
          7.21951276e-02, -1.57629997e-01, 3.93137008e-01,
          -7.03863986e-03, 8.77638310e-02, -3.22672009e-01,
          5.76089978e-01, 3.91977979e-03, 1.41672596e-01,
          -8.39082003e-01, -8.20167005e-01, -8.31668735e-01,
          4.48632939e-03, -2.55141306e+00, -2.49205589e+00,
          -2.52739739e+00, 2.19426062e-02, -2.53535509e+00,
          -2.47955203e+00, -2.51418638e+00, 2.33154688e-02,
          -4.31926996e-01, 2.24775001e-01, -6.19054809e-02,
          1.55625403e-01, -1.34852695e+00, 1.05703998e+00,
          3.16887982e-02, 4.85937417e-01, -9.14443016e-01,
          4.63111013e-01, -1.00652399e-02, 2.92560995e-01,
          -6.92197978e-01, -5.47334015e-01, -6.13836408e-01,
          5.79692833e-02, 5.89906991e-01, 6.88172996e-01, 6.27626419e-01,
          2.07508821e-02, -7.39035010e-01, -2.11317003e-01,
          -4.28494871e-01, 2.22491950e-01 ]
      - [ -1.57139003e-01, 1.98409006e-01, 8.18205997e-03,
          6.57407716e-02, -5.80471992e-01, 4.16330010e-01,
          -3.09843989e-03, 1.57274172e-01, -2.49550000e-01,
          5.75024009e-01, 8.75653978e-03, 1.59051046e-01,
          -1.92536995e-01, -1.43775001e-01, -1.81903124e-01,
          1.13529628e-02, -2.52790004e-02, 3.09420004e-02,
          1.12026203e-02, 1.49544887e-02, -5.80950007e-02,
          -3.12259998e-02, -4.79945205e-02, 6.85762614e-03,
          -5.84446013e-01, 4.56335992e-01, 2.77299993e-03,
          1.64629489e-01, -8.54507029e-01, 8.03431988e-01,
          1.45765804e-02, 2.19784483e-01, -9.11081016e-01,
          1.03041899e+00, -1.81673598e-02, 2.98714161e-01,
          -9.26738977e-01, -7.65799999e-01, -8.62680852e-01,
          5.34041189e-02, 8.41939971e-02, 4.63281989e-01, 1.78305164e-01,
          1.23412527e-01, -9.90749970e-02, 2.80680005e-02,
          -5.19490987e-02, 4.25496288e-02 ]
      - [ -6.12969995e-01, 3.86337590e+00, 4.61258218e-02,
          6.35069132e-01, -4.62810010e-01, 1.27018595e+00,
          -8.17068014e-03, 2.67956406e-01, -4.49592400e+00,
          1.06660402e+00, -6.91004004e-03, 9.56487477e-01,
          -6.30200982e-01, -4.13249999e-01, -4.76283431e-01,
          8.02693143e-02, -1.33115399e+00, -1.04885197e+00,
          -1.24434638e+00, 9.44272950e-02, -5.55823982e-01,
          -3.24104995e-01, -3.95734042e-01, 8.40659365e-02,
          -3.77371812e+00, 6.31514013e-01, -6.90924972e-02,
          6.80253148e-01, -1.94193804e+00, 1.91168904e+00,
          1.31837400e-02, 5.63967526e-01, -6.20607996e+00,
          1.38740695e+00, 1.32860597e-02, 1.20990181e+00,
          -5.98739982e-01, -4.19537008e-01, -4.62870568e-01,
          5.78251779e-02, 8.87952983e-01, 1.23514199e+00, 1.13700223e+00,
          1.10170238e-01, 2.05217004e-01, 5.21398008e-01, 3.00357610e-01,
          1.02044128e-01 ]
      - [ -7.13425994e-01, 7.48965979e-01, 6.88959435e-02,
          2.29428604e-01, -1.45237195e+00, 1.41690397e+00,
          1.04307598e-02, 3.40598553e-01, -9.19704020e-01,
          2.49948192e+00, -1.52441198e-02, 6.37876213e-01,
          4.67492998e-01, 5.31759024e-01, 4.91771221e-01, 1.89730562e-02,
          -8.35400000e-02, 5.76720014e-02, 1.17846197e-02,
          4.03731875e-02, -2.58744001e-01, -2.11104006e-01,
          -2.31293514e-01, 9.66942497e-03, -1.37453604e+00,
          8.16127002e-01, -7.47078434e-02, 3.29182923e-01,
          -6.74142003e-01, 1.81751096e+00, -7.01605603e-02,
          4.89519000e-01, -6.70594990e-01, 3.32962608e+00,
          -1.78174805e-02, 7.73711145e-01, -5.33334017e-01,
          -3.82434994e-01, -4.63700354e-01, 3.68633866e-02,
          2.17353010e+00, 2.80727792e+00, 2.49149275e+00, 2.41297260e-01,
          -3.13930392e+00, 3.12261891e+00, 1.06704339e-01,
          3.04134178e+00 ]
      - [ -5.81197023e-01, 1.47654200e+00, 7.47507997e-03,
          3.06845337e-01, -2.47023797e+00, 1.06031001e+00,
          2.49755997e-02, 4.59707677e-01, -6.37435389e+00,
          1.58878899e+00, 5.79868183e-02, 1.11060715e+00,
          -5.25132000e-01, -4.42782998e-01, -4.91629779e-01,
          2.66871415e-02, 2.80695295e+00, 3.06367397e+00, 2.91543818e+00,
          9.69461575e-02, -2.36645389e+00, -2.30246305e+00,
          -2.34248209e+00, 1.79501418e-02, -6.70131981e-01,
          3.84593010e-01, -5.94448783e-02, 1.78022340e-01,
          -8.18742990e-01, 3.16993308e+00, -2.44271401e-02,
          8.35220754e-01, -1.80034399e+00, 3.08277011e-01,
          6.00347593e-02, 3.63241881e-01, -1.35046804e+00,
          -9.48201001e-01, -1.10681534e+00, 1.35061607e-01,
          -2.66720001e-02, 7.74236977e-01, 4.25328165e-01,
          3.30751896e-01, -3.14036107e+00, 3.13090491e+00,
          3.47524792e-01, 2.82966304e+00 ]
      - [ -4.86703008e-01, 1.55619395e+00, 1.65404398e-02,
          3.34729135e-01, -1.61449897e+00, 4.46539998e-01,
          -8.77842028e-03, 2.67554283e-01, -3.54021502e+00,
          9.08549011e-01, 1.47129400e-02, 6.16962075e-01,
          -6.83542013e-01, -5.91033995e-01, -6.24097586e-01,
          1.78761035e-02, -2.67076111e+00, -2.49167204e+00,
          -2.58694291e+00, 5.20307422e-02, -2.40052295e+00,
          -2.29261708e+00, -2.33588195e+00, 3.09017561e-02,
          -1.51202595e+00, 4.11707014e-01, -5.01081385e-02,
          2.52591133e-01, -9.07454014e-01, 1.21866906e+00,
          2.70441603e-02, 2.81713188e-01, -3.26925611e+00,
          6.43366992e-01, -9.29340422e-02, 8.13929498e-01,
          -4.84448999e-01, -2.76039988e-01, -4.13969815e-01,
          5.40227480e-02, 2.44146004e-01, 6.99755013e-01, 3.93778771e-01,
          1.21756628e-01, -3.41773987e-01, -2.53347993e-01,
          -3.08155507e-01, 2.51905322e-02 ]
      - [ -1.61436498e+00, 2.47703600e+00, 3.82854491e-01,
          8.09217155e-01, -4.32826996e+00, 6.01475477e+00,
          1.25503996e-02, 1.95281422e+00, -9.81854022e-01,
          2.56145692e+00, 2.37906918e-01, 5.71731567e-01,
          -1.36607301e+00, -4.72649992e-01, -8.61807466e-01,
          2.71748364e-01, -7.93180019e-02, 2.15768099e+00,
          1.14638150e+00, 7.33870268e-01, -1.30684304e+00,
          3.52551013e-01, -2.63112009e-01, 5.21790445e-01,
          -3.48896694e+00, 6.24814987e-01, -9.17330742e-01,
          7.64356256e-01, -1.45039499e+00, 4.75717306e+00,
          3.23610991e-01, 1.69809020e+00, -1.39813900e+00,
          6.69749022e-01, 1.15655601e-01, 5.36507010e-01,
          -1.17935598e+00, -7.39839971e-01, -1.02184665e+00,
          1.42793179e-01, -1.05475903e+00, 2.18700290e+00,
          1.41650796e+00, 6.15983903e-01, -1.07827997e+00,
          1.41706005e-01, -5.05062342e-01, 4.33549285e-01 ]
      - [ -5.55334985e-01, 3.80968988e-01, 4.08580014e-03,
          1.41496465e-01, -1.44969702e+00, 3.42959905e+00,
          1.19167224e-01, 8.91847730e-01, -8.85758996e-01,
          1.35810900e+00, 2.51075715e-01, 4.83046740e-01,
          -1.26616395e+00, -3.23590010e-01, -8.23888481e-01,
          2.24952012e-01, -2.87294507e+00, -4.67532992e-01,
          -1.36583221e+00, 1.03274703e+00, -1.82302999e+00,
          8.47696006e-01, -1.42673984e-01, 1.12729430e+00,
          -4.64367986e-01, 1.42690003e-01, -1.78744998e-02,
          1.11043081e-01, -7.95843005e-01, 2.95099711e+00,
          9.34972391e-02, 7.15427637e-01, -3.99618000e-01,
          1.04637206e+00, 1.74987003e-01, 2.98669785e-01,
          -1.32000399e+00, -4.77293015e-01, -9.07910228e-01,
          1.97046161e-01, 3.93406004e-01, 2.85025501e+00, 1.21830511e+00,
          1.03163421e+00, -7.41948009e-01, 1.94121301e+00,
          1.41229004e-01, 1.10265064e+00 ]
      - [ -4.55202997e-01, 1.23397601e+00, 4.53696996e-02,
          3.15618455e-01, -1.65849805e+00, 6.56629026e-01,
          -1.82646792e-02, 4.27148074e-01, -3.50667310e+00,
          9.48782027e-01, 3.92133407e-02, 8.48587453e-01,
          -9.65609014e-01, -8.64262998e-01, -9.18709338e-01,
          3.28062735e-02, -2.45599103e+00, -1.85145903e+00,
          -2.18215084e+00, 1.97323620e-01, -1.65243196e+00,
          -1.33946002e+00, -1.56292021e+00, 8.26688558e-02,
          -3.69989991e-01, 5.27297020e-01, -3.06784809e-02,
          1.67006567e-01, -7.66391993e-01, 2.20935392e+00,
          -8.08186010e-02, 6.66190565e-01, -1.54497802e+00,
          7.86906004e-01, 3.63646410e-02, 3.83345783e-01,
          -3.96477014e-01, -1.40195996e-01, -2.69771427e-01,
          8.89731199e-02, 8.60626996e-01, 1.06066597e+00, 9.53830183e-01,
          7.02714100e-02, -3.13925099e+00, 3.13346791e+00,
          8.50911796e-01, 2.95052528e+00 ]
      - [ -6.93701982e-01, -4.73278999e-01, -5.85201502e-01,
          6.32048398e-02, -2.89299991e-03, 3.22432011e-01,
          8.04938376e-02, 7.40669295e-02, -5.57168007e-01,
          -1.81153998e-01, -3.03200454e-01, 1.15071535e-01,
          -1.05237103e+00, -8.32391977e-01, -9.44480479e-01,
          7.55154714e-02, -4.26809996e-01, 1.43407702e+00,
          -1.90753222e-01, 2.55401164e-01, 1.00342906e+00,
          1.44255602e+00, 1.26552653e+00, 1.52550697e-01,
          -7.27813005e-01, -4.53689992e-01, -5.59043586e-01,
          6.83040619e-02, 2.39693999e-01, 6.05937004e-01, 4.53255385e-01,
          7.92408884e-02, -1.25882804e+00, -8.19348991e-01,
          -1.01043224e+00, 1.02409527e-01, -6.77241027e-01,
          -3.93438995e-01, -4.90965754e-01, 9.30710733e-02,
          2.76749991e-02, 2.56332397e+00, 1.73257098e-01, 3.45397323e-01,
          2.16839504e+00, 2.56332397e+00, 2.33711457e+00, 1.17406137e-01 ]
      - [ -1.45003200e+00, 2.36333799e+00, 3.25455591e-02,
          5.20749211e-01, -8.55325997e-01, 1.90327096e+00,
          8.06344021e-03, 4.52259034e-01, -2.25396299e+00,
          1.21989501e+00, 5.08754002e-03, 4.99564260e-01,
          -8.68969977e-01, -7.21199989e-01, -7.80641019e-01,
          4.89211045e-02, -1.77043998e+00, -1.64175105e+00,
          -1.72147453e+00, 2.61449423e-02, -2.25434303e+00,
          -2.02082109e+00, -2.08767462e+00, 5.85077368e-02,
          -1.81342399e+00, 5.00527978e-01, -3.38345207e-02,
          3.50219041e-01, -8.82725000e-01, 3.21505404e+00,
          1.30931996e-02, 6.14738047e-01, -1.70201600e+00,
          3.11747998e-01, -6.05696021e-03, 3.01171660e-01,
          -8.71589005e-01, -7.69322991e-01, -8.06375563e-01,
          3.43019143e-02, 1.76353300e+00, 1.88178599e+00, 1.81384063e+00,
          1.69102717e-02, 1.40286303e+00, 1.65760803e+00, 1.46972585e+00,
          6.19614646e-02 ]
      - [ -2.33540997e-01, 3.04547995e-01, -1.39535200e-02,
          1.05456747e-01, -5.46499014e-01, 4.01400000e-01,
          8.55237991e-03, 1.54313371e-01, -3.25672001e-01,
          6.67451024e-01, -2.38497998e-03, 2.16816902e-01,
          -9.10649970e-02, -7.16200005e-03, -6.55526817e-02,
          1.71874501e-02, -2.39066005e-01, -1.75116003e-01,
          -1.92613944e-01, 1.85196213e-02, -8.63910019e-02,
          -6.83170035e-02, -7.56581426e-02, 4.39188257e-03,
          -8.64359975e-01, 4.19678003e-01, -1.71914604e-02,
          1.80437565e-01, -7.72372007e-01, 7.69518018e-01,
          -2.18885392e-02, 2.19841614e-01, -1.47797894e+00,
          9.49081004e-01, 5.46488613e-02, 4.44990993e-01,
          -7.64867008e-01, -6.49061978e-01, -6.86971009e-01,
          3.77997980e-02, 2.14184001e-01, 5.59341013e-01, 3.89249116e-01,
          1.34468257e-01, 1.05025001e-01, 2.76872009e-01, 1.95895955e-01,
          6.79955930e-02 ]
      - [ -3.17892998e-01, 1.80707002e+00, 4.74071205e-02,
          3.83744538e-01, -3.82851911e+00, 9.78760004e-01,
          4.46022414e-02, 8.37267756e-01, -1.06024504e+00,
          1.05633199e+00, 2.77915802e-02, 3.53486806e-01,
          -9.16527987e-01, -5.32462001e-01, -7.67861903e-01,
          1.24882370e-01, -6.99272990e-01, -5.02910018e-01,
          -5.86057723e-01, 5.69387935e-02, 2.24521589e+00,
          2.67375803e+00, 2.48991537e+00, 1.72026828e-01,
          -8.83041024e-01, 4.98138994e-01, -7.11187571e-02,
          1.70183614e-01, -1.44615901e+00, 5.76277304e+00,
          -5.40952384e-02, 1.14162374e+00, -2.58154202e+00,
          4.20888007e-01, 7.82029182e-02, 4.47855592e-01,
          -7.88471997e-01, -5.85062027e-01, -6.88481390e-01,
          6.41911998e-02, 1.03366995e+00, 1.24914896e+00, 1.13596129e+00,
          4.91186939e-02, 2.60685802e+00, 2.90637803e+00, 2.82038450e+00,
          8.18517730e-02 ]
      - [ -1.86092004e-01, 8.19293976e-01, 5.39320000e-02,
          1.65745378e-01, -7.72656977e-01, 1.29564500e+00,
          -1.75712407e-02, 3.42685372e-01, -1.91754496e+00,
          4.59650993e-01, 2.13406002e-03, 4.54003215e-01,
          -6.88955009e-01, -5.83764017e-01, -6.54929578e-01,
          3.01385149e-02, -1.91587698e+00, -1.38883698e+00,
          -1.58693492e+00, 1.43834218e-01, 2.69912410e+00,
          3.03961611e+00, 2.84629560e+00, 8.51804167e-02,
          -1.06814098e+00, 1.67365000e-01, -1.29378997e-02,
          2.36921236e-01, -2.24864006e+00, 2.28351307e+00,
          2.08836608e-02, 5.98314464e-01, -7.97913015e-01,
          2.69336998e-01, 7.79645983e-03, 2.26618603e-01,
          -9.52455997e-01, -8.31269026e-01, -9.09364939e-01,
          3.19973640e-02, 1.07439399e+00, 1.50695097e+00, 1.29647827e+00,
          1.04515299e-01, 1.73112702e+00, 2.17296696e+00, 1.94497907e+00,
          1.08610049e-01 ]
      - [ -2.64176995e-01, 7.97487974e-01, 3.81059200e-02,
          2.05834806e-01, -2.84746909e+00, 5.35486221e+00,
          3.20068002e-02, 1.14774776e+00, -3.91488600e+00,
          9.31297004e-01, 3.72199789e-02, 7.59108484e-01,
          -1.31098902e+00, -9.12513018e-01, -1.18877661e+00,
          1.36086449e-01, -2.26973009e+00, -1.20753002e+00,
          -1.55735373e+00, 2.40071461e-01, 1.96639395e+00,
          3.03116488e+00, 2.71378899e+00, 2.39726022e-01,
          -3.15722895e+00, 5.95156014e-01, -3.34144607e-02,
          5.16001344e-01, -7.06989908e+00, 9.22744989e-01,
          7.78192002e-03, 1.15874195e+00, -1.17231596e+00,
          6.27417982e-01, 5.35241589e-02, 2.43961737e-01,
          -8.23213995e-01, -6.52970016e-01, -7.37383664e-01,
          5.64621612e-02, -2.49092996e-01, 9.79119986e-02,
          -8.74400046e-03, 1.06727317e-01, -2.48469400e+00,
          -2.05879807e+00, -2.22809172e+00, 1.24023512e-01 ]
      - [ 1.52202994e-01, 8.13108981e-01, 4.78754222e-01, 1.85980037e-01,
          -5.45684993e-01, 3.86426002e-01, -2.21379921e-01,
          2.42004409e-01, -5.52627027e-01, 3.29645991e-01,
          9.19073224e-02, 2.56858498e-01, -1.34094298e+00,
          -4.86797005e-01, -1.09615278e+00, 2.25738153e-01,
          -3.10910201e+00, 3.12809491e+00, -1.18553495e+00,
          1.57699001e+00, -1.43991303e+00, 1.85595906e+00,
          1.73344299e-01, 1.18459165e+00, -2.21282005e-01,
          5.01053989e-01, 1.32074073e-01, 1.66500345e-01,
          -9.64209974e-01, 3.76803994e-01, -7.59645402e-02,
          2.77216583e-01, -1.72872007e-01, 4.08751994e-01,
          1.26439497e-01, 1.38576686e-01, -1.48313606e+00,
          -8.70023012e-01, -1.11856508e+00, 1.95369646e-01,
          -1.06616700e+00, 1.59650397e+00, 1.01824439e+00,
          9.32360172e-01, -2.53162289e+00, -1.33065999e-01,
          -6.03007257e-01, 8.34619641e-01 ]
      - [ -5.92661977e-01, 2.42581797e+00, 2.33884994e-02,
          5.17029166e-01, -1.73785698e+00, 4.79180008e-01,
          -1.20442603e-02, 2.84693807e-01, -4.08236694e+00,
          1.37529099e+00, 1.00999998e-04, 8.40071082e-01,
          -7.39305973e-01, -6.28588021e-01, -6.60800099e-01,
          2.94018723e-02, -2.52166891e+00, -2.34749603e+00,
          -2.47088218e+00, 4.42992039e-02, -2.31468701e+00,
          -2.21457291e+00, -2.26109171e+00, 1.96262393e-02,
          -1.61086094e+00, 6.00636005e-01, -6.36841431e-02,
          3.30566138e-01, -1.53492999e+00, 2.28397012e+00,
          1.69469994e-02, 4.71645236e-01, -4.25220203e+00,
          8.97090971e-01, -4.18124385e-02, 9.85250235e-01,
          -4.51911986e-01, -2.01862007e-01, -3.46703261e-01,
          7.13102221e-02, 3.78710002e-01, 8.62940013e-01, 5.72700918e-01,
          1.70043796e-01, -2.63714999e-01, -2.02573001e-01,
          -2.35196456e-01, 1.65539216e-02 ]
      - [ -2.65278012e-01, 1.15064204e+00, 5.79366609e-02,
          3.55177104e-01, -1.99952698e+00, 1.66154301e+00,
          -2.20253207e-02, 5.54652631e-01, -3.58449006e+00,
          7.13114977e-01, 5.21992818e-02, 7.03398824e-01,
          -8.08834016e-01, -4.65407997e-01, -5.67568123e-01,
          7.69268125e-02, -3.14128304e+00, 3.13872004e+00,
          1.90194994e-02, 3.08942413e+00, -2.93291092e+00,
          -2.75033689e+00, -2.85919762e+00, 5.77098541e-02,
          -7.28226423e+00, 8.08978975e-01, -2.21009359e-01,
          1.25289667e+00, -1.04613400e+00, 2.82728004e+00,
          -4.00680001e-04, 5.41977882e-01, -6.01194191e+00,
          5.24525499e+00, 3.27610850e-01, 1.65216768e+00,
          -3.72195989e-01, -2.26896003e-01, -3.17620873e-01,
          4.53713462e-02, -4.83336985e-01, 6.09915972e-01,
          7.22798007e-03, 4.27133203e-01, 1.61320806e+00, 1.79672801e+00,
          1.67725945e+00, 4.60610241e-02 ]
      - [ -6.78744018e-01, 9.51162994e-01, 1.32922002e-03,
          2.32416198e-01, -3.95322299e+00, 4.36754179e+00,
          -3.60948010e-03, 8.54707241e-01, -8.59443009e-01,
          9.69675004e-01, -1.18683400e-02, 2.24460244e-01,
          -7.53432989e-01, -6.48833990e-01, -7.19990790e-01,
          3.68038714e-02, 3.02603006e-01, 3.95119995e-01, 3.53914589e-01,
          2.47089453e-02, -1.20923102e+00, -1.11358500e+00,
          -1.14459598e+00, 2.48234905e-02, -9.94554996e-01,
          2.45536998e-01, -1.28108999e-02, 2.38372758e-01,
          -1.18806803e+00, 6.66208029e-01, -5.19460021e-03,
          2.49061018e-01, -2.11848998e+00, 1.15955102e+00,
          5.14550395e-02, 5.67283690e-01, -4.46662992e-01,
          -3.64872992e-01, -4.00347829e-01, 2.61903573e-02,
          -1.09470002e-01, 3.24645996e-01, 7.79022202e-02,
          1.71265855e-01, -2.68076706e+00, -2.61157990e+00,
          -2.64831090e+00, 2.30149068e-02 ]
      - [ -2.25058004e-01, 2.01374993e-01, -1.47844001e-03,
          8.15880969e-02, -3.10377985e-01, 3.51529986e-01,
          5.60647994e-03, 1.26234680e-01, -1.24687001e-01,
          1.24130003e-01, 2.28856392e-02, 4.78259958e-02,
          -9.59250987e-01, -9.17475998e-01, -9.41597402e-01,
          1.28961708e-02, -4.98088002e-01, -3.38595003e-01,
          -3.82787615e-01, 4.73100767e-02, 1.20395100e+00,
          1.38422704e+00, 1.30316091e+00, 5.70763312e-02,
          -7.96437979e-01, 5.71344972e-01, -7.44272396e-02,
          2.94566900e-01, -7.85606027e-01, 1.51334703e+00,
          1.56542882e-01, 4.92474854e-01, -8.72910023e-01,
          7.95539021e-01, 1.17205784e-01, 2.94237405e-01,
          -1.42048001e-01, 3.84498000e-01, 1.59815326e-01,
          1.46030232e-01, 8.42209980e-02, 3.93602997e-01, 1.94838375e-01,
          8.15156475e-02, -3.99105012e-01, 8.28799978e-02,
          -9.61225629e-02, 1.46903574e-01 ]
      - [ -5.09805024e-01, 1.19813299e+00, 1.41774002e-03,
          2.67515928e-01, -1.14085901e+00, 1.26746595e+00,
          2.38001402e-02, 3.27375412e-01, -5.13387394e+00,
          1.71722305e+00, 2.71624606e-02, 1.00496149e+00,
          -5.72821975e-01, -4.78765994e-01, -5.36170304e-01,
          1.83270648e-02, -9.03281987e-01, -7.58078992e-01,
          -8.17667365e-01, 5.33921085e-02, -1.11442602e+00,
          -9.62697029e-01, -1.03453147e+00, 4.03985009e-02,
          -2.29253507e+00, 1.59141004e+00, -1.24309203e-02,
          5.43104053e-01, -9.22227979e-01, 1.29856205e+00,
          6.13979995e-04, 3.33967358e-01, -5.36033487e+00,
          1.34600997e+00, 2.50700805e-02, 8.50701272e-01,
          -8.75400007e-03, 7.86779970e-02, 4.32879589e-02,
          2.50588246e-02, 1.20397496e+00, 1.36188602e+00, 1.26737297e+00,
          6.01535700e-02, -3.38952988e-01, -1.90788999e-01,
          -2.87053019e-01, 3.83710787e-02 ]
      - [ -6.69441998e-01, 1.25863695e+00, 4.91771987e-03,
          3.08322310e-01, -1.24708605e+00, 4.10219014e-01,
          -2.09580001e-04, 2.94271976e-01, -4.03364897e+00,
          1.10022497e+00, 5.27948812e-02, 9.14536655e-01,
          -8.78706992e-01, -7.78090000e-01, -8.44737828e-01,
          3.49948183e-02, -2.61038589e+00, -2.36493206e+00,
          -2.53333807e+00, 7.94417262e-02, -1.78362405e+00,
          -1.65713704e+00, -1.70006967e+00, 4.22362536e-02,
          -4.89784002e-01, 3.05052012e-01, -5.90550005e-02,
          1.50726169e-01, -7.26197004e-01, 3.33242607e+00,
          -4.23481800e-02, 6.97200894e-01, -2.52143097e+00,
          6.91933990e-01, 9.81147587e-02, 5.03361106e-01,
          -6.82229996e-01, -2.21224993e-01, -4.00153369e-01,
          1.61392272e-01, 9.00665998e-01, 1.09002697e+00, 1.00629103e+00,
          4.96840291e-02, 6.56131983e-01, 9.03567016e-01, 7.67831385e-01,
          5.48484363e-02 ]
      - [ -1.17644703e+00, 2.80665588e+00, 7.55403191e-02,
          6.64116502e-01, -6.94280982e-01, 2.03696609e+00,
          9.59509984e-03, 4.58401769e-01, -7.05229378e+00,
          1.30791998e+00, -2.42372807e-02, 1.19703102e+00,
          -1.12227201e+00, -6.98964000e-01, -8.98191750e-01,
          1.63268089e-01, -1.89457798e+00, -1.21027696e+00,
          -1.47216308e+00, 1.68184549e-01, -1.51652598e+00,
          -6.77088976e-01, -9.53522027e-01, 2.70610899e-01,
          -3.61230493e+00, 8.73431981e-01, -8.24963972e-02,
          6.95060849e-01, -1.71174896e+00, 4.19578695e+00,
          -7.37677980e-03, 6.88087821e-01, -5.21076393e+00,
          8.03116977e-01, -4.04004790e-02, 9.92813528e-01,
          -1.10566902e+00, -6.50110006e-01, -8.54029596e-01,
          1.58131719e-01, 8.49560976e-01, 1.33167696e+00, 1.13152885e+00,
          1.05174989e-01, 2.03897998e-01, 7.27168977e-01, 4.25260723e-01,
          1.46660373e-01 ]
      - [ -4.18401480e+00, 4.36670208e+00, -8.91131982e-02,
          1.68321633e+00, -3.06356311e+00, 3.92443299e+00,
          8.47423002e-02, 1.46693695e+00, -3.13673401e+00,
          3.51637101e+00, -3.82044435e-01, 1.11601639e+00,
          -1.12943995e+00, -2.26806000e-01, -6.72687232e-01,
          2.51028091e-01, -3.13431501e+00, 3.04944611e+00,
          -1.50596881e+00, 2.19657040e+00, -7.36320972e-01,
          1.44473600e+00, 6.62189722e-01, 6.97178125e-01,
          -6.44885683e+00, 1.93849003e+00, -1.46658435e-01,
          2.05059767e+00, -6.87070012e-01, 8.46289158e+00,
          1.08055711e+00, 2.11696601e+00, -8.17543983e-01,
          1.76795995e+00, 1.79999977e-01, 5.86840570e-01,
          -1.34414601e+00, -2.24400997e-01, -5.80781281e-01,
          2.92580515e-01, -1.31126404e+00, 2.21006894e+00,
          1.18365324e+00, 4.68014359e-01, -1.46087801e+00,
          -7.05976009e-01, -1.32967031e+00, 1.28941208e-01 ]
      - [ -3.43400007e-03, 1.96620002e-02, 5.39204013e-03,
          5.47059346e-03, -2.71489993e-02, 7.84999982e-04,
          -1.32697802e-02, 6.11869525e-03, -1.07070003e-02,
          2.15719994e-02, 5.28371986e-03, 6.90841768e-03, 1.51699996e-02,
          2.24489998e-02, 2.03390606e-02, 1.88458897e-03,
          -1.49070993e-01, 1.08561002e-01, -1.43195286e-01,
          3.59668545e-02, 1.08561002e-01, 1.12296000e-01, 1.11098878e-01,
          9.95383481e-04, 9.82300006e-03, 4.28939983e-02, 2.94109993e-02,
          8.76782462e-03, -8.59099999e-03, 3.04959994e-02,
          7.99189974e-03, 9.45972372e-03, -2.51909997e-02,
          9.16600041e-03, -4.36969986e-03, 9.60531924e-03,
          3.35871011e-01, 3.47032994e-01, 3.38824272e-01, 2.98312004e-03,
          -2.50575006e-01, 4.53505993e-01, 4.34725434e-01,
          9.79129672e-02, -2.60057002e-01, -2.50575006e-01,
          -2.54419833e-01, 2.84797000e-03 ]
      - [ -7.16539025e-01, 6.52355015e-01, 5.02821393e-02,
          2.65747547e-01, -1.49010801e+00, 6.52105093e+00,
          5.88640384e-02, 1.37437654e+00, -7.91036010e-01,
          3.15836996e-01, -6.64946018e-03, 2.46107236e-01,
          -1.22166002e+00, -8.17389011e-01, -1.02290332e+00,
          1.59204260e-01, -9.67907012e-01, -2.90868014e-01,
          -7.13783503e-01, 2.41993219e-01, -1.44154096e+00,
          -7.95138001e-01, -1.19309342e+00, 2.29391158e-01,
          -1.51763296e+00, 5.85295022e-01, -1.17557996e-03,
          3.02714348e-01, -6.34290314e+00, 1.46560204e+00,
          1.64961200e-02, 1.05774426e+00, -1.72213900e+00,
          1.77240396e+00, -2.58252006e-02, 4.43897605e-01,
          -1.42512906e+00, -1.27822602e+00, -1.35751700e+00,
          3.35032642e-02, 1.08873200e+00, 1.75316000e+00, 1.56412077e+00,
          1.57025859e-01, 3.99852008e-01, 1.06477106e+00, 8.93125892e-01,
          1.64961815e-01 ]
      - [ -1.50644004e+00, 4.19678783e+00, 2.47011259e-01,
          1.58791184e+00, -8.88620973e-01, 1.03729403e+00,
          -2.79609531e-01, 5.05401969e-01, -7.95722008e-01,
          4.49458003e-01, -2.31888201e-02, 2.86432534e-01,
          -7.59130001e-01, -2.76883990e-01, -6.12552404e-01,
          1.65866256e-01, -2.09240004e-01, 1.42980504e+00,
          2.49294601e-02, 2.61034518e-01, 1.42979395e+00, 2.05712390e+00,
          1.73475897e+00, 1.91226318e-01, -3.96386909e+00,
          1.83216298e+00, -3.97621691e-01, 1.61632693e+00,
          -1.40532696e+00, 5.91530025e-01, -3.26876611e-01,
          5.03651619e-01, -8.93684030e-01, 8.52901995e-01,
          4.49934691e-01, 3.80266219e-01, -7.24222004e-01,
          -5.77163994e-01, -6.60275877e-01, 3.52589414e-02,
          -2.10766912e+00, -1.06021094e+00, -1.72286630e+00,
          2.09303200e-01, -1.40797102e+00, -9.38813984e-01,
          -1.12373805e+00, 1.49579018e-01 ]
      - [ -1.50448993e-01, 3.97325993e-01, 1.42429397e-02,
          1.13293089e-01, -5.60522020e-01, 1.14272997e-01,
          -5.00005996e-03, 1.32507876e-01, -1.65435001e-01,
          5.24809003e-01, 7.36476015e-03, 1.64981082e-01,
          -1.96943000e-01, -1.43673003e-01, -1.77021727e-01,
          1.40090045e-02, -2.97580007e-02, 6.19230010e-02,
          1.25737200e-02, 2.47913264e-02, -8.56920034e-02,
          -2.62960009e-02, -5.89197204e-02, 1.74167939e-02,
          -8.67994010e-01, 4.09792989e-01, 4.05651983e-03,
          1.81874841e-01, -1.47451901e+00, 1.14755797e+00,
          -4.76408005e-03, 3.21281523e-01, -1.80198503e+00,
          1.21240795e+00, 1.49208596e-02, 4.86159772e-01,
          -9.85023975e-01, -8.48178029e-01, -9.42179978e-01,
          3.18931863e-02, 1.14471003e-01, 6.02293015e-01, 2.67059654e-01,
          1.72616109e-01, -1.30831003e-01, 7.38250017e-02,
          -5.89184389e-02, 6.65139183e-02 ]
      - [ -3.34562004e-01, 3.89164001e-01, 1.92120206e-02,
          1.52335644e-01, -7.25381970e-01, 4.16429013e-01,
          -3.61502008e-03, 1.86085895e-01, -4.42366987e-01,
          9.32704985e-01, 8.02803971e-03, 2.44240969e-01,
          -1.92185998e-01, -1.15254998e-01, -1.74573794e-01,
          1.91067234e-02, -1.18690003e-02, 6.35539964e-02,
          3.16135809e-02, 1.90096516e-02, -3.46819982e-02,
          1.51110003e-02, -2.21493803e-02, 1.40176313e-02,
          -1.16417205e+00, 2.10471004e-01, -2.93867402e-02,
          2.08959401e-01, -7.19868004e-01, 6.52826011e-01,
          -7.54120003e-04, 1.89549848e-01, -2.51262093e+00,
          1.35651600e+00, -3.68362218e-02, 6.08534753e-01,
          -1.06282902e+00, -9.93696988e-01, -1.02935052e+00,
          1.39656840e-02, 9.28030014e-02, 7.59132028e-01, 2.79093921e-01,
          2.29267210e-01, 7.13149980e-02, 3.30675989e-01, 1.58720300e-01,
          9.55305621e-02 ]
      - [ -7.17429996e-01, 2.54817295e+00, 1.12100002e-04,
          5.42320192e-01, -5.95975995e-01, 1.41831803e+00,
          -1.64746400e-02, 3.37023199e-01, -4.50516415e+00,
          1.23111403e+00, -2.36269403e-02, 7.20049739e-01,
          -1.02598405e+00, -9.24425006e-01, -9.90112662e-01,
          2.46988498e-02, -2.14642191e+00, -1.90364802e+00,
          -1.96216726e+00, 7.80350119e-02, -1.89649904e+00,
          -1.57498801e+00, -1.67356420e+00, 1.02497049e-01,
          -2.47281003e+00, 8.44039023e-01, -8.82335827e-02,
          4.99927968e-01, -1.83835602e+00, 4.34149981e+00,
          4.76589985e-03, 7.27413654e-01, -5.63931608e+00,
          1.45994997e+00, -1.81858595e-02, 1.10587358e+00,
          -1.07326400e+00, -9.01974022e-01, -9.94512796e-01,
          7.15090558e-02, 1.16887403e+00, 1.65754294e+00, 1.50986254e+00,
          1.37422323e-01, 1.57120395e+00, 1.86811602e+00, 1.72618151e+00,
          8.63038227e-02 ]
      - [ -2.87339985e-01, 5.50635993e-01, -3.82162002e-03,
          1.67411298e-01, -1.19696796e+00, 7.02899992e-01,
          -2.97963992e-03, 2.55141497e-01, -5.74195981e-01,
          1.70217597e+00, -2.03153994e-02, 4.35147554e-01,
          1.78454995e-01, 3.21141988e-01, 2.40980417e-01, 3.74989733e-02,
          -2.81807989e-01, -1.63458005e-01, -2.28969187e-01,
          3.20380554e-02, -5.04836023e-01, -4.68941987e-01,
          -4.89458233e-01, 1.12120686e-02, -1.79556596e+00,
          3.40853006e-01, -1.01155117e-01, 2.99384087e-01,
          -1.77725399e+00, 3.65841889e+00, -1.71121005e-02,
          6.10486925e-01, -5.05354118e+00, 7.39928007e-01,
          -4.17505801e-02, 1.13066924e+00, -3.10324013e-01,
          1.73316002e-01, -9.17514190e-02, 1.60824925e-01,
          2.58320987e-01, 8.72139990e-01, 5.65590441e-01, 1.97821170e-01,
          -5.15968978e-01, -4.24863994e-01, -4.63253289e-01,
          2.42880508e-02 ]
      - [ -3.20874006e-01, 8.88782978e-01, 9.89229977e-03,
          2.13932768e-01, -7.50752985e-01, 3.16199005e-01,
          1.62919998e-04, 1.57312080e-01, -1.23037004e+00,
          4.28021997e-01, 2.03383993e-03, 2.91523010e-01,
          -6.74579978e-01, -6.06522977e-01, -6.31363750e-01,
          1.40380533e-02, -2.32988811e+00, -2.20088410e+00,
          -2.25538754e+00, 3.75062823e-02, -2.32992697e+00,
          -2.22349811e+00, -2.27048969e+00, 2.30346117e-02,
          -1.20246601e+00, 7.04654992e-01, -2.80310195e-02,
          2.54416466e-01, -8.97005975e-01, 2.62781405e+00,
          2.41160002e-02, 5.00018060e-01, -1.74202001e+00,
          6.02407992e-01, -4.01370414e-02, 4.22902286e-01,
          -5.25857985e-01, -3.03393006e-01, -4.00757700e-01,
          6.34052008e-02, 6.92254007e-01, 9.15125012e-01, 8.43214512e-01,
          6.58718869e-02, 1.94068998e-01, 2.84164995e-01, 2.56279767e-01,
          1.87843479e-02 ]
      - [ 8.79919976e-02, 1.20604396e+00, 6.60264373e-01, 3.77124012e-01,
          -3.50102991e-01, 9.74132001e-01, 2.00495645e-01,
          4.33686703e-01, -1.15677997e-01, 1.30949795e+00,
          4.22538459e-01, 4.35640454e-01, -1.46438801e+00,
          -1.97165996e-01, -5.80345571e-01, 4.23243433e-01,
          -3.13140893e+00, 3.09583092e+00, 6.69814944e-01,
          2.33119369e+00, -1.40370500e+00, 1.83343005e+00,
          1.20972085e+00, 7.01797664e-01, -1.71932197e+00,
          -1.35610604e+00, -1.54562950e+00, 9.23428982e-02,
          -5.55862010e-01, -6.69159964e-02, -3.42650086e-01,
          1.50241807e-01, 3.69506001e-01, 9.89409983e-01, 7.07435429e-01,
          1.58863410e-01, -1.39301801e+00, -2.86062002e-01,
          -6.18037224e-01, 3.13858420e-01, 1.73767400e+00,
          2.59026504e+00, 2.11473751e+00, 2.67962992e-01, 1.71309993e-01,
          1.98869300e+00, 1.17044175e+00, 5.78640401e-01 ]
      - [ -1.22225201e+00, 3.05718303e+00, -7.06626009e-03,
          5.65061688e-01, -5.96140027e-01, 1.15425205e+00,
          4.13451996e-03, 2.27886826e-01, -1.37666702e+00,
          2.00722289e+00, -4.30826005e-03, 4.34528559e-01,
          -1.28157005e-01, -5.37060015e-02, -1.07416019e-01,
          1.59280933e-02, -2.35078007e-01, -1.34985000e-01,
          -1.89725757e-01, 3.58709544e-02, -5.24500012e-02,
          2.36409996e-02, -1.20013403e-02, 2.61275135e-02,
          -3.06661010e+00, 3.62578988e-01, -1.51739404e-01,
          5.61151683e-01, -2.64173007e+00, 2.21116400e+00,
          1.42975803e-02, 5.75020969e-01, -6.32181501e+00,
          1.03463495e+00, -3.77049409e-02, 1.31685221e+00,
          -1.22435701e+00, -9.74856019e-01, -1.11226928e+00,
          7.91343823e-02, 8.07563007e-01, 1.57615697e+00, 1.30052984e+00,
          1.88348651e-01, 1.09036398e+00, 1.62378502e+00, 1.30161560e+00,
          1.15901724e-01 ]
      - [ -6.63969994e-01, 2.09585810e+00, 5.41947186e-02,
          3.66594821e-01, -1.47020900e+00, 3.87704206e+00,
          9.10987984e-03, 6.92672372e-01, -7.89665699e+00,
          1.14664304e+00, -4.24877815e-02, 1.26458490e+00,
          -1.01783597e+00, -8.83729994e-01, -9.52620506e-01,
          3.62493917e-02, 2.74801302e+00, 2.83494496e+00, 2.78684974e+00,
          2.87920851e-02, -2.90435410e+00, -2.57086492e+00,
          -2.78738642e+00, 1.20545119e-01, -2.87060094e+00,
          3.85527998e-01, -5.15056811e-02, 4.19689566e-01,
          -8.60476017e-01, 1.10774195e+00, -2.25977208e-02,
          2.62466699e-01, -8.32592964e+00, 1.26064205e+00,
          -4.06342000e-02, 1.32982504e+00, -1.17964804e+00,
          -1.00836897e+00, -1.08731759e+00, 5.03786653e-02,
          -2.68436003e+00, -2.54749489e+00, -2.61584973e+00,
          3.91209759e-02, 2.37061405e+00, 2.81366491e+00, 2.60274553e+00,
          1.36686862e-01 ]
      - [ -7.24309981e-02, 1.59089997e-01, 1.55380201e-02,
          4.30491976e-02, -7.04334021e-01, 2.22834006e-01,
          -6.86427997e-03, 1.52714029e-01, -9.68250036e-02,
          3.08631986e-01, 7.36047979e-03, 6.53851256e-02,
          -1.89096004e-01, 3.47250998e-01, 1.21875200e-02,
          1.81364223e-01, -3.06775987e-01, -2.51441985e-01,
          -2.84059644e-01, 2.13812534e-02, -6.55430034e-02,
          8.60489979e-02, -1.91752408e-02, 5.54248504e-02,
          -7.87945986e-01, 4.23804998e-01, 2.29728799e-02,
          2.28115737e-01, -3.04435998e-01, 5.27514994e-01,
          -1.56615805e-02, 1.49560243e-01, -7.48647988e-01,
          8.68570983e-01, 2.98381597e-02, 2.64260709e-01, 1.75130993e-01,
          2.51942009e-01, 2.20653564e-01, 2.40112860e-02, 4.03347999e-01,
          6.70102000e-01, 5.26063025e-01, 9.42911804e-02, 2.03757003e-01,
          2.83430994e-01, 2.35647321e-01, 2.91825701e-02 ]
      - [ -1.47020996e-01, 1.63165003e-01, 2.09807195e-02,
          6.05953597e-02, -2.08792001e-01, 3.15692991e-01,
          2.02571996e-03, 8.78487006e-02, -2.08327994e-01,
          3.37518990e-01, 7.02606002e-03, 1.13446526e-01,
          -6.48669004e-01, -6.17897987e-01, -6.33643270e-01,
          9.48579144e-03, 3.04358792e+00, 3.10027409e+00, 3.07627368e+00,
          1.77280493e-02, -5.40729985e-02, -2.19410006e-02,
          -3.61590795e-02, 9.25158616e-03, -3.45456004e-01,
          6.33867025e-01, 6.38783574e-02, 2.16573209e-01,
          -1.27556705e+00, 8.76574993e-01, -3.16412419e-01,
          6.10237420e-01, -8.84054005e-01, 1.08586997e-01,
          -2.69101292e-01, 1.91991121e-01, -8.43187988e-01,
          -4.09525990e-01, -6.81840539e-01, 1.68614492e-01,
          -7.01386988e-01, -1.10202998e-01, -4.01114494e-01,
          2.09716037e-01, -9.90087986e-01, 2.51800008e-03,
          -3.63922685e-01, 3.72990429e-01 ]
      - [ -3.79128993e-01, 5.60581982e-01, -7.95532018e-03,
          1.61178946e-01, -7.89523005e-01, 1.25448501e+00,
          4.05607978e-03, 2.90588945e-01, -2.54415488e+00,
          5.47976971e-01, 8.49757995e-03, 4.68426198e-01,
          -8.86124015e-01, -8.51239979e-01, -8.73110294e-01,
          8.52721743e-03, -1.95183301e+00, -1.82641196e+00,
          -1.89078093e+00, 3.71102877e-02, -1.61795902e+00,
          -1.45560396e+00, -1.51605797e+00, 5.14435656e-02,
          -2.17315102e+00, 9.31721985e-01, 1.07674403e-02,
          5.17788529e-01, -9.33504999e-01, 8.03610981e-01,
          -1.54975802e-02, 2.45614052e-01, -1.80053902e+00,
          2.55363989e+00, 2.23831404e-02, 5.68289578e-01, 1.36858001e-01,
          2.41999000e-01, 2.05315664e-01, 3.32603157e-02, 4.00691986e-01,
          7.12462008e-01, 5.89835644e-01, 1.05806321e-01, 7.92450011e-02,
          2.35839993e-01, 1.67120159e-01, 5.06000221e-02 ]
      - [ -8.25930014e-02, 5.90704978e-01, 3.35029989e-01,
          1.62151814e-01, -5.47263026e-01, 3.62709999e-01,
          -2.73042619e-01, 2.36634165e-01, -2.70230006e-02,
          1.54223502e+00, 2.81750500e-01, 3.50900739e-01,
          -5.79936981e-01, 6.82510018e-01, 3.33694816e-01,
          2.61242598e-01, -2.77484012e+00, -3.46412003e-01,
          -2.37394452e+00, 6.25201166e-01, -4.28930998e-01,
          5.68714023e-01, 1.35161698e-01, 2.04882771e-01,
          -6.93049014e-01, 1.11105002e-01, -1.67238504e-01,
          2.20831975e-01, -7.19485998e-01, 3.84166002e-01,
          -1.89791601e-02, 2.40687490e-01, -3.99228007e-01,
          1.40749300e+00, 1.40728563e-01, 5.69337606e-01,
          -1.53451598e+00, -9.86294985e-01, -1.29503477e+00,
          1.33813754e-01, -2.76082492e+00, 3.03682089e+00,
          1.54835433e-01, 1.41880047e+00, -2.78723192e+00,
          3.13916993e+00, 1.28858137e+00, 1.68181765e+00 ]
      - [ -4.49844986e-01, 1.28014398e+00, 4.82008001e-03,
          3.06137949e-01, -6.21322989e-01, 2.87483990e-01,
          -3.90279992e-03, 1.30728915e-01, -2.60053396e+00,
          7.24052012e-01, 1.42365796e-02, 4.81604666e-01,
          -6.46183014e-01, -5.82176030e-01, -6.08188093e-01,
          1.31168496e-02, -2.67227602e+00, -2.53600192e+00,
          -2.60584593e+00, 3.87206003e-02, -2.40761805e+00,
          -2.30009389e+00, -2.34538364e+00, 3.20139192e-02,
          -7.61101007e-01, 3.22028995e-01, -3.86448801e-02,
          1.95260376e-01, -1.13140595e+00, 6.49492025e-01,
          -1.30649405e-02, 2.29159653e-01, -3.45186901e+00,
          6.38903022e-01, -5.17315418e-02, 7.96175778e-01,
          -4.26779002e-01, -2.58693010e-01, -3.60398382e-01,
          4.33816053e-02, 2.35135004e-01, 7.58801997e-01, 4.34712946e-01,
          1.67541578e-01, -2.66750991e-01, -2.19350994e-01,
          -2.47070596e-01, 1.39808524e-02 ]
      - [ -3.86294007e-01, 2.75215000e-01, 3.02149002e-02,
          1.41087785e-01, -7.47336984e-01, 1.42911005e+00,
          2.22376194e-02, 3.70549589e-01, -1.54882205e+00,
          2.85047698e+00, -5.45494817e-02, 8.55816960e-01,
          -3.59187990e-01, -1.65600002e-01, -2.52014101e-01,
          4.53102700e-02, 3.50147992e-01, 8.78930986e-01, 5.81006408e-01,
          1.95553750e-01, 9.25009996e-02, 2.43313000e-01, 1.77668959e-01,
          4.40559909e-02, -2.77435899e+00, 7.96671987e-01,
          1.50602341e-01, 5.18575430e-01, -1.71376503e+00,
          1.27358305e+00, -2.50173006e-02, 4.64970112e-01,
          -4.30974007e+00, 7.76453018e-01, 7.19354823e-02,
          9.55602288e-01, -7.85108984e-01, -5.70442021e-01,
          -6.49787545e-01, 5.41992672e-02, -9.53643978e-01,
          -1.53485000e-01, -5.74043036e-01, 3.15870494e-01,
          1.94949698e+00, 2.24120903e+00, 2.12638879e+00, 8.03145245e-02 ]
      - [ -1.75532997e-01, 1.03434300e+00, -8.05750024e-03,
          1.98650986e-01, -2.55574298e+00, 5.81179023e-01,
          5.43188602e-02, 5.85761964e-01, -9.58916008e-01,
          8.05194020e-01, 1.48850596e-02, 2.16396913e-01,
          -9.73327994e-01, -7.59110987e-01, -8.86342108e-01,
          7.33756274e-02, -5.17578006e-01, -2.04460993e-01,
          -3.85639071e-01, 1.15019746e-01, 2.61806607e+00,
          2.94101906e+00, 2.75840282e+00, 1.16256952e-01,
          -7.86938012e-01, 3.90376002e-01, -3.65232006e-02,
          1.82665169e-01, -5.41431010e-01, 4.00020409e+00,
          -5.57132810e-02, 7.76376963e-01, -2.29244399e+00,
          2.88266987e-01, 3.72276604e-02, 3.73033911e-01,
          -9.25585985e-01, -6.69215024e-01, -8.12888861e-01,
          9.51150805e-02, 6.49957001e-01, 1.02848899e+00, 8.55362117e-01,
          1.31791264e-01, 2.45988297e+00, 2.79252410e+00, 2.65576005e+00,
          1.10830881e-01 ]
      - [ -4.54434991e-01, 1.01235604e+00, 4.40723002e-02,
          2.85113215e-01, -1.55341697e+00, 2.20897007e+00,
          -2.04908010e-03, 4.96613145e-01, -5.23035812e+00,
          1.03353596e+00, -2.15495601e-02, 1.01258492e+00,
          -6.52278006e-01, -5.63578010e-01, -6.07106447e-01,
          2.17116848e-02, -3.13182497e+00, 3.12766004e+00,
          -2.25113535e+00, 1.96996772e+00, -2.13269997e+00,
          -2.03057194e+00, -2.09711051e+00, 1.78023092e-02,
          -7.21485972e-01, 8.57454002e-01, 2.18044408e-02,
          2.90031552e-01, -1.36777306e+00, 6.96196795e+00,
          2.29073409e-02, 1.29636633e+00, -2.80067396e+00,
          4.37763989e-01, 1.70212202e-02, 5.70450604e-01,
          -1.22476494e+00, -7.99628973e-01, -1.11662722e+00,
          1.09791838e-01, 5.03651023e-01, 9.97409999e-01, 6.59823895e-01,
          1.66151837e-01, -3.13407898e+00, 3.14047599e+00,
          1.12289548e+00, 2.81041741e+00 ]
      - [ -1.59825397e+00, 1.13302603e+01, -2.46308342e-01,
          1.93126786e+00, -1.11615896e+00, 1.46484399e+00,
          1.87615693e-01, 5.64999044e-01, -1.73671997e+00,
          5.43751717e+00, -2.76534855e-01, 1.14809406e+00,
          -9.57100000e-03, 8.52999985e-02, 3.73532996e-02,
          2.93667298e-02, 1.40422797e+00, 2.07331491e+00, 1.69531167e+00,
          2.06612512e-01, 1.52758503e+00, 1.75873005e+00, 1.67403412e+00,
          6.74199983e-02, -7.77944183e+00, 2.27486205e+00,
          -3.19176018e-01, 1.84514630e+00, -1.45988703e+00,
          1.41490304e+00, 2.19386797e-02, 6.59845114e-01,
          -1.31943500e+00, 2.75982189e+00, 7.86898434e-02,
          8.54158163e-01, -2.84456998e-01, -1.57921001e-01,
          -2.33325779e-01, 3.83444950e-02, -1.54939198e+00,
          2.39609504e+00, 1.80176973e+00, 5.64341247e-01,
          -1.68097603e+00, -1.49546301e+00, -1.58338702e+00,
          5.10449447e-02 ]
      - [ -8.36143970e-01, 7.81471014e-01, 3.98198403e-02,
          2.65226215e-01, -8.62931013e-01, 1.99230194e+00,
          6.17321208e-02, 3.58747184e-01, -7.02135026e-01,
          4.07380199e+00, -8.06496963e-02, 8.45666885e-01,
          -3.00920010e-01, -5.81540018e-02, -2.00627878e-01,
          7.81021267e-02, 2.99820989e-01, 9.16496992e-01, 5.86288810e-01,
          2.43337974e-01, -6.93000015e-03, 3.02933991e-01,
          1.49390444e-01, 1.13318592e-01, -3.95343590e+00,
          5.54489970e-01, 1.23626404e-02, 6.44397914e-01,
          -2.14905310e+00, 1.71610200e+00, -1.15187597e-02,
          5.28989077e-01, -4.80494022e+00, 9.92890000e-01,
          1.36996642e-01, 1.17792749e+00, -6.70814991e-01,
          -4.96791005e-01, -5.45104742e-01, 4.96234894e-02,
          -5.13406992e-01, 6.84119985e-02, -2.19663620e-01,
          2.22661704e-01, 2.28496695e+00, 2.40554810e+00, 2.35975838e+00,
          3.57999131e-02 ]
      - [ -1.06450796e+00, 2.66633606e+00, 4.70403805e-02,
          6.65204465e-01, -5.41781616e+00, 2.59572697e+00,
          5.95400017e-03, 1.02901459e+00, -3.62826109e+00,
          8.63708973e-01, 1.90117419e-01, 6.66184366e-01,
          -7.87508011e-01, -4.38753992e-01, -7.33783782e-01,
          8.41205344e-02, -9.79873002e-01, -3.73073995e-01,
          -7.62940526e-01, 1.76328048e-01, 8.56078029e-01,
          1.07000804e+00, 9.71172512e-01, 6.49087057e-02,
          -2.59321594e+00, 1.82043505e+00, -4.20959182e-02,
          7.22967744e-01, -1.03944099e+00, 1.76431894e+00,
          4.33974192e-02, 3.41811031e-01, -3.45852208e+00,
          7.29636014e-01, 1.16029359e-01, 8.44537854e-01,
          -1.01920497e+00, -8.82502973e-01, -9.39586699e-01,
          5.04550040e-02, 7.56935000e-01, 1.10506201e+00, 9.78733897e-01,
          9.11850333e-02, 2.93686002e-01, 7.30615973e-01, 4.77866828e-01,
          1.47127256e-01 ]
      - [ -2.78593987e-01, 1.54920995e-01, 1.22087402e-02,
          7.41649345e-02, -2.36698002e-01, 2.46074006e-01,
          -1.38590597e-02, 1.02458097e-01, -4.76668000e-01,
          5.11081994e-01, -8.83630011e-03, 1.81406155e-01,
          -6.40227020e-01, -5.48968971e-01, -5.89442313e-01,
          2.71702949e-02, 2.91196990e+00, 3.03960490e+00, 2.99820971e+00,
          3.74215022e-02, 1.36719998e-02, 5.93979992e-02, 4.27395217e-02,
          1.62935965e-02, -8.61500978e-01, 3.20565999e-01,
          -1.30467400e-01, 2.74792761e-01, -1.93930602e+00,
          1.63168097e+00, 8.21280628e-02, 8.17405701e-01,
          -3.09500009e-01, 1.01502502e+00, 3.83631401e-02,
          2.59964585e-01, -4.18749005e-01, -2.26772994e-01,
          -3.33374649e-01, 6.12571537e-02, -4.61425006e-01,
          -2.75204986e-01, -3.56896698e-01, 6.60726279e-02,
          1.09340203e+00, 1.79054701e+00, 1.51094902e+00, 2.97258198e-01 ]
      - [ -2.58596987e-01, 3.12976003e-01, -1.02959201e-02,
          1.03313111e-01, -1.02589405e+00, 7.71097004e-01,
          -2.26878803e-02, 2.91991830e-01, -2.49463007e-01,
          4.71403003e-01, -8.02810024e-03, 1.27495334e-01,
          -1.11463404e+00, -9.81333017e-01, -1.06290972e+00,
          3.51461843e-02, -2.54602790e+00, -2.42906308e+00,
          -2.48577690e+00, 2.40699146e-02, 7.02768028e-01,
          8.22538018e-01, 7.50664055e-01, 2.89140325e-02,
          -1.40323400e+00, 4.10479009e-01, -1.23261683e-01,
          3.61604959e-01, -1.99562395e+00, 1.97448897e+00,
          8.21175203e-02, 7.66037881e-01, -2.89270014e-01,
          6.94566011e-01, 1.16317198e-02, 2.23646179e-01,
          -2.76454002e-01, -4.84989993e-02, -1.52946204e-01,
          7.32686520e-02, 1.75449997e-01, 2.97414988e-01, 2.67840832e-01,
          3.22328284e-02, -4.82988000e-01, 9.19359997e-02,
          -1.89162254e-01, 2.29440257e-01 ]
      - [ -7.36802995e-01, 2.39153004e+00, -7.17257988e-03,
          4.58393365e-01, -6.64187014e-01, 7.09744990e-01,
          -1.30922599e-02, 1.94313020e-01, -7.08137989e-01,
          1.26898098e+00, -5.59104001e-03, 3.32021177e-01,
          -9.80269983e-02, -4.64419983e-02, -7.47176781e-02,
          1.14875119e-02, -2.19301999e-01, -1.38101995e-01,
          -1.83422059e-01, 2.83812135e-02, -1.09719997e-02,
          4.35549989e-02, 1.99235007e-02, 1.78078562e-02,
          -2.43714309e+00, 2.95740992e-01, -1.09782740e-01,
          4.16662097e-01, -9.63095009e-01, 2.42295408e+00,
          3.72036397e-02, 4.63648587e-01, -5.06832123e+00,
          6.33440971e-01, -4.73333411e-02, 1.09326673e+00,
          -1.20383000e+00, -9.54553008e-01, -1.09446526e+00,
          8.55691805e-02, 1.08959901e+00, 1.65423501e+00, 1.50489032e+00,
          1.48261398e-01, 1.33754897e+00, 1.79070306e+00, 1.49518347e+00,
          1.11466140e-01 ]
      - [ -1.28601599e+00, 3.58620596e+00, -2.77574569e-01,
          9.52428162e-01, -4.55274391e+00, 7.28640509e+00,
          5.76660931e-01, 2.47937465e+00, -1.42841804e+00,
          1.73783302e+00, 1.14506900e-01, 6.36126935e-01,
          -1.26345098e+00, -4.25350994e-01, -8.38398457e-01,
          2.51678586e-01, -1.12095594e+00, 2.12469792e+00,
          1.70136642e+00, 6.39602780e-01, -1.14682305e+00,
          3.17027003e-01, 8.89426991e-02, 4.17736411e-01,
          -2.53154302e+00, 1.91666198e+00, -4.24627587e-02,
          1.31483340e+00, -2.55446005e+00, 4.60921192e+00,
          -7.25059435e-02, 1.63033414e+00, -1.89532995e+00,
          9.98263001e-01, 1.63806397e-02, 6.03713870e-01,
          -1.30338800e+00, -2.93049991e-01, -7.58310318e-01,
          3.20092380e-01, 4.45764989e-01, 2.64427400e+00, 1.12576878e+00,
          6.55999303e-01, -1.08928895e+00, 4.82780993e-01,
          -7.19848871e-01, 4.89950836e-01 ]
      - [ -2.77020007e-01, 1.77438903e+00, 2.98509091e-01,
          4.79518265e-01, -1.29428899e+00, 7.18571007e-01,
          -3.76853999e-03, 4.19673949e-01, -2.00879788e+00,
          7.81943023e-01, -2.46092007e-02, 5.78162611e-01,
          -1.46785498e+00, -1.07536900e+00, -1.26580179e+00,
          1.47030473e-01, -3.13641596e+00, 3.09445310e+00,
          -4.30209756e-01, 2.48192167e+00, -3.12328696e+00,
          3.12583590e+00, -2.43343666e-01, 2.61872697e+00,
          -6.58940017e-01, 4.21254992e-01, -9.61523205e-02,
          2.50902623e-01, -1.95474997e-01, 2.09243998e-01,
          4.06115800e-02, 1.08036846e-01, -5.11413991e-01,
          6.99186981e-01, 1.66362286e-01, 3.05278718e-01,
          -1.08057594e+00, -6.22887015e-01, -7.69924581e-01,
          1.12737082e-01, -1.72049201e+00, -1.41500497e+00,
          -1.56556654e+00, 9.21764746e-02, 4.39700000e-02,
          8.69270980e-01, 4.00160730e-01, 2.39413500e-01 ]
      - [ -4.51649010e-01, 7.52490997e-01, 7.56652206e-02,
          2.07691178e-01, -1.73556602e+00, 7.24061012e-01,
          5.65739989e-04, 3.14449579e-01, -5.60649991e-01,
          3.94596004e+00, 6.40348792e-02, 7.22749889e-01, 3.60958010e-01,
          4.95196015e-01, 4.20500964e-01, 3.59616280e-02,
          -1.65187001e-01, 1.20768003e-01, -9.71115232e-02,
          8.17547217e-02, 7.67899975e-02, 1.81784004e-01, 1.03675202e-01,
          2.82092001e-02, -3.04503989e+00, 9.27259028e-01,
          -8.16664025e-02, 6.28179610e-01, -7.92079985e-01,
          1.81563199e+00, -2.10055206e-02, 4.30198252e-01,
          -4.25538397e+00, 8.52688015e-01, -6.75738230e-02,
          9.02516186e-01, -3.60794991e-01, -1.87424004e-01,
          -2.79692709e-01, 4.68119346e-02, 2.29293004e-01,
          7.03806996e-01, 3.26411873e-01, 1.38058662e-01, 3.96849997e-02,
          9.47669968e-02, 6.66754991e-02, 1.52308708e-02 ]
      - [ -2.23177999e-01, 1.56550005e-01, -1.75111797e-02,
          6.13449514e-02, -2.58457989e-01, 2.50420004e-01,
          -1.52805001e-02, 8.91455933e-02, -1.80132002e-01,
          2.17051998e-01, 3.89260007e-03, 6.06550127e-02,
          -6.63977027e-01, -5.85030019e-01, -6.33677721e-01,
          2.38595027e-02, -3.14026499e+00, 3.14151311e+00,
          -2.85636973e+00, 1.22430146e+00, 3.87676001e-01,
          4.62381989e-01, 4.24620539e-01, 2.45690700e-02,
          -8.11765015e-01, 4.76781011e-01, -6.76390827e-02,
          2.71361530e-01, -1.10802305e+00, 1.00740397e+00,
          -9.43981409e-02, 5.62747955e-01, -6.14808023e-01,
          4.28296000e-01, -8.29413831e-02, 2.22386226e-01,
          -6.00390971e-01, -2.72924989e-01, -4.07028407e-01,
          1.01582311e-01, -1.66773006e-01, 1.62138999e-01,
          1.37724197e-02, 1.18634917e-01, -4.45805997e-01,
          2.29735002e-01, -8.91874805e-02, 2.77699500e-01 ]
      - [ -1.27883002e-01, 1.92029998e-01, -1.09969797e-02,
          5.35888262e-02, -8.21610019e-02, 2.73135990e-01,
          -5.38680004e-04, 6.05578832e-02, -2.96701998e-01,
          4.54030007e-01, 2.74773990e-03, 1.37865782e-01,
          -6.32628977e-01, -6.01211011e-01, -6.16346061e-01,
          6.62645558e-03, -2.98777390e+00, -2.92164397e+00,
          -2.95208049e+00, 1.50539521e-02, 3.19218993e-01,
          3.57863009e-01, 3.43196273e-01, 1.01063903e-02,
          -1.83643496e+00, 3.70510012e-01, -1.98728785e-01,
          5.11240959e-01, -1.58304703e+00, 1.54105306e+00,
          3.19501609e-02, 7.12597966e-01, -6.76913977e-01,
          5.51577985e-01, 1.24713397e-02, 2.36513466e-01,
          -2.09300995e-01, -2.60450002e-02, -1.31543517e-01,
          6.65324479e-02, -1.83618993e-01, 1.00478999e-01,
          -2.02477798e-02, 8.95787776e-02, 9.22538996e-01,
          1.78231096e+00, 1.37260306e+00, 3.49352658e-01 ]
      - [ -3.70581293e+00, 3.80456400e+00, -6.18417919e-01,
          1.06020594e+00, -1.17154884e+01, 7.79536676e+00,
          7.01395392e-01, 3.15031052e+00, -2.58746099e+00,
          8.58063507e+00, -2.16446981e-01, 2.05548263e+00,
          -2.81239003e-01, 3.30433011e-01, 8.45364630e-02,
          1.47828192e-01, -1.12367594e+00, 1.90428805e+00,
          -2.00662594e-02, 8.29925597e-01, 1.82423103e+00,
          2.40950394e+00, 2.14565444e+00, 1.67948693e-01,
          -7.25175381e+00, 3.19824600e+00, -6.11281157e-01,
          2.03107572e+00, -1.52347870e+01, 9.67756176e+00,
          -1.13719262e-01, 4.07059002e+00, -2.85982704e+00,
          7.70932913e+00, -3.65516126e-01, 2.10477519e+00,
          -1.41695905e+00, 4.23707008e-01, -4.96425450e-01,
          6.27764404e-01, -1.80677700e+00, 5.13463020e-01,
          -1.07800901e-01, 6.09996855e-01, 3.59010011e-01,
          2.99423599e+00, 2.45290494e+00, 8.08696926e-01 ]
      - [ -3.08333993e-01, 1.88421994e-01, 1.52689004e-02,
          1.03644967e-01, -7.77768016e-01, 3.90336204e+00,
          -2.43129395e-02, 7.11121857e-01, -1.12892902e+00,
          3.33523989e-01, 1.72791798e-02, 2.47574419e-01,
          -1.09262204e+00, -9.24311996e-01, -1.02979624e+00,
          5.07782623e-02, -1.18132198e+00, -9.19727981e-01,
          -1.00698578e+00, 8.11847150e-02, -7.88950026e-02,
          2.39558995e-01, 1.42489046e-01, 9.91034955e-02,
          -6.45909011e-01, 1.88117996e-01, -2.05003396e-02,
          1.40604779e-01, -2.68084598e+00, 5.94726980e-01,
          -1.64604001e-03, 5.43143570e-01, -2.26435006e-01,
          8.49488020e-01, 3.00236195e-02, 1.90926090e-01,
          -1.10007000e+00, -9.66785014e-01, -1.00978637e+00,
          4.48869988e-02, 1.58225998e-01, 4.61798012e-01, 3.67169827e-01,
          7.41119310e-02, 1.79745004e-01, 4.59735990e-01, 3.77638251e-01,
          7.20844343e-02 ]
      - [ -4.21330005e-01, 3.71955007e-01, -1.30499797e-02,
          1.46511361e-01, -7.84916997e-01, 1.73733199e+00,
          3.27640586e-02, 5.26822567e-01, -3.72514993e-01,
          9.52892005e-01, 2.48857498e-01, 3.19194734e-01,
          -1.50868106e+00, 4.07498986e-01, -2.84766346e-01,
          7.34424412e-01, 1.46252006e-01, 2.47959089e+00, 3.78255308e-01,
          5.70000589e-01, -2.34360006e-02, 2.58154702e+00,
          2.98978806e-01, 6.40442133e-01, -2.31152996e-01,
          1.50115997e-01, 2.44844006e-03, 7.97399357e-02,
          -9.98965025e-01, 1.55209196e+00, 2.55560409e-02,
          5.00569761e-01, -5.23983002e-01, 1.02744806e+00,
          2.14419484e-01, 3.04302514e-01, -1.43438303e+00,
          1.84965000e-01, -2.85838306e-01, 5.70782721e-01,
          -2.65727997e-01, -4.84649986e-02, -8.30868036e-02,
          4.43872921e-02, -3.13181013e-01, 3.48809995e-02,
          -3.77839990e-02, 8.61848816e-02 ]
      - [ -2.60031998e-01, 2.06724003e-01, -3.53417210e-02,
          9.03283432e-02, -3.40999007e-01, 3.59807998e-01,
          -2.69613806e-02, 1.28399655e-01, -3.39765996e-01,
          3.89488995e-01, 5.28120028e-04, 1.39107257e-01,
          -9.07836020e-01, -8.64233971e-01, -8.81365001e-01,
          1.12468153e-02, -2.88048792e+00, -2.82763004e+00,
          -2.85695028e+00, 1.42498314e-02, -2.28248096e+00,
          -2.24178505e+00, -2.26532793e+00, 1.15351640e-02,
          -1.44176197e+00, 3.77487004e-01, -1.32887900e-01,
          3.93210262e-01, -1.10596204e+00, 2.07867098e+00,
          1.39609218e-01, 7.11983681e-01, -7.18715012e-01,
          7.02804983e-01, 3.21714804e-02, 2.90369719e-01,
          -2.79060990e-01, -1.13280997e-01, -2.04913124e-01,
          5.80606014e-02, -4.99420017e-02, 1.84020996e-01,
          9.52358171e-02, 6.06813096e-02, -6.55085981e-01,
          6.18099980e-03, -3.55855286e-01, 2.31924772e-01 ]
      - [ -1.20998003e-01, 5.48491001e-01, 7.02394024e-02,
          1.33795157e-01, 1.28588006e-01, 7.04491019e-01, 4.34531242e-01,
          1.52187109e-01, -1.60945997e-01, 4.92904991e-01,
          1.83013007e-01, 2.09850907e-01, -5.32818019e-01,
          8.33399966e-03, -3.24138343e-01, 1.53128132e-01,
          -7.71340013e-01, -3.12792987e-01, -6.80350065e-01,
          8.71751457e-02, -3.12792987e-01, 3.41084003e-01,
          2.06127405e-01, 1.59013182e-01, -2.17406005e-01,
          1.88301995e-01, 3.03513594e-02, 1.08022176e-01,
          -1.72831997e-01, 4.69613999e-01, 5.95439412e-02,
          1.62509128e-01, -3.27073991e-01, 1.86169997e-01,
          -1.35573000e-02, 1.57556996e-01, -6.34581029e-01,
          -3.52438986e-01, -4.74096388e-01, 8.91555697e-02,
          -5.46482980e-01, 3.06402493e+00, 2.57489896e+00,
          5.20169973e-01, -1.05441999e+00, -5.46482980e-01,
          -8.96453142e-01, 1.68590248e-01 ]
      - [ -2.41417006e-01, 6.65390015e-01, 8.65776017e-02,
          2.68821657e-01, -2.12681994e-01, 5.71927011e-01,
          3.59478444e-01, 1.59238219e-01, -5.58547020e-01,
          2.36830994e-01, -1.49215922e-01, 1.75430939e-01,
          -4.93496001e-01, 4.96230014e-02, -8.99350196e-02,
          1.52093723e-01, 1.58542705e+00, 2.88034606e+00, 2.19915962e+00,
          4.39901948e-01, 1.62948799e+00, 1.85011601e+00, 1.70343029e+00,
          5.86341657e-02, -8.38914990e-01, 1.50092006e-01,
          -1.33993834e-01, 2.66022861e-01, -2.77067989e-01,
          5.54180026e-01, 3.00989479e-01, 2.62674809e-01,
          -5.34049988e-01, 2.99347997e-01, -1.43809021e-01,
          2.70962894e-01, -5.36433995e-01, 1.40966997e-01,
          -8.66035223e-02, 2.29019850e-01, -2.30555201e+00,
          -1.52979004e+00, -2.20469570e+00, 1.34106278e-01,
          -1.55734205e+00, -1.21893096e+00, -1.46010470e+00,
          9.41633880e-02 ]
      - [ -2.09297705e+00, 1.55669606e+00, -7.86045417e-02,
          8.31329226e-01, -1.81023300e+00, 3.43668103e+00,
          2.18805507e-01, 1.25317597e+00, -7.83656001e-01,
          2.02765703e+00, 4.92346995e-02, 6.17964566e-01,
          -1.51547897e+00, -8.00581992e-01, -1.13221586e+00,
          2.05285087e-01, -1.61672199e+00, 3.66001010e-01,
          -5.40983558e-01, 6.39028430e-01, 3.66001010e-01,
          1.63870502e+00, 1.22091615e+00, 3.92169178e-01,
          -1.37933195e+00, 6.71859026e-01, -1.32505402e-01,
          4.82493401e-01, -3.00072998e-01, 8.39739978e-01,
          2.46377483e-01, 2.89591640e-01, -5.29334009e-01,
          4.83994007e-01, -2.02372801e-02, 2.52380967e-01,
          -3.03701997e-01, 4.88159001e-01, 1.56560004e-01,
          2.63999790e-01, -3.00691199e+00, -1.26988006e+00,
          -2.86226559e+00, 2.36420110e-01, -1.76439703e+00,
          -1.26988006e+00, -1.46378744e+00, 1.61356404e-01 ]
      - [ -3.26961011e-01, 6.44526005e-01, -1.63412001e-03,
          1.63345501e-01, -7.01433003e-01, 6.12232983e-01,
          -1.71571206e-02, 2.40980521e-01, -3.83978993e-01,
          7.86282003e-01, -2.97795199e-02, 1.94509864e-01,
          -7.75102973e-01, -6.70176029e-01, -7.45300710e-01,
          2.04187222e-02, -3.06776595e+00, -3.00993991e+00,
          -3.04230666e+00, 1.31347328e-02, 3.37859988e-01,
          3.98553014e-01, 3.64197165e-01, 1.80994980e-02,
          -2.69497991e+00, 1.06782997e+00, -2.15186179e-01,
          6.83109045e-01, -2.12413812e+00, 1.74318004e+00,
          6.49707615e-02, 8.89468610e-01, -5.91629028e-01,
          1.92526197e+00, 5.56966811e-02, 4.70972091e-01,
          -1.03518002e-01, 2.07412004e-01, 2.04088595e-02,
          1.11968510e-01, -4.36722010e-01, -9.44899954e-03,
          -1.93065524e-01, 1.79872736e-01, -8.91707003e-01,
          6.00720011e-02, -3.68047208e-01, 4.00389642e-01 ]
      - [ -9.98978972e-01, 1.56739998e+00, 1.37104997e-02,
          3.96251440e-01, -1.41737795e+00, 1.38100505e+00,
          1.36188203e-02, 4.67755437e-01, -4.97211504e+00,
          1.66766906e+00, 5.01694009e-02, 1.12731206e+00,
          -9.46730971e-01, -8.19557011e-01, -8.96104515e-01,
          3.36146541e-02, -2.29352307e+00, -1.87293696e+00,
          -2.18152046e+00, 1.09294608e-01, -1.55372095e+00,
          -1.13347006e+00, -1.36724567e+00, 8.02150145e-02,
          -8.87808025e-01, 6.21321976e-01, -1.27167076e-01,
          2.28684708e-01, -6.84651971e-01, 3.46416497e+00,
          -6.72718436e-02, 8.94160926e-01, -1.81977904e+00,
          3.21695000e-01, 5.97277395e-02, 4.24748302e-01,
          -4.28539008e-01, 1.08052000e-01, -1.49789825e-01,
          1.98087797e-01, 9.10112977e-01, 1.11563098e+00, 1.02357221e+00,
          6.94157034e-02, 5.63338995e-01, 8.23897004e-01, 7.10720539e-01,
          9.35318992e-02 ]
      - [ -1.31551504e+00, 2.62597203e+00, 7.88761973e-02,
          5.56321383e-01, -2.28595901e+00, 4.30061388e+00,
          5.00073209e-02, 8.04884672e-01, -5.91105890e+00,
          1.84372199e+00, -4.27809991e-02, 1.05496430e+00,
          -6.83447003e-01, -5.91512024e-01, -6.48076534e-01,
          2.49578338e-02, 2.62458491e+00, 2.71212411e+00, 2.66511369e+00,
          2.73790583e-02, -3.13885808e+00, 3.13493896e+00,
          -1.17519878e-01, 3.05449939e+00, -2.50599408e+00,
          5.00339985e-01, -5.63172996e-02, 4.46584642e-01,
          -8.66041005e-01, 1.72186399e+00, 1.23855202e-02,
          4.24759716e-01, -7.40136909e+00, 1.76947606e+00,
          -5.52924015e-02, 1.22218215e+00, -8.36686015e-01,
          -7.68225014e-01, -7.99173355e-01, 1.48227364e-02,
          -2.50042796e+00, -2.33633590e+00, -2.42548370e+00,
          5.67371473e-02, 2.83057499e+00, 3.07717299e+00, 2.94238400e+00,
          8.21396485e-02 ]
      - [ -2.35364795e+00, 3.70996094e+00, 8.96613821e-02,
          7.93675303e-01, -9.09147024e-01, 3.51514506e+00,
          4.19723205e-02, 6.94586635e-01, -3.09996200e+00,
          6.35743022e-01, 4.95747216e-02, 5.84372401e-01,
          -1.37313402e+00, -1.00530505e+00, -1.26709139e+00,
          1.07594915e-01, -2.94550991e+00, -2.44946098e+00,
          -2.67146516e+00, 1.71325862e-01, -2.24629092e+00,
          -1.82616496e+00, -1.99036002e+00, 1.32335335e-01,
          -3.88875389e+00, 2.97974205e+00, -9.46733803e-02,
          9.33856905e-01, -7.34664977e-01, 1.68285501e+00,
          3.18136215e-02, 4.00899917e-01, -1.71590197e+00,
          6.15242004e-01, 1.04708001e-02, 3.38136017e-01,
          -1.43065298e+00, -1.11382699e+00, -1.29872799e+00,
          8.51500407e-02, -3.13058805e+00, 3.10178399e+00,
          2.10039902e+00, 1.53556216e+00, 2.27408791e+00, 3.13113689e+00,
          2.63605714e+00, 2.22334594e-01 ]
      - [ -2.43579000e-01, 3.61654997e-01, -2.08474807e-02,
          1.19760707e-01, -9.97210979e-01, 5.08221984e-01,
          7.93754030e-03, 2.35241905e-01, -8.93193007e-01,
          2.11275995e-01, -8.08724016e-03, 2.04284877e-01,
          -7.75152028e-01, -6.88768983e-01, -7.41654158e-01,
          1.78915113e-02, 2.94952393e+00, 3.00426412e+00, 2.97931552e+00,
          1.71124302e-02, -2.01986909e+00, -1.48135996e+00,
          -1.73335493e+00, 1.59349740e-01, -1.77253103e+00,
          4.37000990e-01, -1.43545996e-02, 3.98217887e-01,
          -2.23473996e-01, 7.28145003e-01, 1.93881597e-02,
          1.33731693e-01, -1.58067906e+00, 1.38278902e+00,
          9.43995789e-02, 5.00593066e-01, -5.46121001e-01,
          -4.15630996e-01, -4.94256973e-01, 3.92282940e-02,
          -1.68575004e-01, 3.62978011e-01, 1.23639062e-01,
          2.03036234e-01, 9.34319973e-01, 1.40076101e+00, 1.20738208e+00,
          1.37122869e-01 ]
      - [ -5.80259979e-01, 1.90965605e+00, 1.76219791e-02,
          4.51013595e-01, -1.71386099e+00, 4.95808005e-01,
          -1.47622200e-02, 3.07510614e-01, -5.19760895e+00,
          1.05329800e+00, 9.46839992e-03, 8.44851851e-01,
          -6.94315016e-01, -6.09102011e-01, -6.38078392e-01,
          2.24046167e-02, -2.54340410e+00, -2.41108799e+00,
          -2.49640298e+00, 2.99479775e-02, -2.34732008e+00,
          -2.25647593e+00, -2.29807997e+00, 1.71597078e-02,
          -1.01070404e+00, 5.05575001e-01, -4.58790213e-02,
          2.40299031e-01, -9.37867999e-01, 1.81042302e+00,
          1.52157396e-02, 3.81205976e-01, -3.44015789e+00,
          8.95102024e-01, -4.61046398e-02, 8.41081619e-01,
          -4.94066000e-01, -2.01273993e-01, -3.72702211e-01,
          8.51909295e-02, 3.76426995e-01, 7.91252971e-01, 5.36329389e-01,
          1.43403292e-01, -2.43637994e-01, -1.48807004e-01,
          -2.05002546e-01, 3.34733948e-02 ]
      - [ -6.48914993e-01, -1.45008996e-01, -3.82276028e-01,
          1.09969772e-01, -9.06153023e-01, 2.93621004e-01,
          -7.41726607e-02, 1.96311399e-01, -8.65963995e-01,
          3.00664991e-01, -1.74444482e-01, 2.20186874e-01,
          -1.36005199e+00, -9.47793007e-01, -1.09856880e+00,
          1.33365214e-01, -8.70464027e-01, 9.14345980e-01,
          -6.99152470e-01, 2.54894704e-01, 5.98888993e-01,
          9.14345980e-01, 6.99364126e-01, 9.75573733e-02,
          -7.15898991e-01, -3.94807994e-01, -5.28822899e-01,
          9.69981477e-02, 4.00732994e-01, 6.91065013e-01, 5.52600861e-01,
          6.90436661e-02, -9.97416973e-01, -7.69456029e-01,
          -8.77830863e-01, 5.12678623e-02, -5.93249977e-01,
          -3.76112998e-01, -4.42170888e-01, 5.77267259e-02,
          -2.28988007e-01, 2.17690396e+00, 7.35112578e-02,
          3.11453253e-01, 2.15512204e+00, 2.31628299e+00, 2.26375151e+00,
          4.63179611e-02 ]
      - [ -2.84909993e-01, 5.89527011e-01, 1.98088996e-02,
          1.96381569e-01, -8.64754021e-01, 4.77236986e-01,
          -8.30813963e-03, 2.34202430e-01, -4.17519987e-01,
          1.16872394e+00, 1.67262591e-02, 2.60963976e-01,
          -2.24957004e-01, -1.31688997e-01, -1.94578379e-01,
          2.33670641e-02, 8.04480016e-02, 1.66107997e-01, 1.31740555e-01,
          2.25797631e-02, 9.87999979e-03, 6.45060018e-02, 2.59128008e-02,
          1.24305226e-02, -1.62673104e+00, 3.88756990e-01,
          -3.70502211e-02, 3.32033724e-01, -6.13566995e-01,
          6.53959990e-01, -6.32859999e-04, 1.96413025e-01,
          -2.82363105e+00, 1.35748303e+00, -7.53193796e-02,
          6.61971867e-01, -1.00688505e+00, -9.43935990e-01,
          -9.74776566e-01, 1.52461277e-02, -1.12581998e-01,
          4.82950002e-01, 3.40740010e-03, 1.78210735e-01,
          -1.93939000e-01, 5.18679991e-02, -1.25814885e-01,
          7.78964162e-02 ]
